% ===== NEURAL NETWORK CONSTANTS =====
% Input 1
x1_step1.xoffset = [0;0;0;0;0;0;0;0;0;0;0;0;0;0;0;0;0;0;0;0;1;11];
x1_step1.gain = [2.06451612903226;2.06451612903226;2.06451612903226;2.06451612903226;2.06451612903226;0.0512820512820513;0.0588235294117647;0.0555555555555556;0.0526315789473684;0.0645161290322581;2.06451612903226;2.06451612903226;2.06451612903226;2.06451612903226;2.06451612903226;0.0476190476190476;0.0571428571428571;0.0512820512820513;0.0476190476190476;0.0571428571428571;0.5;0.142857142857143];
x1_step1.ymin = -1;
% Layer 1
b1 = [-1.9483445379200643;-1.9339190788490417;-1.9348845689305265;-1.9695488722101746;1.8482736238480302;-1.8678141231112799;1.8125161473733891;-1.8242638561250699;2.0101795393363715;1.9763599311855105;1.7681403037742591;1.9480371541164798;1.9314550190406852;2.0687518731643975;1.788879563831691;-1.9203246801896525;-1.8167164089659493;2.0703482619430438;-2.1332778003403905;-1.7310293362972287;-1.7027602180266439;1.9978952952302143;-1.7440217149796542;-1.8934135422647631;-1.852075188833761;1.8370028314530087;1.8417253398195619;1.7679146524018803;1.7391429615769085;1.7552153343030195;1.8504663413874489;-1.9944498784746805;-1.7444920009533973;1.6883938763062967;1.8450826548112498;-1.7523153845839856;-1.8320833523653632;1.791453625157817;-1.6977023223799697;-1.7385260572618091;1.8213857502111817;-1.7323199656293995;1.7586265389599345;1.7700608316869701;1.8175759736516515;1.8077235218799244;1.8219826458408923;1.8466074133919819;1.7734107929363883;-1.6575008645260139;-1.7103936963090871;1.6350634064924328;1.7008069874251897;1.7757130910580829;1.7803723902738466;1.6634834074229046;1.7243655253580772;-1.7229247214818153;-1.6491019513615965;1.8833820395950418;-1.7077489691359538;1.6490170696745046;1.7770756990202132;-1.6179354414757461;-1.9166447685017489;-1.6216777980043875;-1.891388763513183;-1.663685990622688;1.6976822160479341;1.7452397120882592;1.8803080563640702;-1.6460008377910367;1.5166655751919957;1.8288539231344199;-1.5578730827262879;-1.6913321118759799;1.757184737388831;1.7005433451212473;-1.6346107010449953;1.720358245535629;-1.5545341734346858;1.4995398228472969;-1.6465775606777866;-1.5507352654043922;-1.578741544832122;1.6067097093534801;-1.6386710210565008;1.8679894877639098;1.5536314010702765;-1.6904285035137754;1.5732277724521404;1.6216008931097923;-1.4412943202522848;-1.4530089452001829;1.5613629264014484;1.624140184345372;1.6602775337580189;1.4110648619107533;1.6703229571486193;-1.2789154215141993;-1.5869211886500838;1.5514215193064453;1.6108085920055795;-1.6185825705615353;-1.6284888459748486;-1.5106460831269437;-1.5154524856488554;1.4293932226823489;1.3688223625608149;1.2999079837267566;1.6618151791450648;1.5034713434972919;-1.4245843515560854;-1.5471565679067798;1.5412797545563914;1.5577028518608478;-1.4937050944474095;1.2476486361201058;1.6405548304095232;1.5265371277442117;1.4159398696233367;1.4491951701517207;-1.4799396358783241;-1.5166827553348785;1.4434045102092266;-1.5468358612300237;1.3981577917766823;1.5006493047669689;-1.4327394310439709;1.1578641021385534;1.4507701955172434;-1.5679982009762674;1.3479711755423256;-1.564319483126714;-1.4801682934872735;1.2947372094146699;-1.2889843799868728;1.3910255984113475;1.5945554324579903;1.435954612097212;1.6036313910228561;1.3742176949494265;-1.4935752660942523;-1.4798540707288026;1.3228960202204674;-1.4146577141013241;-1.2757108503753027;-1.5369208187985883;-1.5294354334557874;1.4675209176903015;1.551050021945064;1.5300145378409959;1.3136415449770846;1.3672060083287028;-1.4198804938957854;-1.2056760594748965;-1.1439447217219563;-1.5114593365306452;1.3530129654930949;-1.3552749994684437;1.1837906266681057;1.1295554769950813;1.3426199431796111;1.2780624429865728;1.4725188663856319;1.4194484288600604;1.3962246886850251;1.4561726649066493;1.0932479706385567;1.1167103538155283;-1.2738149964871395;-1.4072538772893448;-1.4093584918501245;1.314304287960772;1.1674838820608213;-1.5073541372135477;-1.1244057720803575;-1.0444850069895313;-1.3002971542286241;1.2834228661763949;1.4322096740050088;1.3172044143036352;1.3102718216615536;-1.0824582179455755;1.1395124727434527;1.1361531188826466;-1.2011042533818979;-1.3474062033019827;-1.147061083382402;-1.27978333147719;-1.4007402784915817;-1.4021517678360935;1.1043505668513145;-1.1472739735210991;0.92885315892556553;1.1180517286434135;1.3820937467286145;-1.2631331499561453;-1.182176506458152;-1.0979614528071646;1.3361872614356489;-1.2302889866375164;-1.2843021476845347;1.4746060665384582;1.1563855283853062;1.1358660393712945;-1.4064928902151801;-1.0406209949555418;-1.1585382559241142;-1.245353093966699;-1.0124510518114567;-1.1829474689556543;1.1841130553332575;-1.2149078248983654;1.3063092867908686;-1.0374316426241916;-1.1303514100661076;-1.1781668509517205;-1.1201632487111146;1.1484752961068414;1.1514937498247009;1.0518416875709555;-1.0552304709288385;-0.92302111894087602;0.97158267349490368;1.01267813647932;-0.94375209168066299;-1.024365278324801;-1.0859876861375799;-0.99931169175998347;-1.1324292572403909;1.1593428744561032;1.0101004644861074;-1.1693021719390249;1.2513229963840558;-1.0719882104820742;1.1009928646016318;-0.94592920824523841;-0.96489441078959159;1.1131599829169938;-1.0533097504104705;-1.128419623198432;0.83420484151675844;1.0790571633506116;0.91663912141183979;1.0314287040088248;1.1379046728385969;-0.96051154983595866;1.0312064101530889;0.99357482229643268;-0.90874033178916047;0.9650341318957556;0.94885839070047762;0.98178353836735954;0.73619334231115663;-0.82606172427089664;-0.92477501023744879;0.90885203491224476;-0.77425197020470782;-1.0006966328707425;1.1144370877855356;-0.85133159489497778;-0.82506386701433909;-0.90532518056852374;-1.0867800210140042;-1.0125249234941693;0.94747499027557214;-1.1262223954086807;0.62208995949350265;0.84407483842959086;-0.94553447978862892;0.88060167973829251;-0.91244255916918926;-0.85068472501486414;-0.94250749991508287;-1.0406065007271914;-0.8900468851362916;-0.91675222717239901;-0.75089707292924102;-0.85416669471689299;-0.68071194330382578;-0.80177419992932075;-0.90117366509079988;-0.90065452782123689;-0.83710785988944836;-1.1030192659912883;0.91884603092633244;0.80233332795390522;0.91242717816182684;-1.1567357650137742;-0.94998880950917364;0.72075664840834697;-0.80581942284206021;0.59422066022655018;0.9325506617693885;-0.84953192517056486;-0.78463211253858745;-0.82139756478159887;0.57678461596021346;0.89691121785845096;-0.80666090060974294;0.85716110098863063;-0.6900778588760732;-0.90061030338585202;0.64973242442947199;0.87456968847101402;0.7353185383825287;0.87431736405209548;-0.46962119163500121;0.86512838337626297;0.72836031184182815;-0.93132014391509876;0.8350561338686634;0.73303348266614199;0.81674866187619188;-0.74163796246890024;0.65360328037184645;-0.65172994034384057;0.85835095607344758;-0.37691471698624762;-0.64950749483322989;-0.60781849372427754;-0.84047183844884688;-0.98740080559170051;0.53359711635676033;-0.67869682927698916;-0.77662856193096752;-0.65940238960989328;0.81028021172162135;0.43219162017301532;-0.84344300895304991;1.0079249109135682;0.75115900037191274;0.65438982944252522;0.88391457117143502;-0.41970814840264742;0.50905616062148018;-0.84865733972559165;-0.66370390006079449;-0.8888806499387768;-0.46350732229754038;0.71279722737441198;0.72788834335645658;0.69383242325892203;-0.71563559171431068;-0.8372533679315407;-0.66404665228453674;0.54340448896106275;-0.77597460550444453;-0.82816958608835567;-0.90950279949753421;-0.63650430348168474;0.76934222649288675;-0.54223348995353771;-0.75207448354723749;0.66195732553903142;-0.86832240959709694;0.66185382568286732;-0.81299416872607422;-0.47212389619704159;0.71979473879340705;-0.33295172394984163;0.89463741814276287;0.2660792619242498;0.44125276714597256;-0.67257376663074686;0.6598691690608236;0.71362077051111705;-0.83746980006180261;-0.73808462983795364;0.58044317887544783;0.62435623152436937;0.86518976242455781;-0.57720772918823471;-0.520824777946165;-0.39127301358572342;-0.40277279203705751;0.54064285093937747;-0.56776713372171417;-0.56898885690022849;-0.44429375233583618;0.47927543562438674;0.37167125110585791;0.43648282401128274;0.60442428965784178;0.47954193891282243;-0.52425778501976095;-0.38032493830468633;0.50686623474193415;-0.44580385581988735;0.61780752779845138;-0.37231349611438236;-0.46808652644707116;-0.38107864944092412;-0.43969482298552903;-0.51759449890108467;0.39273605494298314;0.2689383556299958;0.44995927493819476;-0.50751494829263133;0.45505341216807121;0.30656628755729637;-0.41054222360627762;-0.52629482697181973;-0.44138465795002185;0.35243381065431201;-0.056997778614683067;0.28551012223562167;0.4803358218842923;-0.51262762739702927;-0.32252399226666911;0.37885411538550295;0.30909242799135328;0.39968530678009973;0.29024986776470035;-0.51769260166198972;-0.38341249188158172;0.47259122346286342;-0.61581648813882406;0.48332133624104723;0.40919792416206563;0.32966608046164603;0.47234972603715425;-0.25407541689872354;-0.13791454515834345;0.049417249727493978;-0.3295314146739392;-0.38178947332387048;0.34262151628346837;-0.23469533206675167;0.50093722799165896;0.47935052239237452;0.44853833493526374;0.19686120190983175;-0.2498794713489674;0.3094072184847787;0.5067683149293285;0.28137730382362258;0.39428436632472041;-0.29983200994993187;-0.29651289895607558;-0.46497462659596428;-0.31990526605766478;-0.2986654873104419;0.18181067666801023;0.28643975453915455;-0.0053122174248346476;-0.41980884522615436;-0.50010547940786776;-0.29563696492150782;-0.46569983572444407;-0.36050807063700974;-0.0010107694522984577;0.18171843109350061;-0.23495683727375083;-0.38273248514470409;0.21049961759857846;-0.059462886496853051;-0.21472853280482529;-0.041492473664034531;0.16342176135791733;0.28062230621137291;-0.072716994643777524;-0.23514843434531404;0.047411812643999365;-0.08519853733542293;-0.26909775847472173;-0.16005440401924775;0.042515702785166622;-0.74758421663273911;0.08312963605793898;-0.43292555765218821;-0.055794881070947648;-0.16103909607378397;-0.31549612073664368;-0.086755235387818735;-0.0047058312402512605;-0.33661030189787833;-0.14012323781368188;-0.27364227932516677;0.13929714323982867;-0.1915051188078451;-0.1360034139341797;0.44334609045336598;0.05942003418676909;-0.16356950536675322;-0.35106288248295753;0.053519883592466969;0.010284641313300643;0.21589316431833755;0.13177922195421515;0.034936584841744708;0.1322484943264062;-0.22257724168788695;-0.35722902193335393;0.16133794752898686;0.13388284005401815;0.10503981935703555;-0.17355144109734599;-0.16221858269689118;0.050907508126204537;-0.056204436142334432;0.0021615374002707309;0.088175832781750271;0.64630562438374561;0.12291518308088401;-0.019662435233257981;-0.03431925329470787;0.049958901296844542;0.13888904915808631;0.11985809749933501;0.29295817806758434;0.17988815275548134;0.42239058001143692;-0.13319324074508182;0.090145850118007714;0.040151776403896049;-0.059780902072902861;0.20348094828855801;0.10691810801049885;-0.1560052035291116;-0.044965932590029012;0.12862592997601252;0.12928109551651512;0.19124358968660776;0.086147994666551486;0.035122388194724852;0.011655605055079815;-0.14188159743020756;0.16155520357401482;0.069899721752995039;0.38327858529010506;-0.050710529838397113;-0.0042888702153183206;0.0571727828253644;0.35342262917491168;0.093564233594461338;0.10679781971884267;0.024626723595505218;-0.025720230728129196;0.013018774430065043;-0.22269864924561814;0.087261606492687313;-0.15382615303649302;0.26787851065389556;0.010880450458020521;-0.063524006865988178;0.13145480203454929;0.055500149708584481;0.309604211006271;-0.16564570623454036;-0.17443953652723965;0.24118442664193993;-0.12428150680960509;0.15442425882488869;-0.039801608604735493;0.15617055505587943;0.064791910737281883;-0.037820729045727426;-0.28069074103934888;-0.084077529421812958;0.050433818121428928;-0.24853932199831827;-0.2649958974466437;0.1486960847399664;-0.00016086827622222933;0.30414949573816263;-0.14997148941085009;0.073496354771448322;0.43899900686624532;-0.19571653913125273;0.60932259731245419;0.64947576945977703;-0.18368076963558164;0.26447009312135394;0.11641207998386335;-0.010423309557806694;-0.36612989422868553;-0.40404016182019864;0.051712450522964484;-0.45674846537232849;0.13070184695285914;0.52033367159520405;0.47830435259672649;-0.33819606620061105;0.21299882389604233;0.19138705431716346;-0.31416927954742541;-0.37116072152744395;-0.063188665301661867;0.40725578636207593;0.54276346825704846;-0.5120634179688196;-0.044126240786045622;0.27165493231618337;0.12872178368986156;0.10658034113433305;0.22322195710749487;-0.29777488871776836;0.39043131217629445;-0.32878212242445082;0.26311996790927844;-0.36560512001433143;0.17608063648126912;0.41041097760413875;0.40713011376724029;-0.37322842508926146;0.24086360490921482;-0.25779726439164158;0.15757467510952144;0.47393445356913483;-0.45798257705848738;-0.45441898187591317;0.64041686082506522;-0.5649844877154121;-0.37294127139724931;-0.48724923998794173;0.3795232247984332;0.48648375580996761;0.52061906474572917;0.4668417951426625;0.51462994706038068;-0.38383304641311439;-0.48169033619659407;0.39746906184927638;-0.24739691470848585;-0.40748646364898838;0.46136045113302704;-0.50260075376356994;0.38349826489004729;0.57952908017064098;-0.4009231610955179;-0.23971630925389303;0.63872435425934526;0.58771819424528604;0.52426103653569556;-0.16909755091482195;0.55483759160397439;-0.43998560100327389;0.74982992060458886;0.40604636135719419;-0.41887299326677779;-0.64784876786823231;0.74195242554759111;-0.55182273973254825;0.43180992381319749;0.46997972136466382;-0.41555562007541036;0.53574329475520777;0.81637305616019318;0.19726712429322227;-0.28976418298425277;0.45305280585275409;-0.55662555193421381;0.51673629983380098;0.15220912556288349;0.73471721088679653;0.68394734263313317;0.69640397193482162;-0.42758978225917338;0.61095306381164904;0.41700063572912138;0.50320202988498308;0.52910715811630238;0.7353512782202305;0.40168302177697984;-0.75684196528684589;0.91006656819132836;0.79772008854694243;-0.68935364877965122;-0.53743463161154603;0.73092025623940349;-0.73823124266850804;0.68439034372738672;-0.51750459338550636;-0.48606808042051758;0.83667487654277584;-0.47625439656170576;-0.57440272135316084;0.73331942869800781;0.47610787059675758;0.75348376326584765;-0.68026134932051685;0.72093440414193566;-0.9708720121598724;0.58466899514288395;0.44385643333363295;-0.60012734377199028;-0.68619251273105186;0.41670158073346891;-0.77874805384692514;-0.63602463865715164;-0.69921889179164831;-0.87527668125990188;-0.6096524760330414;-0.5582247512435764;0.76957472999321619;0.63686742099363991;0.74036786343858296;0.81340794081596213;-0.60589232488072386;0.77869987163380328;0.64046361351226344;-0.91074509159924111;0.65515342144669897;-0.79492228581181335;-0.7448283242481748;-0.76175635721436619;-0.65457432421419648;0.64095113254886937;0.97247846817331263;0.75944664919649851;0.81457225599926264;-0.6418225153646121;-0.84707325897940033;-0.65361498725401823;-0.97689015584217453;-0.88453667611158826;0.57675117759358951;0.77994359689221571;0.84581037233880096;-0.94766426346561849;-0.88625317133045411;0.77001261676660615;-0.66220047820060857;-0.79280097011610573;-0.88356946701664563;0.65031244015367407;-0.78540279448641726;-0.81451898794097544;0.85498572568515185;-0.72438259242672787;-0.78818642585194165;0.90196878557369431;-0.84142551971589763;0.60800648053889506;0.97408128238303182;-0.70805865107287458;1.1842557671038325;-0.83199308752082013;-0.8737547771052675;0.82847135751446477;0.73549058824218327;0.72478769260284936;0.94791969017140709;-0.75475714138122885;0.92700655145473021;0.86980654429121951;1.0775491813390641;-0.9337574747331312;0.71074701659512529;0.93311912648631312;-0.83566380796970485;-0.82561434649494414;-1.0199041888858629;0.76627756060420604;-0.76355751391198212;0.60824802331562744;-0.87292121974775838;-0.93180691657123405;-0.94481551637735151;-0.83845684758978734;0.51570925269872114;1.0165824012930786;-1.0409175699607671;-1.0605443046439591;0.95746905748692301;-0.93828050605200131;0.86686060207199234;-1.0485854105949495;1.1363720785540015;1.1627051094471379;-0.82376153293610921;0.87440206125598086;-1.1007435932073821;-1.2073556027324766;0.79922508502418754;-1.0436592004175207;1.0013249743457138;-0.94195350281502366;-0.77869677248132774;0.99215683029249491;-0.91040998956919494;-1.1062718446049287;1.0054755443793686;-0.74577044659737068;0.95042214516444512;-0.98484486921787839;-1.3002922777610737;0.94893799146316393;-1.0803498184493083;-1.0249414350931851;-0.97297275207573297;0.8994284335847873;-1.0518403948395354;-1.1596362292935918;1.0981017687745938;-1.2033762964009116;1.2792461111252196;-1.1255150789401438;1.1721927474365976;-1.1916322362864382;1.1560252320789586;1.3728842220901387;1.016968450812971;1.1034537325307701;1.0987071658128553;1.208414308153055;1.3279971098462209;-1.0746693957131013;1.1686427773074624;-1.010504904223948;1.1248750655697819;1.0478689493585449;-1.3921276989863083;1.1106366851888518;-1.1307839559439052;-1.0188124193171215;-1.1537133446560532;1.224014899802949;1.3626881601915835;1.0892910269020935;-1.0666302010052868;-1.2180805729588062;1.1007847094588199;1.1702241695188926;1.1917783371645758;-1.2865483700243436;-1.1438987693539608;-1.0540532984160589;1.1488633613395856;-1.1034945089212993;-1.1112070858138967;1.1957392294350631;1.2796412299510229;-1.1538195940566713;-1.1065680014428654;1.0704425475039467;-1.3638402405211036;1.3182251105820291;-1.3940247506978725;1.3025864118565726;1.261985247184366;1.3666151331403102;1.3191466397979412;1.1510857857847332;1.2024564204627954;1.3005499852934874;-1.3485570460354332;1.0236293366447085;-1.3090414406000241;-0.93903844784314994;1.2161780902368422;-1.2826909606162793;1.099999546038275;1.32720005849154;1.3509283065529876;-1.2529162761975166;1.4982972915214054;-1.2372808105729993;1.1409985599931001;-1.2836712610674237;-1.3607842386480151;-1.2092794452043167;-1.2275442982650921;1.3154488347524838;1.4314243153620683;1.4508357395396116;1.364623910746698;-1.4713349994538225;1.3377402728677261;1.4166962660385907;-1.5052254489532917;1.1936237520516508;-1.398669277108046;-1.1875207788144968;1.3676371379202161;-1.3475855495973159;-1.3134855131417362;1.5154526690901489;-1.4159957466024213;-1.3867312825357547;-1.2238743790254634;-1.398523352429428;-1.5199066840631905;1.4385928560860326;-1.3593104539063088;1.2970416695012825;1.3981072523692402;1.3755525310088403;1.5642260166108402;-1.44253979098936;1.2812409113420213;-1.4998109949452505;1.6658436515544408;1.4033010195032847;-1.1249168758226145;1.4965842305511714;-1.4479466425010452;1.3316939964393899;1.4660054232193536;-1.3449937165887558;1.5347994985708711;1.5368308953484839;1.6207642197719709;1.5493503235914083;-1.556892330654331;1.6225793774512833;-1.540871965634083;1.7480010510268118;1.5281495405044672;-1.4559783188728419;-1.6342298984780903;-1.4511945843551182;-1.4788318918945018;1.6204028053019539;-1.4087904688051791;1.4000389290064736;-1.3680771051870235;-1.4656351642825594;-1.5774265883185468;1.676069137675027;-1.6578058648074234;-1.5053436975105026;1.6126631637888853;-1.5752056647284169;-1.5326748981564779;-1.4560971092669572;-1.8289414731990825;1.5867901299716616;1.4988988253917415;1.6174724573760864;-1.6345196600676535;-1.7441186716580863;1.6423276748029283;1.6363789075240949;-1.5084712545989223;-1.698783456149924;-1.6795446165898864;1.6244344905481767;-1.6495296554266023;1.7264352494204191;-1.4945779463158833;1.6994100033797226;-1.6012959109666025;1.6607611080246112;1.6648969296561849;1.6016846664143107;-1.7299586727288589;-1.5729171575853003;-1.6585935643013494;1.7453197834733152;-1.6873689814875543;-1.8560140996320742;1.6112915491970223;1.745138935588517;-1.6613890590881588;-1.9437496929444449;-1.5216671098538832;1.5989846683966595;-1.6512947938014029;1.7456860007774742;-1.7095237405344978;1.7531902948221152;1.6799599938504264;1.745936114636351;1.5944757812486026;1.7840091719804299;-1.7030450035507296;-1.7073590903727418;-1.849212316353295;-1.7178781030873886;1.738504679180606;1.5660653087999352;-1.6475824697057864;-1.7878289056337189;1.6634769897136628;1.7566218032510232;-1.8543694559954265;-1.636965238465619;1.8572376603362968;1.9120399993711146;1.6756951117459002;1.7009555406015087;-1.5694089422393978;1.8628062515078474;1.7399004172184374;-1.7022981837648632;1.8077789695638233;1.752196370818631;-1.9536953293806574;-1.8490416108402661;-1.9499864826944315;1.808859932477324;1.8270500850890214;-1.78151708358121;-1.8563627005725785;1.8258717192933624;1.8434538722824989;-1.9374065684511526;1.9215278622876695;1.8849275231302893;-1.8251432229368985;-2.0061787257073083;-1.9489942244589822;1.7610438353946287;-1.8489613578184363;1.7898625328565916;1.8971961297808693;1.9946841084586362;-1.826749117836812;1.8027128202622769;1.8816993261666783;-1.7366086911433913;-1.924933597069975;-1.8809750030412231;-1.9848309275852845;1.7950423482353925;1.9648913925561449;1.9753872738031524;1.9615277658283139;-1.919250322351433;-1.8025795698268787;1.8309630979240337];
IW1_1 = [0.50754181050002545 0.24412677770509539 -0.53800041211114213 -0.058328303312641876 0.43427706624746115 -0.038177098116771009 -0.4701731735713166 0.43620141395401169 -0.6280185288259621 -0.11310446084196406 0.10865290319402787 0.48070297141476137 -0.28716751263792212 -0.060908507989917114 -0.15884883206945524 -0.14959295054184524 0.7394307677412455 0.46198570684639556 0.38536440944446138 -0.25658347735026865 -0.63881114198558986 0.41356198069378319;0.37003666953885694 -0.431710507430701 -0.47799629786985931 -0.55504600531381798 -0.20860626025131401 0.47368170007515764 0.64963631967072166 -0.23500566554369959 -0.26524345330040888 0.38532860432591814 0.56300339513400877 0.017683465138765914 0.33932052900958432 0.66174776734218521 0.26979571520349255 0.093398203509282962 0.60445870473363572 -0.21460023711831577 0.41386620191997403 0.30295941249112085 -0.027855801635573822 -0.42397845920074728;0.6114233560928517 -0.030473037694405947 -0.39237026001097419 -0.47676698518300964 -0.28745858018892861 0.47221551406221013 0.63394244183625159 -0.56603488015344905 0.21878888577366035 -0.56670211845073737 -0.058254029793808622 -0.51464223208970528 0.60982939718629081 -0.43446829162027178 0.24083776884519931 -0.00020559326969810067 -0.00078391395851326053 -0.42441634653118193 0.4062394536506812 -0.41971950397547803 -0.16307203628393602 0.22569495233888648;0.45730818918698124 -0.18305750226733838 -0.35088393647920901 0.066136181081489068 -0.58354397166913174 0.45979455615670195 0.23674779004114607 -0.13301959675019895 0.3852762209195259 0.39551272643193569 0.57936110587911671 -0.36867221933900002 -0.43177997335103202 -0.4562362925364859 0.32791480219799413 -0.51747657174481054 -0.28037860537895287 0.46309269981385992 -0.21003199123506752 -0.51940940325246365 -0.52104788763157994 0.44843007352732689;-0.31178611319532973 0.9339475824374962 0.14964114550364208 -0.79552528941254064 0.57530401075336457 0.4026896694611698 -0.64430423889457056 0.2577537425772975 -0.41329946103594617 -0.61914852420829469 0.12652727889802132 -0.10498016598118438 -0.043113997875588554 -0.51133493020761844 -0.15524786088476744 -0.027011715051249552 -0.064438751204330513 0.37000454356082663 -0.24782071017657997 0.4161096106660086 -0.013752535739525196 0.43242613281281006;0.42019368867534251 -0.48523315199290973 0.40261014392596361 -0.12832135892428687 0.51254136170632791 -0.53247741797270043 -0.38215846353215777 -0.27921536933122321 0.5691237838549621 0.35164027455119806 0.067623004564671935 -0.3404881196372247 0.56011663263851041 0.43366782219323946 -0.39190416764591413 -0.24892616382621993 0.26667459836839463 0.67692813979864463 0.16978104497400306 0.63872557823291676 -0.15777703062609169 0.17736532899156862;-0.39539006059916015 -0.22341721362074859 -0.57848021410658534 -0.53202886106622649 -0.19498431463103424 0.45664669928410967 -0.29938278601685686 -0.55410688415142584 -0.397728941903775 -0.45525520145493409 0.30974644156672276 0.33501169201036723 0.50930207543534345 0.03521867313382842 0.43928729936376143 0.49007975141249149 -0.0046695760390548131 0.51711370513396426 0.52169748855564679 0.55189938606988775 -0.2348649083469021 -0.89883697968968146;0.60769694177427902 -0.58553752955455618 -0.57576670454426415 0.26071858226799433 0.33158793161468281 0.3827400355917514 0.16947627640535196 -0.75520410739224708 -0.5025529594455973 0.37502509981624221 -0.64121963582762376 0.60823500779430228 0.45807511758801217 -0.043165159798272679 0.097721520338697451 0.41575059463042413 -0.11663693895272462 0.11138701251135907 -0.13610954301560124 0.31419358363363908 -0.076341929776084089 0.56068469063713477;-0.67748846103123506 0.12050774872454616 0.015864774996386159 0.34653122951960391 -0.74957979280770404 0.30312507126577409 0.24555954439989189 0.122720625406677 -0.0831705740984406 -0.51379800271870513 -0.45204609459398176 -0.34636514023059034 -0.6692786031050002 -0.081827732970647063 0.10568104128441297 -0.74496513904814998 -0.11974818864538395 -0.32874458411611152 0.22223569812162383 0.20059670668226495 0.0028732396389745444 -0.0042158730253020428;-0.73048337314502687 0.11989642255867351 0.015981236656524917 0.68944340118429204 -0.36703714438720608 0.19887773487777885 -0.51811335349403609 0.64468600991612035 -0.14046980405250581 -0.31101383311283065 -0.40142919131602123 -0.17578998309949409 0.74567366089861753 0.50972634055039923 0.21159974922408298 -0.02554187928666786 0.1260950186469274 0.14546834166701 0.78765161645408166 0.063593264629494828 0.29522200871830656 -0.17976752252610798;-0.3625311445604007 -0.51616000275843799 0.67927591491131833 -0.24573800175750379 0.33305374919789377 0.59459082625604398 -0.22458344254483126 -0.57160050663897533 0.11923100475374658 -0.59852918884581408 -0.17282916627252923 -0.54575042324782741 -0.26596105314623109 -0.40492256979863606 -0.55142379838365196 0.30312590812367773 -0.16859454930341478 -0.0035872109055815888 0.24390434479053566 -0.80144366569827319 0.33338356907048206 -0.37105040878707335;-0.39806351741561152 -0.45480566621681906 0.52783956293305878 -0.51901617713947312 0.39367843949686904 -0.37380588043381763 0.31202691524948706 0.35635901768857553 -0.47818352710872136 0.052177443083052027 -0.19140273136211983 0.30036245190918226 -0.43460507932049963 -0.46026627067614728 0.086114704120626689 0.17372181964606662 -0.59807670744623609 -0.42481243413164443 -0.40308104169735604 -0.28504170995561218 0.47693887988877698 -0.45609659764338484;-0.062058998975432766 0.37076768624091044 -0.38164122364714081 0.09723205254757919 0.15725073007258386 0.72285014130697234 -0.59156323020061485 -0.49034625192914416 0.15609945382862536 -0.22038344486779596 -0.17707540289230905 0.088418934911314279 0.2518391451647603 -0.63136694596909193 0.42217494318496779 -0.55523801285608376 -0.006800985367306913 0.70246021489075139 -0.08954168369715132 -0.66291976544627007 -0.22414606225913297 -0.018062455859033967;-0.46507078330855733 -0.20817017669284482 -0.30895584151778305 0.1204880187410748 0.25955367743226093 -0.71990488772523464 -0.061398904973386459 -0.44652003621204372 -0.66173447725677903 -0.42447059890208333 0.2631321004950179 -0.18284754806633 0.56033945482170733 0.31069970502489214 -0.018753560000495474 0.50838892298304994 -0.35874262525277051 -0.36338688530396462 0.48500835826246613 0.37912285680449409 -0.15654360412036827 0.18493903662400502;-0.54170554876561761 -0.62273881113195273 -0.21308649172946934 0.027288561506805843 0.59287028528700891 -0.10991035971129898 0.33220183974567102 -0.45085140508773569 -0.36883628764477799 0.12322789493298987 -0.44302025719396843 0.13742974732292573 0.32082255513303443 -0.5331959567248723 -0.57491265811174308 -0.60609537139260317 0.21507645842641226 0.21879115239918362 -0.61827574589516654 -0.3949077591994738 0.043233480716329785 0.64327631084012082;0.25283047831872468 -0.57629060775858132 0.26210983890445011 0.45644946091907507 -0.36058357454612394 -0.61533184131958851 0.084585788371631263 0.50811342444112928 -0.26576873533250828 0.012567644808027778 -0.38492718200255294 -0.45004429900721288 0.53186500330463538 0.16915121857100751 -0.35208894210831243 -0.64650860294349954 -0.11342296126867454 0.066371171601279075 0.16288933697418553 0.30757608208418313 0.34926351626242119 -0.24333165224563355;0.66960849851133408 0.5344605890052968 -0.2458793069412826 0.373688161927 -0.60347202786347354 0.15289100012243384 -0.084011699603422904 -0.011975106294879264 0.26017680426364953 -0.53964011440535664 -0.17278677638834949 -0.24960271276565033 -0.39015586988468881 0.24385818704384002 -0.40749236831479785 0.35405760718277085 -0.46360187784581669 0.47837348871773594 0.42764042373786465 0.31451590974281413 -0.32592059179038257 -0.52191892545760532;-0.3493694793696871 -0.037826361485325241 -0.046767378060350938 0.68361130287046579 0.23012047124320084 0.1973097572584244 -0.4764501731814062 0.51686876393007586 -0.14400972534093681 0.49493932756321896 -0.050927466054812368 -0.14643803661108673 -0.54484199663885158 -0.1354833859635429 0.0059454425554670374 -0.56553727506694196 -0.39051281416059197 -0.13688395386172036 -0.52739742894327934 -0.24416356033527131 -0.051927392322502333 0.30338316737180593;0.21555117860737702 0.15565844774794571 -0.12675401954145177 0.081200610623318195 -0.51787061321652361 0.068030342157802778 -0.52152587300572939 -0.16316847281998748 -0.27932046856335979 -0.33331447663408797 0.58018532728147088 -0.15636194251094801 0.33300038534675669 0.3744985601794954 -0.5872223630188067 -0.14407404054275511 0.20182820383509678 -0.35564338481825508 -0.33415403826429801 0.68706515574799198 -0.17743563204035481 0.24622363441158648;0.3395938509246253 -0.72302996868754488 -0.64483370363721193 0.68002545129908598 -0.01955496841431105 0.21984141066943799 -0.58958525420262575 -0.40770810755985809 0.22337839411987651 -0.029376630032863338 0.12806680492936359 0.44663219925178488 0.41650943669505736 0.27369551974755446 -0.27485143562880271 0.32735161244857613 0.49800627257044738 0.22133858595628381 0.36858013835433279 0.32101962894650338 -0.46935911950624559 -0.5522991379123211;0.74851771557970881 -0.77211441306353779 -0.157251099925451 0.48975913226639189 -0.70523873013725091 -0.3824530944360815 -0.5121201401921176 -0.41466614183410438 -0.0028674028282485069 -0.10708668844887802 0.077507712206957194 -0.55131138443656835 -0.32863450374432268 -0.58121129593040854 0.11762359777395319 -0.6944765102708601 0.42406255855772457 -0.61470512612985173 0.22557184311494072 0.137159655408916 0.064350430367638572 -0.22008754038416412;-0.46398196643403966 -0.30934580852959792 0.078370090903135417 -0.11042350055229014 0.5847624767251286 -0.45857645085202042 0.27341658815997016 0.75762660786254432 0.5393420532391674 0.31886397261602617 0.15727595798134625 -0.41863706420672703 0.18360038459177369 0.41314906377582633 -0.3761331504006577 0.052555914772293086 0.072224025402104319 -0.23788085578734758 -0.69488355945382996 -0.47316450762722051 0.21772583129732878 0.51779233737479824;0.64113210759623385 0.77569236300762823 0.24520060249813158 0.4868892894259722 0.051981758457821957 -0.53267686886190035 0.3035116959665552 0.57828115578306127 -0.080157504173532707 -0.079786560978353308 -0.59772506262633063 0.38987616357266802 -0.49278381890558248 -0.76232991991411569 -0.48114519253289922 -0.093753345330312293 0.3394195800632307 -0.14298622632557234 -0.7283208209545976 -0.19547676051084209 0.39035790946405741 -0.35512391264358384;0.54960366378925052 -0.15172934470373731 -0.38054385915292527 0.10784521774251422 0.43893544739610785 0.0082872563806793212 -0.48384421768131747 0.19643865941478483 0.4570533113228808 0.27481029010746449 -0.3153714006353453 0.78589612364644668 0.32330204048820288 -0.24638767781923487 0.44012401534897017 0.37165216472559731 0.71247675893254891 -0.44419183518445166 -0.52350070610547039 -0.28336474587483612 -0.1671668403033289 0.25331772256960755;0.29989967591590372 -0.79976917756467802 0.33267878172265308 0.29298785757013379 -0.44258661129369475 -0.51811662638034672 0.16850001165300166 -0.6024585634100621 -0.50259823239430412 0.54952679707402619 -0.66000994232701027 -0.37968699376409637 -0.0094179153365777871 0.31681218705633102 -0.29783572873104491 0.26712683287576861 0.3717601517495876 -0.08692139082265414 -0.60684829407148422 -0.57144184846760671 -0.13812003016432542 0.38038652661501299;0.04935458522711246 0.080658119685217564 -0.29569353077509092 0.082276477542260432 -0.40596331844360323 0.49774202758747338 0.48212320777972001 -0.030870072700069209 0.30942792006315156 -0.23596579287482997 -0.46093778203190638 0.13728696995973336 0.5721605118222437 0.5604138556987398 -0.56421799127362227 -0.0024866787942827901 -0.28988799436818313 0.34055321784970005 -0.48618357283531427 -0.71595275237708045 -0.80796838096065815 0.22425027397699471;-0.63049462723975247 0.27521949410063495 0.010964353424628077 0.24650534420969683 -0.24773301633639266 -0.44951891687055667 -0.46679066130375807 0.56244751827478945 -0.27768740393419911 -0.39411266666297529 0.25465374917429945 -0.56114742055132405 -0.045870655886242007 0.035578056834025068 0.22673460631743714 -0.56321555267487888 -0.39153362985127682 -0.60013717800750788 0.45613147393399511 -0.72473050623051427 0.037365910495313522 -0.27527854470672319;-0.75954524629504216 -0.54880031215384339 -0.35228668937370394 -0.75439575597358521 0.45660206100955519 0.0040908620112672387 -0.71525742099500789 0.27820839915711137 -0.011229409951495727 0.58020027703131849 0.15595974935254925 -0.1800597769583667 -0.210479722692196 0.041949211794579166 0.68509345211089068 -0.37157218622670712 0.024920716922178524 -0.11660713612269366 -0.051136739929678821 0.39736999406114726 -0.30644867989359548 0.072972221660681569;-0.48821898633440614 0.52087010946587475 -0.11394181132845824 0.041077833555588576 0.51666823369345227 0.57043361548784233 -0.49239920869581244 0.50200502770613986 0.028051938589688637 -0.35606237895912024 -0.0068926632344917128 0.46151774094756259 0.31969929936212554 0.26820519575675733 -0.68442013401538271 -0.52442184677034132 -0.42164048007983373 -0.03169179629101037 -0.099026920753195483 -0.81724510651370907 -0.38698404781808099 0.67204705201734261;-0.065541453076225969 -0.10998313754115839 0.59333970200306585 -0.60166516791077718 0.044641475221302816 -0.20505965433053944 -0.52887593631144858 -0.52473179090255762 0.36935729503509795 -0.36856999869040646 -0.6892630725193919 -0.48482367556074962 0.22985449518505613 -0.41782413884437491 0.089387875354160332 0.14082561262750404 0.2368390526961984 0.44741166154052492 0.076896387749467679 -0.45546365329274119 0.74046109697374429 0.077320636205589016;-0.48644690857218481 0.40188044425660069 -0.27168430289538126 -0.28617807099705411 0.084571797848906768 -0.53541433090864565 0.25564875975700052 -0.2083742722719947 0.48120424564745062 0.39915563852644376 0.10993655403441356 -0.56892953733211027 -0.69431134071278022 0.38273256501667074 0.38778087304728048 0.1077610071095597 -0.10447245468833929 -0.61909259983553866 -0.013070592709426516 -0.35707313947866326 0.40456136340905569 0.45062508293008224;0.33125507250125774 0.03450141002554042 -0.12808755115451148 0.33990041359527773 0.016300580787626199 -0.23748239227069465 0.70033847905907631 -0.57549118015447831 -0.63115803140190907 -0.21273882728869867 0.28477911244872683 -0.39906106052523549 0.44917388041620226 -0.27762056487810605 0.15818298389811017 -0.03011600560751836 -0.048937836905914564 0.4515995044959803 -0.56789491349846177 -0.30575869743339595 -0.38971304434099274 -0.022004702805137964;0.50147106439285194 0.044387568085492421 0.25980122501565522 -0.61150182479785298 0.077731150965596796 -0.20484246978418263 -0.16832453772441119 0.7221817734047915 0.48026692515325031 -0.71874262833345981 0.23756759679798506 0.57626308651266966 -0.39771139204159545 -0.26823076195057266 0.5764792093624389 -0.43133434819402999 -0.64312653464579539 0.26550666020787361 -0.00063827450982350772 -0.26011188672139263 -0.43647703904999086 -0.032023831512622884;-0.021855845711582403 0.73600491333219986 -0.11236626226009878 -0.18545358235817713 -0.44824414576821592 0.54814665044213584 -0.063095534807347531 0.70494613056527078 0.13574723294354629 -0.40580554445173833 0.5964573556898094 -0.47361935310707942 0.15515931784248879 -0.28718637319160895 -0.52350011597249546 0.071254867510363237 -0.4824873487444617 0.40143577148475329 0.093521412595206577 0.66565282603026632 -0.28387062846185196 0.70289798638792089;-0.038135197640081983 -0.53849427799893146 -0.16995206810612259 -0.57923238098622909 -0.25083833370872544 0.53538717897791366 0.49060759810364107 0.32228443574821142 -0.27344758710489525 0.63814770759726103 -0.39680644617491184 -0.47839262548861744 -0.097526105751030032 -0.30039936831688507 0.44646730413276819 0.11418782127760897 -0.1081819036681865 0.36767354277928288 0.67532953353374536 -0.20377199097643769 -0.49315311282574431 -0.26444896956521097;0.31909838002412028 0.64001175346429329 0.7367264897112431 0.20130582036289721 0.1927397713509352 0.27739827678791351 0.91648161351980917 0.17108911021113998 -0.25138430138906248 0.37282120021069892 -0.052223563049799956 0.040955282875204321 -0.50082818441908972 0.58834026710001253 -0.43519963161580622 -0.15331146185402433 -0.43880793774320315 0.44458663800753712 -0.41463935528639628 0.39752756357239449 -0.57723573484275537 0.64753067436124645;0.16271475243273784 0.029712320548014245 0.048572978645082365 -0.0049377561478553319 0.42545206230663274 -0.57737928588303467 0.47117178777021923 0.36519027914607771 0.25908911259943351 -0.047529633943080525 -0.67760647041632593 -0.65376237488037925 0.27603549484633177 -0.43806110272192994 0.68124436372974406 -0.21725885145324894 0.4825629447567647 -0.012109716578845743 0.52104136979243854 -0.65656889201823965 0.26062412808835977 0.15165938521822853;-0.44774103104109725 -0.42910326951564481 0.64920559467822692 0.018326090371884363 0.60727800798146514 -0.17130330136350325 -0.2887525161009441 0.23274871987875972 -0.52296525954757811 0.26334138367756177 0.24337409650661607 0.13918424224903025 0.62397014286608887 0.13116287135305671 0.44055510811452891 -0.73128898242981444 0.4877752404018556 0.41245158949182575 0.27504867052951643 0.44870334374293197 0.50204648125639073 0.041809483723165203;0.44667833938252821 0.48034416900646065 0.73812970826791346 0.25217581476696466 0.19953725219007673 -0.0694477578558233 0.43812532796810449 -0.2353340848179421 -0.20018351200332513 -0.30360322574728899 0.43501400316761862 -0.50186819895930124 -0.66529663720900656 0.70561170527117834 0.61162386459122942 0.057933728701382067 0.44896415910165671 0.44747100572171244 0.11917145483687125 -0.45953911177583651 0.077115079754406096 0.036760218838180758;0.44187126969595603 -0.20308850327085889 -0.53880748951971125 0.29815910536270157 0.53615013630600128 0.15408925268377704 0.61124601003021906 -0.29990266044909925 0.67410731930137346 0.088608897904536674 -0.29213104791681538 0.55768921171661479 -0.43397005767598212 0.27564853689870578 0.66603968031156879 -0.29019999078409447 0.34152838293782767 -0.39968753516027855 0.435379983970133 0.25905509453307057 -0.13350076186625601 0.29279155170337212;-0.62808226183575622 -0.3788717369039562 0.27395266568103616 -0.17161341312780648 -0.30910895470449562 0.66443438314860992 0.37653029960346562 -0.49724243830925197 -0.16520704228841146 0.2130812375853971 0.10088092954763871 -0.18452398135526304 0.22058904969203721 0.62695585576509594 -0.49687788543874672 -0.6158382376169631 0.46550475954110543 0.13100836423845658 0.50829511112981463 0.091548631880975256 0.72204566077913634 -0.15963784251460161;0.25198530872160746 0.66271223261139811 0.45874499817868691 0.52127872550256804 -0.19869708558369586 0.097093890094156282 -0.4602504536354301 0.20082910197827827 0.47994101070355866 0.40425420925989403 0.16901433613972741 -0.13201979226533817 0.35212147858433118 -0.0059734146420380857 -0.10936878201046145 0.67909771270828134 0.5607949572597114 0.45383297700862257 0.17521867581338196 0.43930164729291565 0.32959292665488749 -0.68280837728110255;-0.21982161750331661 0.38304194096357963 0.5632331747147703 -0.76781520670516834 -0.07113361423583392 0.16708365941576075 0.35875753458872356 -0.58061450020200389 0.14940609975947455 0.60748400853986939 -0.67139256315696105 -0.071708519735751097 -0.43383964197325425 -0.37173838348837368 0.064390633625198743 0.49281090092559582 -0.63091591783207279 -0.06465326561767383 0.086751667682852474 -0.18274208902340469 -0.54635372318399755 -0.291107111074005;-0.075396751912995774 -0.48387348572945532 -0.19057534295301273 0.44802970023365291 -0.099733399473598425 0.28770259952383664 -0.65014514374165933 -0.45335909774612926 0.26632762714402058 -0.080417626983312798 0.49592286012871806 0.21350942918648141 -0.47517727317018271 -0.86042689402884154 0.056971070783780803 0.57170990869643423 0.64033572605698985 0.65603106526835719 0.09711847744057138 0.40926364549312882 -0.13167128720261839 -0.15547364304597047;-0.15296844858212771 0.3829077157987606 -0.41765124460317421 0.14712146409778815 0.093730283003081491 -0.34069945298336363 -0.23784706440126974 -0.030620643960787983 -0.25157872971714129 0.25625308313027795 -0.53359011306111692 -0.51576328381535286 -0.12550572771825341 0.56014890132377626 -0.5330508038152092 -0.60754698720293554 -0.22483537585030097 0.059386192114207287 -0.24141384048593212 -0.67838297618921983 0.49397656144984708 0.72050201116904422;-0.23662243388424328 0.17768945099574976 -0.47041476595589177 0.61988797131285844 0.65315614875857009 0.02115688341067367 -0.37141047737055133 0.080570103635152907 -0.47718288418317395 0.23308915967801591 0.4473373479484864 0.21099695477211197 -0.043806175740875995 0.52103769087580898 -0.30583522113693523 -0.090496593364570568 -0.34035616155855147 -0.63281894275118911 0.46522564166937785 0.18377789163475128 0.54971217764105496 -0.45967354347040401;-0.084627058628310284 0.55406198177384136 -0.38895418321641595 -0.46116461333415837 0.62489210940291795 -0.49216738256616033 -0.6059397704302345 -0.57972655999528944 0.12740569973516516 0.46612862775143726 0.02562978678768597 0.32224239516843745 -0.35808193378545772 0.48625894831827943 0.39369339738671594 0.13923819241550026 -0.046307526910934732 0.28367611603940313 -0.42636956302408013 -0.33872487960386438 0.2329599140476698 0.28052088021653859;-0.55179024363375184 0.49896526933005625 0.16288851913558713 0.18860691244209613 -0.48896286888835738 0.20283237281698729 -0.27722682826635359 0.21085494199732571 0.46631878128791432 0.18214515709084458 0.62548462905787405 -0.39949213342039352 0.097148364033244852 0.1439665423004908 0.41609465672820523 0.27917921311994398 0.12494510995518232 0.23776989739701984 0.066493922756642995 0.74899204949075793 0.55400841181030447 0.54450824872317483;-0.17409748372207295 0.37806895635491028 -0.14912675012094634 -0.62742006489539925 -0.38456369346097602 0.053651665486221078 -0.40087650616790022 -0.52663336484937984 -0.032574010227589392 -0.61815305652539065 -0.42308093099037014 -0.16630408563685772 0.58589225371366582 0.60305298780325234 0.54457961627381946 0.46980296526519816 -0.36628043426597906 0.53489021924974767 -0.29318642474605833 0.32369483933254373 -0.048636030506215448 0.36700701389888307;-0.11352944063675975 -0.07704300523941815 -0.59781856558358781 -0.34002800521361143 -0.010022533028235941 -0.72064154692647353 -0.37012085624082042 0.55072622982749653 -0.10794542748155714 0.49470422063563946 -0.19614672228006835 0.35941426979030289 0.57035286479593739 -0.89963180336088744 -0.64125153903321885 0.12495854418615888 0.32284852246634005 -0.48695022606266453 -0.32042322722247701 -0.30815573759795667 0.18324791916719435 -0.56779483128250674;0.32032056892937616 -0.55131309277615159 -0.04990669247937797 -0.50157597968699152 -0.45733909972694597 -0.66379480736047236 0.59556000399901932 0.39969132080910491 -0.40515885503856608 -0.27570427518312296 -0.061928105298088398 -0.049270929561674677 -0.23759766854936334 -0.52406729069877322 0.2365970507322441 0.08034938049563381 -0.56705544498098281 0.50207000333476048 -0.52986369129496302 -0.16766152767968176 0.42031403813444812 -0.11298006836126001;-0.3342117522605787 -0.3677201600349671 -0.29612505322176236 -0.4370036193717512 -0.25584714913594636 -0.50088483593632571 -0.22813140510907698 0.70532846084436895 -0.40715125235647631 0.53221393773904024 -0.21347438932711946 -0.13920035938538364 -0.41460493726465658 -0.062468880067753856 0.43657976639845691 -0.22392003434714478 -0.0049935203687932542 -0.73816316577565588 -0.48036477798177951 -0.5561122062579642 0.25482181780257512 -0.61160263992218666;-0.58195641730386827 0.51052223885569614 0.065414863493811842 0.34161214270551887 -0.22288928551652462 -0.31028748642878945 -0.22453525951870776 -0.010097705767262943 -0.22578660515264853 -0.70878893249766839 -0.12605793309846841 0.097192003342422964 0.46472165046564073 0.57956021410768166 -0.22970068773510252 -0.46032248850463392 0.52382835588579491 -0.48740532440885381 0.75773759988743294 -0.42661819802265694 -0.85896055416472517 0.11742383294396759;-0.2174584911531966 -0.33083829412890731 0.54653022956994479 0.35785622827291447 0.37624881848821629 -0.065832040273370751 0.38410660968308535 0.63181488402765618 0.32761176044585122 0.60949079408077844 -0.24426366175293632 0.019050357744050003 0.11082686381505516 -0.50207158307243271 -0.55561742444520479 -0.59591521859914254 -0.19412410790467224 -0.16401508687130442 -0.57950882212480359 0.024794848677854062 -0.5333586261307588 0.21167792877659039;-0.66257926358293795 0.5501763463029975 0.075076204323798856 0.19763174400025085 0.1882948726576823 -0.037515571226329134 -0.10200435220314177 0.70096765680967144 0.5198840033674279 -0.44347194616703378 0.00033939180415744081 0.078736344324416549 -0.16240961223723249 -0.36016124938931693 0.30657995982967695 0.33993489783521647 0.23682530701746171 0.34484373253188538 -0.40851813257344749 0.069583222375058817 0.64970681616820958 0.86226505318972024;-0.64638158921079247 -0.54973134736748808 0.46185475363521772 -0.52517014046647326 -0.48162573273769976 -0.55512345251972173 -0.36514474323113999 0.22006106286538285 -0.4457915064680717 0.55845914832737242 -0.23774262442489794 -0.72921012229384297 0.064986205929748395 0.64054307627717699 0.63435487875121666 0.18121795677475724 -0.39062949221407578 -0.43182406443131172 0.38373975427026752 -0.31716154361051246 -0.012047614788042241 0.32221303654325967;-0.55823845567262875 0.62251103841284661 -0.68986482010365169 0.42294487478301412 -0.10426010573664735 0.27472252658916574 -0.13292442635547808 0.24294794559786384 0.54256026966977244 -0.21961875609413264 0.22418088069928091 0.059508111594397013 0.52197038044982103 -0.2204952212382694 0.29474005418337812 -0.32969712310805743 -0.53531342639224266 -0.58478271234308843 0.3202843478360794 -0.47248982386173233 0.25130863218348898 0.33117405641531794;0.21653839072940007 -0.51344081664936492 -0.71083523139843607 -0.41265972530473283 -0.00016524278787754089 -0.44688138140422312 0.16977729557747939 0.50950512094617195 -0.21449315575112798 0.53565782712776999 0.012589938251424541 0.10595239146822689 -0.35523761239241086 0.22915231048929494 -0.56223801471342394 -0.65042934823932896 -0.20508767406153811 0.51150971565361392 -0.45744728458218953 0.40494969715862084 -0.17889244097305698 0.0030752165445429897;0.32733490522671382 0.12629188616624695 0.16861833707228779 -0.45028522122681014 -0.24534867897264206 0.68998457026944926 -0.41724862100262594 0.22675256571560354 -0.47664235948157235 -0.14521589292600029 -0.59108783528308284 0.38205253266041772 -0.21905795280677642 0.24833768926576161 -0.57568257170645909 0.31170196656015803 0.39808155857714211 -0.039432295500154979 -0.39805826798525451 0.70376709346979194 -0.75125177020716749 0.61546927690161923;-0.38001021616643788 -0.42099645309835731 0.37350797561604226 -0.26278322896859768 0.13013045049753838 0.51800048932885578 0.46579082890325896 0.54138996413411899 -0.15235936396920888 0.36715810395157616 -0.46512503750535134 0.55351316171878073 0.14665226251757663 0.094563427599383618 -0.30140314173522065 0.009458764504314425 -0.21590809994166707 -0.33118636395855477 0.45129866521575923 -0.4112138507695568 -0.43985174494058388 -0.53128808390299953;0.58017301716546321 -0.36142960090506254 -0.15625357708972124 -0.4324409450249288 0.56979373524807153 -0.16313784140428514 0.35212707668874721 -0.36419385820836336 -0.24485524425518762 0.32404627813358777 -0.0043375300128370839 -0.33287046145630456 0.03463418196395996 0.23517435710243847 -0.84393776623987327 0.66751303006810458 0.69428847236084146 0.0056410800787397913 -0.29702239742980513 0.054100368774774532 -0.16924119837527465 -0.7263237537974;-0.71772194778801268 0.64496952542571095 0.41138335433581735 -0.62428329114956849 0.056797106670096104 -0.39916097518662191 -0.41377498200433721 -0.41919262610608127 0.35469826775478169 0.15330336062889813 0.36605969458895049 0.48539173266671964 0.49024473408123381 0.63552239898622676 0.15438256850408058 0.42363999825147247 -0.33482673463498963 0.43642425585326883 -0.53870759847671656 -0.12421707555311719 0.17552277986045484 -0.19887008544117285;-0.41132099730964333 -0.26063780223120075 -0.38646619890822836 -0.27481376207851654 0.6250716628150218 -0.034754927172789836 -0.5407479027076344 0.5159597829600101 -0.46406742415647112 -0.25622315900627646 -0.79423713827218945 -0.33920407079795151 -0.060510811362597144 0.17960189116739225 0.18378566066494048 0.28765104080609943 0.11138306197152414 -0.20058473476143515 -0.42189163091386367 -0.42638018953735235 -0.57103637204143642 -0.21058175225943107;0.44792608593078304 -0.39835443459558834 -0.32275204569268345 0.47721390288798665 0.33274755504358733 0.53807513052902112 -0.62482658178444572 -0.36044744926620098 -0.23382905795350983 -0.35135805514096358 0.52569215901187294 -0.65646482430220088 0.12228635557518967 -0.51790146962770645 0.054198102812660513 0.57463304038719076 -0.61798214018834796 -0.01679346032082564 0.34046319309806367 0.12464170189783304 0.11011168043772217 0.27284660933559535;0.52046948469757459 -0.072221437959889348 0.71482361710954845 -0.37773984408267347 -0.42454534313065645 -0.50682165494966269 0.6572467215606832 0.5529033490883738 0.52884512752169921 -0.071659681293512537 -0.321358916978423 -0.23163139140135366 -0.071402500113953493 0.0050963757362635876 -0.36580001465528539 -0.048988041704917613 0.15109643559181521 -0.51863255460250635 0.10875686398922452 -0.17976583315635761 0.090966237238737202 -0.25130454448936568;0.52651805232607329 0.20518198279747588 -0.0013688843739164606 -0.61966053279871647 0.59542629425256832 -0.63384102847845836 0.1272353009055642 0.46167709189103484 -0.069784234802461431 0.31583207891502246 -0.082268014561611966 -0.3874491667270919 0.51283267283641265 -0.28287483018855636 -0.5136955292475418 0.59090580780887425 0.66663875834575947 0.61852676910902638 0.30923892998621816 0.19805457052990036 -0.39697805689135318 0.03077313885386149;0.39739958545588466 -0.60512786279835806 -0.30954455591392144 -0.59293578488585541 -0.33886185787891632 -0.50498519177885082 -0.1808920817981024 -0.58504536025093978 -0.093416550366147974 -0.19657789435881057 -0.38636071263010979 0.39337352149223237 -0.16556533635414142 0.081748820430519897 0.45470619342744323 -0.04139313753510257 -0.56579106329224882 0.48933441009233547 0.30591788274850662 -0.55282529638049771 -0.061258630577005757 -0.083344377907693293;0.48293426485929414 -0.37273723925817354 0.44394771107795944 -0.47221198504296819 0.11564995542721633 -0.20673806826515886 -0.29820660561667006 -0.062795359321566491 -0.26741834112948903 -0.61866131233765354 -0.53619838025620148 0.050480886350821985 -0.013143523243523048 -0.048347153826653021 -0.43865214285632731 -0.013372222057883675 0.41940004947393483 -0.48390602958016027 0.52549789248787926 0.38576338926406317 -0.48580793396390576 0.7166163944449595;-0.294904113033923 0.59510707735877633 0.36045467329062036 0.23347986853849487 -0.40456900006496721 -0.60076159260027107 0.27345267974359605 -0.53623780629775564 0.14403579201769259 -0.052713104804463728 0.054087455874003758 -0.10222506747663171 -0.47169905045531413 0.22816760085173121 0.45692852821204083 -0.60874286296097058 0.57807867382861344 0.49631358128175895 -0.56793261275099605 0.26306725055226055 -0.43493103209398631 -0.43171719206019582;-0.46101338625184485 0.18622837577731727 0.1709328693484751 -0.49967695464127176 -0.3112839319364214 0.83037189837374903 -0.26668353688240776 -0.5363127333074984 0.1947090967688101 0.31881976881188184 0.58427746130379332 0.57453514032916408 0.14944025447626649 -0.41914249101720985 0.12880400053379776 -0.61758698576167914 0.23463129373062991 -0.14191956910726566 0.38715033908573315 -0.25447780444641377 0.048535389743471054 0.062911938470035886;-0.09463288961040825 0.36321624438453298 -0.59074632707957997 0.38465215247127421 -0.12938693019388958 -0.23568004665016473 0.22253364813151316 -0.10988795626072329 -0.63859229300785925 -0.22921694042848392 0.31596575151918349 0.23352469524707312 -0.27270660530704693 0.60128375313379423 -0.40002882507237442 0.2550221017670477 -0.14140377220959144 -0.61400008318563271 -0.52400047284542961 0.54126053509164229 -0.014411933222615971 -0.2750465388337423;0.38654777577329624 -0.090801106770830795 0.44012907730307604 -0.22615119823306568 0.47024904168808146 0.24345549169155881 0.33853323706471172 0.59193321955491662 -0.47332990113922419 -0.40436298495139444 -0.56718319917037496 0.2665743325538526 0.016016072024584542 -0.2848419940180803 0.41228056774317884 0.22440309231284544 0.54709995170663384 -0.55485001846623394 -0.44469875782827489 -0.11526841375058851 -0.74310084997693238 0.049213113560206342;-0.14441153468011833 0.18999922729505686 0.23520489317818266 0.19474463493373406 0.6711390175171702 0.58260319805858141 0.50620233096546885 -0.35527055891867887 0.71627483691817184 0.024283580827492234 0.1802902370224386 0.17818304799885479 -0.19470265950814389 0.54300917230127144 0.61193303086042006 0.2218459624680362 -0.18855271851512659 -0.18253366102751373 0.43655961988414826 -0.87084105005239154 -0.024543878583738681 0.84967000987449659;-0.50629816036880071 0.11199872778077684 -0.20487991545214571 -0.51687938397130673 -0.096145173678791954 -0.57448950770833651 -0.19432784077840773 0.28531490735201603 -0.48845589349718466 -0.29813270632187172 0.52489066701752329 0.1002123403903501 0.15609252242494595 0.57815010187586557 -0.010998893167969549 0.55826173310902616 0.38354504005944978 0.14865391062932876 0.49827616932005414 -0.20455109244992825 -0.42025299432589402 0.58086996917155165;0.10276497436854561 0.75386251739122645 -0.578353238454556 0.16086053479432419 0.59154746886772724 -0.23448935283240399 -0.013948622364809283 0.025725295677439228 -0.053924134111217645 0.36053038639188356 -0.30927677329452125 -0.1204167571366643 -0.72172170244551048 0.23322844366740142 -0.020616315116306575 -0.50626719333767134 -0.44311898189490295 0.67172916716525755 -0.089152553104545604 0.73474064167968978 -0.68717438929827923 -0.18264139448764125;0.44363302548914935 0.43092505513061913 -0.4480992290753375 0.3989495988372701 -0.71026500094741907 0.55909066619651948 -0.42304604382743188 0.17659878976263288 0.025781760171997174 0.51892335707357018 0.29996823166311515 -0.39681815100746659 0.3091885137023514 0.505865010317188 -0.18272260518684816 -0.58913010909689556 -0.33860890734984728 0.32441337658627778 0.15852334837132265 -0.18040353077817978 -0.46176063802747791 0.19032824536998705;-0.33198661258191509 0.12200764775053075 -0.29952185975723289 -0.51909153507358785 -0.21570048164834779 0.49164012566554299 0.41439969286555767 -0.45381666667880688 -0.44741736449533653 0.41738234312076344 -0.58029583419036979 -0.48643415851947752 0.12440372859663842 -0.31977769713341209 -0.031545407116140275 0.35064742579568903 -0.058497571747382147 0.47752569282668211 0.46012838726119487 -0.39736622155513135 -0.51554375059880853 -0.21290881088113853;-0.31791654945451137 0.083996551299360248 -0.27569611971119401 -0.36825290053454118 0.4631038197913328 0.42418453045621596 -0.20268616441563131 0.37358198789511127 -0.63934719512413418 -0.65849053901441845 -0.30600581682058764 -0.46241672362299324 0.38431681618679991 -0.39099717663498856 0.63748385384888639 0.13988229251315765 0.2545912264198299 0.14903060964885539 -0.36868917545245483 0.084371710999944186 -0.31986984461406143 -0.46046958547598493;0.28814232777425258 0.43924518588696787 -0.31581916575813634 0.24054700200659485 0.59936246717526676 -0.12613339409654947 -0.3745821210302015 0.55391807611079313 0.58752887167587609 0.0040256457820351376 -0.48751855817969181 0.058440913536409844 0.2908497748725164 0.42148553417285717 0.57966426841292551 -0.50088446415286669 -0.018713726017991501 -0.090488518259606465 0.17829848530591064 -0.71944041044532869 0.44247973669724694 -0.40763884920328491;-0.48099635497707049 0.39327437088526346 -0.31941125549937588 -0.28227343099735508 0.10636196799574152 -0.26932698434928026 -0.10048138607833615 0.41858960460692907 0.24898649026663525 -0.31396444266517798 -0.27623598962935414 0.53485151837642997 -0.40869683228200843 -0.66264807837251316 0.64369494105726632 -0.53684499850454537 -0.14833522007439925 -0.70479601404598247 0.61256359300297258 -0.36160431386183034 0.27247203303572132 -0.2343091030196289;0.52162354546864498 0.13782425201638157 -0.57130836114194172 -0.34538902806951549 -0.11287565868121918 0.1984480637488627 -0.72080068783922313 -0.21160554555825814 0.074575817087876015 -0.012270967004450838 -0.0092308307620727476 -0.33950841243091179 -0.60964926792577312 -0.51560448846313045 -0.35505742353102521 0.10071437354872616 0.067037895392933353 -0.49378490560211069 -0.42137547514797596 -0.48407873293329684 -0.23606024486229216 0.27321748450741984;-0.47282883397734021 -0.23657375404962569 -0.66983434442816925 -0.38471511735173936 0.12818612879521352 -0.46531404959579264 0.37609231035608531 -0.21955512177129438 0.23343189475456827 -0.15303897893218329 -0.1665918629931418 0.21391084178720168 -0.080686219641583845 -0.55023216901507443 -0.4453327692640825 -0.73158701461691411 -0.61892453715865214 0.43553762934338747 -0.48579552096703321 -0.66183240668082066 -0.031302947499002212 0.55086867635075754;0.12801425321371024 -0.44969408508102637 -0.49538514222889263 -0.037185939488318505 0.66623668000941128 -0.31896574824128721 0.49413658696034479 -0.40200413108782918 -0.14238310714189731 0.6262570866856777 -0.45513886521450392 -0.35774683808456703 -0.17705909652162025 0.28909670383357916 0.45410187545682507 0.4375487371187185 0.0045932652535566757 -0.65180949740190264 -0.39071987955162146 0.39852998278421781 0.40650255096169086 -0.62232767692878987;0.5053568917567911 0.071173725027719348 -0.5663280565653791 0.34726096790979971 0.15017555894419823 -0.50478519525124887 0.54518881561827126 -0.62692474307026425 0.36180024533685745 0.20767800659647109 0.53164143550696608 -0.12699039941638313 -0.6870526153205343 0.47616333938853939 0.61843245440902439 0.13316440894783499 0.28696918703284613 -0.51533676181085453 0.0071578314333744508 0.19339668509708696 -0.11577718197683577 -0.61801886370012771;0.40327177822810012 0.43712955793808228 0.51603140329061359 -0.50534081067868641 0.56310978349019847 0.61131482443264251 -0.082627194393130432 -0.40256408734297228 0.14572752606743861 -0.11801173739433407 -0.071761013079694749 -0.54067857763739924 -0.34475911545000432 0.083451855527558974 -0.47919606726944303 -0.34161067793914912 0.50096218003540405 0.23961290209637348 0.51403200351368961 -0.061536961732136193 0.41307559927794391 -0.59060212818178859;-0.15877595542486014 0.070300438969441992 0.20704149794348339 0.14278903189827546 0.19063951352855033 0.63356261016493987 -0.16878036652528508 0.63353462035525143 0.81539173447919866 0.77332295411895846 0.66761822353125566 0.45657692688929441 0.42285007326019486 -0.023471489789953486 0.16329535721381949 -0.17432467768191195 0.12127728971966935 -0.44889564725445452 -0.38975088535311336 -0.24578396514760426 -0.15856407156328153 -0.60990712407022429;0.21583072204525439 -0.58528475266276914 0.25159595036001697 -0.57856407929572173 -0.48783471493534242 0.14398636534307943 0.5166377461586209 0.17081724777271662 -0.61973016717461593 0.2384706812001513 -0.10861689082050031 -0.34782180603788981 -0.20204114196857656 -0.10567195714601936 0.49233100939248636 -0.2923677833841124 -0.13415442315427459 0.50731563667832325 -0.39634260381996345 -0.56502703417376898 0.33122612013694019 0.5304216064215076;-0.19846932125905761 -0.51789622898042964 0.36014930603994377 -0.16097866252717793 0.26090593382708677 0.25282327319644993 0.58186105243266084 0.26104203981029578 -0.1100753735280232 0.68536560645334099 -0.15389397792918988 -0.28913304655603522 0.33885206644463445 0.074447419393828096 0.55167351378744645 -0.27912663548016214 0.34900192287248261 0.3471883606692196 0.46216288776267378 -0.0088334550871115632 0.60658908910493559 -0.23447159857692382;-0.03310639568777559 -0.75031756253848714 0.25499871218350539 0.38646421220385146 -0.11392756377267643 0.097540057908994116 -0.60406923732801321 0.18965294380000217 0.80904351391699481 -0.82789248221270628 0.099964862828646181 -0.0074433120021924187 -0.5157119116226434 -0.33713885912878144 0.49830994924635685 -0.029438690139115944 0.15016338098201654 -0.26072644315097332 -0.61898757162094253 0.3341750320828753 0.24040949512342133 0.05267914712867048;0.031547013598085948 -0.096194591315958214 0.09766518574403707 0.39292922209054859 -0.63843546030521814 -0.15688116055409113 0.59930876069490779 -0.1385991900903141 0.60132631788886193 -0.12874642813730877 -0.37633850562343041 -0.70029474812712633 -0.11718429838488717 0.11521617909881475 -0.5675812925437016 -0.47925465446555332 0.57107516804877945 -0.63168041657246743 0.054347587037271321 0.50253382008048375 0.24856078559474623 0.30025739128331297;-0.25349709580026364 0.35641357910907256 0.014195318833610932 -0.20220484658356763 0.6177459750663985 0.12917477409410641 0.79295949466086302 -0.33120380311237041 0.48436373522753362 -0.61228204709169853 -0.10246567608070706 -0.1123705401729259 0.57203028434904002 -0.3848399569042209 0.085008713575785919 0.71500710470919993 -0.17695916081526497 0.39247337548809447 -0.020830508718543431 -0.05336181135047699 0.026833917465199864 -0.48626964730071831;0.010285700038784509 -0.4704116822438727 -0.25548982645039758 0.025675296327405738 0.36690823340623324 -0.32403142639012039 0.39556167114706092 -0.61495687490058115 -0.60014435852330139 -0.027659536040022303 -0.14239502748035962 -0.61182105935735365 -0.016232235663522165 0.58803471407674912 -0.13331591308323326 -0.23918110471842566 0.48432337783153367 0.010407753236655071 -0.5625272671281597 -0.73732705248874786 -0.15009547587788563 0.44907262604049747;0.44935743346988127 0.33138593423880597 0.13331293437181901 0.72639733126826733 0.051544264867486436 -0.45867558442268314 0.42372299214381681 -0.33203961118461645 0.62834867545825557 -0.21577177051586441 0.035664264077883888 0.49599816186943813 0.5605403374527228 0.53619028515495715 0.50889091703572531 0.42962997344962062 -0.038753912879764749 0.57940763634910009 -0.22913326756251517 -0.30383681031200332 -0.038706145736189239 0.39140107118814899;0.25568964678039791 0.3213784757805046 -0.2715736853266188 -0.17372478535153163 0.28644175786270015 0.45556928229684551 0.11860070488367733 -0.37575633985112955 0.33644579894366095 0.12739859762011105 -0.0035462117857668622 0.7577856987679753 -0.020545970765263134 -0.40447801262018007 0.54019852136001512 0.6555122506031279 0.54797312162182421 0.17850517589595116 -0.21871720693192331 0.50879603288321562 0.75041929885855896 0.46088254262607387;-0.11252336359271689 0.35503344551420329 -0.43234914848213329 0.62350199227228653 0.6863497370421775 0.56062257283284689 0.26153217634251513 -0.53674894394322714 -0.28177031927272461 -0.046372072721800495 -0.34185281653416488 -0.69813771798088009 -0.097580185590912943 -0.049734806943128734 -0.255722982960985 -0.57269395784775112 0.034404903185304904 0.33294939760067732 -0.38243884466667677 -0.29268233588854048 -0.71834919978333323 0.26149519639433094;-0.44171918796923931 -0.42496397477593473 -0.52019782351609023 -0.55955263561717139 0.27388930491435937 -0.086646018831552984 0.22097115991898245 -0.091577174876039544 0.31457016178075281 -0.20858006492410569 0.80965337691520889 0.43424412075323476 0.41257743751517861 0.17570562280421939 0.28247724023023435 0.085285302296718823 -0.18139933707833528 -0.43048453774237466 -0.41054245746194162 0.3350901662681619 -0.76223694863660474 -0.023240137721142837;-0.044036798626176564 -0.18143793272899766 0.61356775020759002 0.70486727634629198 -0.0075948883966717702 -0.11229899941344604 0.54735575858082508 0.61115717080852794 -0.13159699794005394 -0.31262533806973203 0.17707009333895468 0.092529766822024032 0.25341610489663502 0.60378110115553463 -0.13352221335685391 -0.33389174610392419 -0.60591792096997299 0.19524145418769145 -0.031064761857744885 -0.44503567332611554 0.37447984633905418 0.62920693080165779;-0.34841532038477729 0.28750165260092325 0.21154975468608331 0.36736672585961633 -0.43972316691471447 0.091959360613021887 0.61085180564029284 -0.10286413732547799 0.3569489459053381 0.44058690497174952 0.21544928233350871 0.56696673339026959 0.68825195729424937 -0.36024854383752797 0.10125074686158614 -0.16693647709694134 -0.45568126216181054 0.64806034545783076 0.38675314723352694 -0.47187103576260025 0.36735465106597331 -0.318326201686632;-0.15984962828640378 -0.20457451636096238 0.24597536743782605 0.78034832984393354 -0.24897243607834965 -0.34233940317914285 0.35429315748327045 -0.4845990086329266 0.56901254616676955 -0.36556874227201147 -0.62000129872891951 -0.070405406264066411 0.068721171312612517 -0.59877400198378872 0.10293867824613846 -0.70653749063285209 0.32389342504938617 -0.44866066221997669 0.12457541553513488 -0.28105620074366622 -0.18773586712944298 0.261603039177913;0.45720476912243707 0.0400821479135769 0.091506596362235362 0.74250081477357854 0.63797823184619229 0.5226609659528697 0.57814125634439417 0.2613872375049322 -0.67297991711082916 -0.0077488240320832602 0.54050209795202198 0.67548762404351126 0.44926449849236522 -0.034246840197893487 0.27551930370381505 -0.070274957182400705 0.06652261909262229 0.047416194992894269 -0.39501058186094778 0.53241513843015897 0.30529720703526325 0.7179908526329658;0.13467764757709047 -0.57492165545053131 -0.22159795396125342 -0.20559028029498072 0.39896017423976204 -0.36891673810524739 0.63420161609276193 0.42618090463424685 -0.61040058350727033 0.47363084004138889 0.13359415747566197 0.31597865936791736 0.31659935121531857 -0.66132198732891578 -0.40988460765570467 -0.038201056168618013 0.54824527375798859 -0.5952884799885465 -0.56296635919499471 -0.2481868124674062 0.23070470444797095 -0.043051355367329902;-0.49859721402588592 0.48069080005424358 0.46136027087639048 -0.18143954242713445 0.11614893833054504 0.13725213370808831 -0.11469742429955394 0.68842399890599337 -0.33919251669214712 0.34606294085547479 -0.0073560963481988538 0.089700208896536238 0.28837929933707374 -0.24527694760388064 -0.63064136217056688 0.041494015709939706 0.19606469123637121 0.25737975719667544 -0.16731629010543367 -0.66163968402564632 -0.670191547759596 0.60054326569103855;-0.44635060061721293 0.09576303621933642 0.16566500178832369 0.28831679419299072 -0.52821319392742028 0.34099778584641643 0.024934646546372938 0.19683635887375658 -0.13922721922191339 0.53462009577786218 -0.59329222403890913 0.43566729027914475 0.032831430227981032 -0.21514356731450737 0.30798708199863012 0.39393478181842811 -0.70934828525117821 -0.28313485290374402 0.52324014916784967 -0.5262974110102171 -0.66126872607279708 -0.078771711677901798;0.43281003197922852 -0.29608523624577759 -0.46921056795308963 0.088037884250852821 -0.31481499736777685 -0.075826213837560316 -0.29899028176302789 0.038426854407187544 -0.65065136717945637 -0.53381423764461156 -0.3502458355001643 -0.11929591465593965 0.42196918250878745 0.54357331998982428 -0.33695860025580365 0.12870409489654058 0.21065586429098884 0.2751009586171827 -0.61838462563830454 -0.25697173227881276 0.6933027187235562 0.035204916039338355;0.27616645610227469 -0.14386366881629278 0.36602325545065628 0.41081846411247369 0.028377333925828866 -0.34362001381470814 -0.038083157276199431 -0.84429717209446087 0.51209383095182626 -0.1092764670365506 -0.29543759401675601 0.29076573915891957 -0.40235364975031851 -0.22392795498260729 0.28473457891001014 0.51617659435139918 0.48481248887203665 -0.10725015112379532 -0.55753100592784133 0.19724350667313464 0.54556778386682514 -0.82077830096401949;0.40055870571052599 0.37606247946535493 0.68615868394493962 -0.28191058467703783 0.17389321982652586 -0.21790932000134738 -0.3918745806364386 -0.56349999630502046 -0.5693453065635109 0.55201616839029144 -0.36751090310178558 0.64873056821533037 0.047982184022716062 -0.22900363200469109 -0.22194715390814473 -0.1827397794108481 -0.40283479856588572 -0.51901393288989728 -0.15344171582256325 0.085722815571528263 -0.3713403979735132 -0.68633171564247897;0.63375733759809794 -0.48609103252329328 -0.44652262449553981 -0.39084089439837005 0.29244324701747015 0.013940925942728728 0.34975194262879716 -0.62248599791269543 -0.54421776682186218 -0.40328876745119746 -0.44103264255212976 -0.41178582993820129 -0.25165758534861404 0.24593777101728903 -0.30775478120675531 0.4059259665175195 -0.34330862294202108 -0.30604035177675032 -0.46944942144272589 -0.17371798290970894 0.24910008424943855 -0.73123835944487803;-0.095387238227623114 0.30157816788626779 0.18587875452338487 -0.9416625789156029 0.76822029874529973 0.33436186525484235 0.20762374958491092 -0.7420736381212395 0.35909384817285134 -0.26756378884347937 0.24046619754761581 0.53081194803657494 -0.077848298643803562 -0.29337436194694894 -0.0095934271524158229 0.06270932137463861 -0.035752022826857327 0.66485374330676783 0.049331386605586718 0.63984305978775724 -0.017475980944881935 0.47096182434954253;-0.50582300888461185 -0.2532803769505978 0.028918496906542964 0.14874502360429409 0.41877470962665186 -0.27930122762192011 0.14803094360983321 -0.63741601982939922 -0.32262799367378919 -0.39591610280291828 -0.47320957182444701 0.22767734042346788 0.70308519360836963 0.30887622020288275 0.051821745293365487 -0.19277468152709767 -0.67046117326364774 0.32266867349355538 -0.49464251343632404 0.9803009296185915 -0.13370675562629988 0.69037949413149935;-0.45138339829515589 -0.5449888504854965 -0.39594747507040801 0.14541407086891098 -0.29522759399167348 0.7157193878782091 -0.57613081516168618 0.29676112366074725 -0.51194194934070425 -0.3026213063861512 -0.37857857926900479 -0.88521980173566195 0.15990160856888902 -0.17676550485017664 -0.20283672361915142 -0.34778049187587279 0.27129308523982754 -0.28611979369622387 0.36518577000876656 -0.41418236261098673 0.17115636961617589 0.13785377902205867;-0.21623598379016395 -0.052994275675252139 0.5978805209427368 0.43542501224109648 -0.46254526906810323 -0.1700499246631616 -0.57642398721314558 0.34517840221003043 0.18847157391863739 -0.44295740338375805 0.023025998389803948 -0.48112079448414174 -0.16401025097841296 -0.57270468526388685 -0.59822940586399176 0.075701293510361575 -0.51155775916710822 -0.22883697169730358 0.51026126006761441 0.41490479038914391 -0.14669272015771709 -0.58586577416828367;-0.38200031527200951 0.091880764471589493 -0.031195079990222221 0.4097177788037793 0.32793912259063401 -0.012840008922049883 -0.2063744112876098 0.14631915938649354 -0.45074187433118185 -0.59351806958944986 -0.67295443043642078 0.25887993069447995 0.68107569266247781 0.58741608315253424 -0.47995967832434444 0.48629461966569498 -0.48978174477308045 -0.029832299344329599 -0.68341356102379835 -0.46127007266951559 -0.080802963914124698 -0.055917293098439826;-0.0016928828444784951 0.15253658692877223 0.49450865855081189 -0.22494214388514985 0.55542968852024832 -0.53302435846992913 -0.1561913511443927 0.24614871504278141 0.76648916257531963 -0.4138814882800036 0.20485809865785323 -0.65975116033468095 -0.74137451780069763 -0.56989765399798042 -0.47583277005306673 0.42435958578097333 -0.061688287259886024 0.2433039746304401 0.37150228883381692 0.023806965952831265 0.11061146096147889 0.22767572601085706;0.37840640255215374 0.078330659255828577 -0.078173147464638978 -0.27140584207666246 -0.51327266886502043 0.021580220873630793 0.56392371301857147 0.61436041709611466 -0.41490350657479153 -0.58885851875211825 -0.12667276508497696 -0.5350247883926037 -0.13919673602012542 -0.28409886944788648 0.43802781777424371 0.41845391499474133 0.43205546963833885 0.37501732781307062 -0.63185965784013232 0.0052538196051461258 0.25425744713472997 0.67042533496658741;-0.52361713340099036 -0.42465531088925906 0.26604449268317137 -0.2801241027295423 -0.42922880984081796 0.65655334992594661 0.23053817516525543 0.39008703745199297 -0.20767565650706216 0.71473505533445858 0.21830315279426127 -0.82843072190850875 -0.63693294807937118 -0.19548766601198492 0.11887380771507677 0.39092832824703566 0.48879147935303219 -0.41988802757575983 -0.080345728266459568 0.20472693813557341 -0.26234707634929094 -0.29834897719412506;-0.53577666333450158 -0.0548555518358027 -0.39156643013388764 -0.40390258018720487 -0.60404243922058753 -0.34263876219638678 0.60342983155801322 -0.292187668921844 0.49547400527565644 -0.20545074210233594 -0.31664073299516066 -0.1297735837973463 0.023372608236215103 0.18901889236341496 0.57909191205595123 -0.27878807597361033 -0.19991402241804215 0.61334352106615586 0.40591362534264452 -0.53345612031445444 0.2058728815653007 0.26468598189343118;0.19350506701017281 0.49383654217430945 -0.36079297915649911 -0.2863438896411708 -0.43778984073337074 0.54318410741348089 0.39466696703482368 0.0051471460945510293 0.093633145543363369 0.30329882605304309 -0.60661765642923071 -0.6579447493339583 0.51310855524730314 0.10718622570306854 0.11860086820559149 -0.59549088254285143 -0.67126717300342731 -0.34199695843149341 0.69688158747682616 0.48995009587452909 -0.094858361674157676 0.5666307237600513;-0.45375552932928126 0.73750451785246263 0.2411589161529083 -0.48139059245486887 -0.049187477468800408 0.12924760881021069 -0.15182639617067939 -0.33282317086723906 -0.36076782096627263 0.16236253875019027 0.49725838268698197 -0.64528812842370287 -0.30772705315342563 -0.34104619878264597 0.45943356744544372 0.6926420504791847 0.68363133329276515 0.2144238608130197 0.37989033233876185 -0.43729451013399351 -0.65576875945613244 0.046863219056073623;-0.079552738318305755 -0.34052704175756421 -0.25183474917944315 0.14848208851507938 0.20176427211956741 -0.012314112327453211 0.59305725637047191 -0.57496041374486806 -0.58333740456832262 0.62072398664746276 0.37500041759916425 0.03546976121999286 -0.18249080780549634 -0.3663226268366207 -0.076698992267135641 -0.59692254124423716 0.39930087165861616 0.37124592977023835 0.37619113192925224 0.56355240996687228 0.024847338436745688 -0.4700953824003119;-0.69593406160390636 0.21981745996286009 -0.03029546335823001 -0.64649987270647136 -0.39660777618850185 -0.014190854066270306 0.063071320198051534 0.60889448903633669 0.35577121584761856 -0.093617041295753031 -0.22942997532012951 0.65288733068255844 -0.32955853394584883 -0.23465482323126002 0.31670807200540541 -0.3442797632598687 0.27031378845977372 -0.46852007898162895 -0.23805170965018688 -0.41059113045003537 0.55527666818680088 -0.27116945170256312;-0.32055082342360469 -0.15656249396898783 0.1315849685365898 -0.44844655162884067 -0.33860081827723604 0.29816641178889214 -0.0015845098132491876 0.34379155029951791 -0.34765938347886821 -0.082331728629404272 0.44682645255102899 0.40807868255275509 0.38178456097426039 -0.44251972123341243 0.39634548382851242 -0.22873653407056599 0.55224667482012935 0.49013801141868552 0.40963032641677316 -0.72230820694159015 0.52984374803145839 0.82040471653356106;-0.13667727118763062 0.14627398872237812 -0.6255962550194879 0.17178304377923193 0.247361868354954 -0.62193350478660681 0.41993934432218311 -0.60103815149992046 0.5107344042736669 0.31794993406124872 -0.037894922768214337 -0.29162414010901244 0.5763741639433273 0.17992471175421734 -0.26356498049178523 -0.62515653889375511 0.44263772512914568 -0.33313411871149856 -0.44391106751466591 -0.48138382136680236 -0.36424331141582078 0.12830442918292198;0.42836998577284913 0.43381716109320645 -0.27546523582573162 -0.57598707748173295 -0.058023972293763854 0.30503887126365253 -0.11604458037832462 -0.10349485600774858 -0.14524370945236226 -0.10120993930410731 0.37976244524327957 -0.34996509795949787 0.46364478328293651 0.39734970762430344 -0.64649776221133903 0.37397461714031771 0.5354677236857196 0.026429115299338089 -0.59655208199089127 -0.52059664003591055 -0.54023946284559021 -0.31871117738180771;0.52857689625561843 -0.037355162417143546 0.20105576045921822 -0.013641024282572941 -0.50233473999092038 -0.36387580399508468 0.51950723991747305 0.33896429260595146 0.20557255861815138 0.23809993548699715 0.38228401926234151 0.43492990359750827 0.19918775387030704 -0.49013198333657054 -0.40089693613340083 -0.068515235612660208 -0.68922302910091471 -0.53881508390842825 0.4441142692031011 -0.38814698157448724 0.22125647065045673 0.21303705989094909;-0.44072659008164811 -0.15639144785572129 -0.0080816571970917048 0.50717979093236443 -0.48735839598462649 -0.43932515403283678 -0.45582307371218034 0.59459608393962238 -0.58719442227488594 -0.26126505076859496 0.14001471312661168 0.55126830090631351 -0.057870494981320783 -0.0070379734715283315 -0.53667855466564196 -0.66701547894316926 -0.50344628383045775 -0.43376528685472598 0.036772120789023373 -0.22333802818086171 -0.24547618322970424 -0.46493321918099645;-0.02877166809474831 0.54003222599163692 0.023076921678407521 0.14628384628483121 -0.62280608265520676 -0.21974965212054437 0.054440526839449305 0.49229386611615361 -0.60989584545031117 -0.55311811029480251 -0.11925668397324379 0.41546027793008644 -0.54987611052838214 0.45719545798859423 -0.56605543355184018 -0.20061280829483202 -0.30380344320546721 0.26830114406710903 0.57186946353499724 0.10686071368846908 0.29177930432758875 -0.58799278540106281;-0.54239006661315736 -0.65864287358377571 0.62125223995327561 0.64871786792536068 0.55876109143133423 -0.3843798040913301 0.04017358101663443 -0.4401119751419818 -0.11259859442668486 -0.38156717471330709 0.138268806874773 0.12010312185723297 -0.27760563239475111 -0.63443768870404649 -0.42417239702234516 0.024245202430871846 -0.39126004974227685 0.5818669539587471 -0.19021508510561316 -0.47945602591812475 0.34026043047309568 0.042377364015956723;-0.19893539653348827 0.12480978706887277 0.14203432979268071 -0.2014564252038773 0.3979334238224021 -0.54901133980603423 -0.23064090383620159 0.22555823062253158 0.52834444322423113 0.53277501110601833 0.63032143371795346 -0.059340200424015187 -0.40490163261846868 0.11635577285346979 0.49722292503326998 0.51370048022864201 0.11682747428830011 -0.5563993293815096 0.41015984697562657 0.54179676075324168 0.58418823145890919 -0.21630321512574616;0.12833458234114839 0.023808967099878252 0.58704044459860072 -0.00937930916690944 0.049121290507822948 0.215883810851171 0.56707951950600655 -0.43058564613890826 0.53072487380991373 0.48045091291845032 -0.022174213032271566 0.44921067578504426 0.62747826157991504 0.040694541627657066 -0.42970958038227658 -0.71947259931365404 0.4220947593801696 0.28785232607666827 -0.67182396112528442 0.033866794750455051 -0.055612401729655446 0.28592992292468655;-0.53465774253548981 -0.29043626615248397 0.60533703761216351 0.14771093901972143 0.50562854481789687 -0.12676014456717763 -0.060764028622779478 0.66590382512981094 0.18199131752082795 -0.58681924636104188 0.59515635188657046 0.20927993096301384 0.53448294027656629 -0.58322600084152798 -0.014066154105609369 0.4977447381656353 -0.60790404616037397 -0.096025160631094952 -0.30932287126598179 0.3327982135787021 0.15107573977938596 -0.69880066452328238;-0.13950692938543058 -0.18873675628773684 0.11287938350745316 -0.15268846584150275 -0.060321073140697117 -0.068725516727757188 -0.18619732373638792 0.55522044012414273 0.69204544590200745 -0.02286576708113661 -0.42337200829727734 -0.31712942328817617 0.57945405439519693 0.78516026354202884 0.085835000751224882 0.70918952826068216 0.08978476119502847 0.61797286408916063 0.34826809104195194 -0.53658393994417397 -0.07154201609720974 -0.57477047978322415;0.33528669774632214 -0.34291246728633701 -0.48372299034278243 -0.29602800527520673 0.15511751099067847 -0.17174568066097992 -0.1362784218232139 -0.5334776137385846 -0.23855981209261107 -0.46721353178918834 0.1338953648783211 0.21484402165701594 0.39457228753173618 -0.37873237225130169 0.63079897618139691 0.24355444526393685 0.38407917929004809 -0.074891553440512168 0.63513202817759085 -0.46197677364759976 -0.4677277023010617 0.42718407469767516;-0.71909178714550248 0.015743087569943772 -0.42492208002593079 -0.50877082132074347 0.1177553703950837 -0.028781608829979956 -0.53483524717107889 0.44956011884476321 -0.14251161978009685 -0.30538007157069025 -0.2553919188813602 -0.34210157991990958 -0.34336305828986691 0.29386400945131907 0.58293576509096978 0.6931097700490837 -0.22441417318330456 0.063284889088790333 -0.50479902432451607 -0.49655888904695178 -0.6563181374451722 0.33622281907310292;0.46895785902066861 0.40699252428861638 0.43067113184799943 0.0086626698174898011 0.52036281424199171 -0.59546819603925316 -0.016988847666477722 0.23043820266758069 -0.3176982618790869 0.35222116356165772 -0.11109680221608048 -0.37172765370079541 0.47289043630076616 0.26347872707855152 -0.053334301740571403 0.55956328181254866 -0.3225106074978884 -0.33430141623980747 0.56264355195883931 0.47120414177637138 -0.18174212009334215 0.26755489505951435;0.49523455463917004 0.41015126959513576 -0.15003607895426369 -0.52087619143472552 -0.3142167722221294 0.090598885236174501 0.6480421148162695 -0.034158741497992438 0.24334851521219589 -0.11173350303483501 0.28803881240667251 0.04183728771582023 -0.26363468103464893 -0.47976933997981291 -0.090204541911657068 0.39078123714295171 -0.53384958088100842 0.47353672646164241 -0.64050902945714816 0.18525325774172424 -0.60628758674554439 0.46047172646861145;-0.40385754315531208 -0.32405417640200967 -0.24191342595468715 0.7183322684627117 -0.070486215559819432 0.12080234970000389 -0.58556401579809414 0.68227560472839655 -0.44952766184116782 0.58783892341335153 0.25661852885294756 -0.071223001247269963 0.32034435008790796 0.3989921751452995 -0.58945966693037044 -0.52711096318069528 0.23530873996406521 0.51745925209356547 -0.15239424861041342 -0.71088371516873616 0.022281757300921762 -0.52922004488705077;-0.044040995253239006 -0.39859784220754801 0.33144782215006796 -0.10602980050078825 -0.10910743037421361 -0.11950410641817261 0.24662562571180399 -0.18705848870708272 -0.15598013778974323 -0.32796381999526408 -0.3314485074414269 -0.043287023512465647 0.1072936083311762 -0.21580261895322037 1.1956064431626097 0.024895065513619589 0.25981679472453906 -0.011378031734850125 -0.7692194610372648 1.0406694311776301 0.3849453218764069 -1.4282927733804898;0.14540197602089422 -0.22838509267860144 0.24485561669125536 -0.15615325912172159 -0.25509561252849849 -0.1996175904589621 -0.33837966266158348 0.30574877614624907 -0.78136383178042157 0.11984740858932011 0.32544624265312622 0.027674624115096923 0.24150598206527843 -0.86405145924495186 -0.24179843266071804 -0.17116671511083958 -0.7213338572254685 -0.33375533898202353 0.63634680112454711 0.33855951178771915 -0.41999172572062138 0.7720232366161095;-0.014901608340943163 0.19918166904727286 -0.61474103769271315 -0.22888825028111218 0.18571710472932534 -0.059508391793713339 -0.54783987939903545 0.66027489631033554 0.19544648722481042 -0.60086830369194033 -0.060109512170049811 0.27021096239489867 -0.3309695790595803 -0.27104675145608437 -0.25713461358404399 0.089152420791300563 -0.52888849245968117 0.099125448493333893 -0.28269932573149265 0.52734757243882102 -0.28112978329939281 0.0092321164395045546;-0.65335831874388262 -0.098605647542092015 0.77515104085298114 0.38804639770400484 0.10242413580145614 -0.65326652165295396 0.035496312489929835 0.31741399337820952 -0.32643420254280836 0.13532371213343181 0.041380303203806167 -0.40995463321030423 -0.16350395749495525 -0.23645778204887019 0.051717115451718407 -0.54672103885317547 0.23660403566807425 0.56062509240888569 -0.39217519378200355 -0.086606723325671195 0.00067444059484387392 -0.50502305115034851;-0.19190414190383381 0.31684125096548588 -0.54996715823277853 0.3839306611901343 0.032994133062380138 -0.020315977777002354 0.49656769813195389 -0.25333637382359236 -0.51583993936462946 0.35601367105295151 -0.35461675787108327 -0.097369643817147619 0.49889830202559798 -0.62049922429201454 -0.39056061932141184 -0.11141112736903269 -0.14361222890130035 0.068861102059908558 -0.16745786242631402 0.5847013991195652 -0.41816957642645508 -0.29287507857999751;-0.14336063853597594 0.020750478688129445 -0.21987255124571473 0.058963849965541326 0.35587190829658111 -0.16111029823416745 0.15282668232557586 -0.28024601101197949 0.69890958014670712 0.68470893334532978 0.27755269290568452 0.42343765374038722 -0.70789893529110093 -0.64550102041274837 -0.71077268752066292 0.051472644181540447 -0.10035220048895578 -0.24601011408026008 0.60156763406883129 -0.35778930812631954 -0.40684876567388112 0.48983299818484782;0.22258963175146432 0.051393623878368426 -0.43397165343189031 0.31523417915325447 0.39046308324836093 0.76132162590020502 0.34428362227288162 -0.36231242506325884 -0.55920240323247972 -0.33643513306914724 -0.21635852681524478 -0.13832489131267925 -0.22014490190567521 0.5949423355883755 -0.74853982002048702 -0.38581591371285595 0.49022896371153662 0.23976578264603934 0.4603256863386444 0.032747939146679415 -0.075803995532446891 0.33087846572866519;0.62731842953215089 -0.44141172192977812 0.48843249072806166 -0.33469425168824429 0.27371462647361056 -0.51545589034669859 -0.22338789434158829 0.098808382401213091 0.47399415937352457 -0.39149662130752211 0.30135385744152221 0.057235366629259793 -0.51282823533563116 -0.30205757698624797 0.56955739745494616 0.31609519383578411 -0.2420497954636886 0.59023707609321019 0.17063888912990521 0.18806802608179554 -0.084070744091969532 -0.36085105793088684;-0.34690235920007867 0.19661397579371639 0.56401138260034211 0.54296191635554492 -0.75139960849067255 -0.2587083783984519 0.48404811749296339 0.37594671217407211 0.49234803404922661 0.27322116743450808 -0.19282750679571636 -0.55108318383064014 0.071089374584421439 -0.057182088437774378 0.23506145785104743 -0.41949379784111318 0.16144698444779976 -0.48942382499837456 -0.17030522240536169 0.44012426050460729 0.41346527208091594 0.43496121825386919;0.093704197218247326 0.27716283475840703 0.88083331303726775 -0.325614773930895 -0.047790259239552359 -0.40962127814503496 -0.50852941635260396 0.34849608965938145 0.38076781465475473 0.56758360121234464 -0.21563580461357057 0.21217081574130411 0.024170488317512055 -0.23927651064089919 -0.21125861559362849 0.29824850030252459 -0.0022858766802135535 0.7887175342774021 -0.10394723096262505 0.03646666371787681 0.91402022433007923 -0.0082163576718332354;0.4587408070500551 -0.2616357398602685 -0.14631449363840293 0.68450034623058587 0.10078434724783565 -0.35582178253320029 0.070452273626376183 -0.17605747837318056 0.71917719518643941 0.40835459334736363 -0.090536990860080796 -0.27867731822885466 -0.35849136038639179 -0.58466968993601687 0.27080040171454006 0.63320519628008165 0.033208841272170185 0.035659423821374651 0.41308221547928625 0.61426968749336108 -0.34199386904640228 -0.32052638753614765;0.61393541506970972 -0.14120488021245239 -0.25458459433906544 0.30193261236871122 -0.47624177132286805 0.11754448402004353 0.65686259467354913 -0.24830596935023316 0.08526502369491365 -0.15445794505078825 0.50125583205986957 -0.091422096609320824 -0.62196393754560941 -0.15650116849532061 -0.57335051615485211 0.49175813358948112 0.15282720240692788 -0.38246000356657289 -0.32878355667347209 0.41531384751342781 -0.29079164506357386 0.036665774559617052;0.24783111238410674 0.29529736859124123 0.43496215928891035 -0.06090521468182257 -0.37329693290178484 -0.33579183742035268 0.48246373047156371 0.56507994530816963 -0.272030145431987 0.1348564215283429 -0.41487961909983601 0.60650740408051429 -0.13527104601092024 0.63451699094592851 0.62378125621150082 -0.587813585493135 0.19426391901442264 -0.15465515506628616 -0.027931601848593782 0.47965745866569115 0.15977387476619812 -0.24506319425903506;-0.66621678561762765 -0.76557094930964653 -0.27056681705819102 0.012817240949028703 -0.41205467956633435 -0.024016106843906197 -0.38466372144555222 -0.45197725332243821 0.13442530522149795 -0.26310284522867056 -0.54597782921300231 -0.42367476822176664 -0.44837217570265714 0.035042380807867687 0.37490306972199222 0.14114229163073178 0.36084337877039924 -0.51615839060270752 -0.61935537849505118 -0.34358395637811323 -0.46301291386162791 0.26022751653824167;-0.11494192289353693 -0.22493172025738278 0.067291516546760868 0.14952124553670518 -0.44035568513008094 0.32608770871002213 -0.098036730584680598 -0.27616944581600827 -0.093783018212014069 0.17741959307570207 0.41671851140554839 0.72725456088191731 -0.30696264215493901 0.59521701026880147 -0.16025412287280516 0.04954179396821818 -0.61572887903407947 -0.62622429828554937 -0.22857906324040925 -0.52820172075819338 0.30210245008446474 -0.44000472874186719;-0.29312044087204159 -0.44976740991784753 0.025273378639976619 0.42364239159059325 -0.10832718216263691 0.049614766520392997 -0.033196852395183642 -0.33366484445897282 -0.3429075642912997 -0.54732688442075206 -0.38290528010941827 0.43636906822626736 -0.6303451288744627 -0.26650009843636541 -0.47801119540469278 -0.23040685213421519 0.35457079136654368 0.14761254314207109 -0.46071618432713235 0.04092085356001076 -0.58253478778470924 -0.54643614760344617;-0.55806323785481426 0.27712024870851443 -0.16807878774789117 -0.32734524198923443 -0.40272258436233643 -0.68615698085027721 -0.3216543147603711 0.40012884056629683 0.44155006856626983 -0.26431235810970494 0.13473326471156177 -0.14297584863669371 0.50416319649804953 -0.47858727743963353 0.40678036857071287 -0.60695800556177615 0.66662869462017382 0.22821446344587928 0.38544993353118062 0.29546985501240458 0.18810688223485394 -0.49219529642940268;-0.29838937722695308 -0.29546372171433732 -0.38048366077459678 -0.36564250803479786 0.54575927396735369 0.19695150714506507 -0.11983863090904676 0.14066533547559573 -0.30274089381802471 0.6268547946197861 -0.42957172225304929 -0.3393070556025668 -0.11895826101369777 0.18272572003328755 -0.63241089739793321 -0.19400129444719538 0.21486312146422593 0.31557523759133438 0.5593075339095559 -0.78288361827412878 0.40622456111926558 -0.69302563134889472;0.19143941364102782 0.18722302490624831 -0.39423952360196413 0.36832711922829031 -0.20719120566603769 -0.46416908137163554 -0.14936829785922048 0.66542648198354182 0.51848327819299778 0.41285684478183443 0.05222195393060447 -0.27147614718243418 0.51055009899361747 -0.44105999227040132 -0.41963362044553087 0.61039484605456951 -0.42160876728836677 0.19326326718218531 0.54235978819637876 -0.027197829815163981 0.32758978968424218 0.26924428852036641;-0.029854887269327484 -0.49543362082083237 0.54816979194200854 0.53375835337401045 -0.45903561078971 0.13891959460349032 -0.50803245521889817 -0.65060948722023404 -0.52529280988965421 0.20411496066178803 0.23989274550218276 0.56119822759993343 -0.71154466997786114 -0.59618085068127202 -0.44265504237454467 -0.087767825949511172 0.31019624149632763 -0.16671261857423705 -0.33487634537180855 -0.3254303478747142 -0.49347936347419835 -0.0021145148325014676;0.3882963190087757 -0.234870287789854 -0.31524940513100569 0.11494798236517036 0.35917978376933468 -0.37177715426688934 -0.20149906244627605 -0.7806999410162565 -0.48983343402346802 -0.25062835463947625 -0.17167268193432711 0.29046062516316445 -0.28929415380952905 -0.41015731145401979 0.25282229868652756 0.21261871643286492 0.63711204271278787 -0.14076454529110632 0.74640811100784732 0.84693649849065189 0.3991907592120113 -0.75020751253835138;0.31154254450602342 -0.52347147186167731 -0.40348333379516654 -0.49761396864091684 -0.41336406873108572 -0.3980755205765743 0.13298026011178427 0.46536861811836716 0.33652004477720771 0.41562990644544889 0.28289076250714096 -0.25476161164007943 -0.4895982537246189 0.20669054629869577 -0.51052533035584335 -0.2429967292093953 0.045432524393296099 0.4172936191914432 -0.35081578239296801 -0.23589864524722048 -0.28395988049822751 -0.004943006384899965;0.04497345527544426 0.53061736900745271 0.62108127138636682 -0.72335331787375767 -0.34515202038072151 -0.52404576212371079 0.19208775239730763 -0.47184494853915876 -0.56467991891808966 0.063381589091752608 -0.15724016279445624 -0.21862455322383487 0.26986852437281778 -0.13619879569124299 0.2060723768781566 0.065663273170443223 0.29434660001733798 0.36334741311535224 -0.48040396850774764 -0.5827036941023338 0.68276237508131543 0.34916819456739695;0.61378371509113405 -0.56818929209329105 -0.46373913359809499 -0.30451120871071902 -0.15299162938032743 -0.59322221952089171 0.078777081248833938 -0.14719876181686264 -0.60367729037610851 0.17401930774001187 -0.36837849635466757 -0.66990617960933652 -0.05766916445841247 0.11902216867773154 0.68627447815215692 -0.14291177289545989 -0.31009504784095127 0.45062196259365389 -0.0037409314127047986 -0.54281941014348623 -0.50449239089183873 0.25326042934374909;-0.41738970793558428 -0.59833777152945877 -0.097561234041959932 -0.33073293899369738 0.70560694862450302 -0.29913522717838303 -0.33656778475094901 -0.04235162584290203 -0.18531343652432336 0.5725518941782074 -0.40661021161320798 0.4806577605302797 -0.08020288314109221 0.52384761223423859 0.37018177747183884 0.23708654167614468 -0.47382563188916227 0.67588496342193816 0.1636910018912873 -0.38709788903860204 -0.10810398391473702 0.088639835422380117;-0.44640903766011747 0.26961393010500667 -0.64405638729693249 -0.27745356559460493 0.29834413332161541 0.14588815635353522 -0.063034818518894878 0.3567090169289121 0.294664783249863 -0.4261278249801343 -0.0055307096179332679 0.15101481846317005 -0.27658533044274503 -0.23616095790771927 0.6170101247916745 0.65968356012821328 0.66846146329308775 0.40808314374900095 -0.31960770488643425 0.61956441938411433 -0.097676513089396053 -0.09778606446239145;-0.047071676628881579 -0.38546895918244939 0.10580765450652672 -0.68113936794800145 0.17715338649795434 -0.38387018678756762 0.014332167850387456 -0.51992275356307793 0.38369725956810824 0.22966587890467371 -0.46356286730851037 0.12000429168407385 -0.027632991789551194 -0.51815916722620425 -0.48544363407168145 0.68777560288358575 -0.18888104496593011 -0.089557612327944333 0.59340214629515364 0.030625414453818226 -0.53292158453457483 -0.29105768717065555;-0.33464999891961505 -0.4413859334812178 -0.12420863760031113 -0.29865847134235179 0.047639918576269279 0.64168867883101244 -0.1759070590716395 0.50595377993184842 -0.40087007748996162 -0.61342198802890513 -0.58745164622611146 0.76685561886892517 0.7465500993595845 -0.10394569094508606 0.15374614683003443 -0.23184222182678466 0.20712581012860032 -0.11193294393148406 0.21730647954326257 0.53944504088028167 0.48753193614289841 0.38865241669680295;-0.56667467957798723 0.18403314259685263 0.13545214418728352 -0.072438528594697321 0.22647420247141423 0.75775293263981791 -0.0046268676455339273 -0.53457655021142614 0.49586170082909015 0.21107424029211477 0.38681218197649408 0.57107259142658828 0.19840736395234609 0.47382925157016065 -0.52062563169435461 -0.42283846628713723 -0.05223486688514558 -0.56289928195428485 0.22368963074487186 -0.10524823262671473 -0.18560790367019145 -0.4004644818156578;-0.19450857064320151 -0.61423156637346699 0.29714328075944541 0.39697585672044311 0.29357852081136532 -0.034836899074856847 -0.41292855411379253 0.26206331264509741 0.12167398415238537 0.60496736904067216 0.538967471574617 -0.36127184850374128 -0.69750637884167666 -0.42273431293655223 0.059625909765802412 0.43914619405045546 -0.33044046134922084 0.023364935418078294 0.46184347994320391 0.15555066939483916 -0.30017544331663454 0.47725653734565493;-0.12175419013535713 0.31978031196692308 0.60026518014839558 0.35140220333424721 0.65048503760283471 0.028412265164645623 0.42707792188045468 -0.027281621768193896 0.26414581758956357 -0.22734808198990852 -0.4841104547124902 -0.13101870187958747 -0.65140990878090677 0.32726311891346549 0.51094479409273585 -0.030890448716960235 0.27850098344299773 -0.66381562162602825 -0.33077289850098884 -0.27438937923287016 -0.53740356677767265 0.43347849296292579;-0.17533639005482085 -0.2491007848842727 -0.43603092870533644 -0.01989174822718345 0.51648801479231243 0.32514461168982106 -0.32785774776452709 -0.48603922710954817 -0.14290010302732817 -0.56840304665977859 0.5681892128001973 -0.11635693033146027 -0.35329642803736588 0.061533466068026559 -0.71387275770879799 0.53121138053865613 0.36343286848228368 0.14881760318667306 -0.41052163807475506 -0.53654696271583235 -0.38437697057469489 0.14082945687282153;-0.59433869316784627 -0.45038215247086799 -0.79149314449115094 -0.5200221135195352 -0.52284807344052231 -0.41264301834416245 -0.60594043718480084 0.18002604638172648 -0.016296221244251109 0.087658951625699894 -0.50031435335783991 0.39645798174665992 0.51167588996418434 -0.40181485595783517 -0.076659231229268612 0.56005202428214762 -0.18783719957707246 -0.37686174333040223 -0.54016201298856237 -0.23372385460962011 0.3557322129379597 0.22667862186773247;-0.17065039666068607 0.83290298465997414 0.61515081485085543 -0.28901109306417322 -0.43215881882166779 -0.013076935217103144 0.035971365679090685 0.64652442676642619 0.7785463148771512 0.33478068272717132 0.64764994973360734 -0.16936691773354559 -0.37679812920728317 -0.14262144020377299 -0.12239934656953655 -0.65966342703798464 0.30665469511180271 0.057862025075936477 0.088811555162690944 0.16950379879664332 -0.29887950722293277 0.62881410753646716;0.12957580773981153 0.1251262855654228 0.63208582258455859 -0.69625826814132707 -0.39614478079095322 0.19358246249187624 0.085829310436973782 0.2800226762628511 0.37568244235013309 -0.78379709987305901 0.41284217543271468 -0.30777139907873252 -0.030710411418648047 0.55359709186828021 0.36014029613394022 -0.32752957184601716 0.054818428181645666 -0.072360944881779313 -0.77092549802445232 0.074963461453898553 0.57553977844693549 -0.48580196141947973;0.77954569357608194 -0.44384164875346993 -0.1048564592447965 0.36200521083793491 -0.12765490666024659 -0.85844612604790183 -0.28784664068227339 -0.010883224485037767 -0.51084864719503442 0.23419914483239609 0.24080727566554364 -0.34103454995929888 0.041673977007961965 -0.19961890466201393 0.38058101528409488 0.040958551636942765 -0.6055238170806323 -0.25256517183953059 -0.48300448915477839 -0.53138353314605902 -0.26264665223192041 0.24670594531227624;0.67408489104916736 -0.58602915978257419 0.42656336899083058 -0.20600779409963033 0.2288419774414906 0.038298175080809266 0.01016276395182507 -0.29022883896155038 0.36206602825628964 -0.48105512332928102 0.14563512385538355 0.26503024013053433 0.30198007878060384 -0.22537430869223682 -0.46633794241723614 0.54412658937586722 -0.12790941031387917 0.073737063613700082 -0.72940903361703491 0.33364151658413665 -0.83438477676406875 0.19937384448349224;-0.1377475618168286 -0.19548627224128634 -0.7290360131769833 -0.095265381536927027 -0.67722017173723303 0.44457474375043576 0.060992303346054745 0.30299532616559632 0.43366423802210519 -0.67702237387354114 0.38761193516924836 -0.36235344812448567 -0.33848371202889066 -0.014168294164174606 0.054874104831614673 0.082888066892802273 -0.58607231332441478 0.45373911619620561 -0.43703348507014605 0.37698210219212031 -0.2229571568224549 -0.38427170346683298;-0.17555471162832273 0.4187790929176462 0.6088502715118066 0.4066308810137152 -0.22723384362015939 -0.31258865858597978 -0.68887627256275363 -0.17277869884795766 -0.032206190808965057 -0.48898759841987305 -0.38261738640892717 -0.49173707623524016 0.65898047882954947 