% ===== NEURAL NETWORK CONSTANTS =====
% Input 1
x1_step1.xoffset = [0;0;0;0;0;0;0;0;0;0;0;0;0;0;0;0;0;0;0;0;10;100;0;0;0];
x1_step1.gain = [2.04444444444444;2.04444444444444;2.04444444444444;2.04444444444444;2.04444444444444;0.0512820512820513;0.0588235294117647;0.0526315789473684;0.0526315789473684;0.0625;2.04444444444444;2.04444444444444;2.04444444444444;2.04444444444444;2.04444444444444;0.0476190476190476;0.0571428571428571;0.0512820512820513;0.0476190476190476;0.0571428571428571;0.05;0.02;0.00606060606060606;2;2.04444444444444];
x1_step1.ymin = -1;
% Layer 1
b1 = [-1.9177155124111009;1.8400210522016591;1.9509608164466268;1.7677596980268842;1.8606920961044418;-1.9044761877668119;-1.85591891378816;-1.9229597040010797;-1.9490307193767999;-1.7475481603714431;-1.8519705140944234;1.9564673628198057;1.9089351521143294;1.8458730095372722;1.8654906092416301;1.9804425749163967;-1.8654502634622372;-1.7380621580743505;-1.8369882094232211;1.8220241848109453;-1.6431460558795943;1.8753061095844923;-1.6913273981926167;1.8051528700985671;-1.9159796941871889;-1.8378020115756151;-1.746136381438699;-1.7572860848020759;-1.7990236150446404;-1.6834845733708661;1.6281063349385627;1.7773366092673244;1.7514975900864811;1.7306677157344601;1.7837031654170241;1.7887280047447376;1.6792900138337465;-1.7718822173876811;1.5564664624574962;1.7291324732915447;1.596877849243352;1.6538996097876437;1.6282199690239665;1.7360885040856802;-1.7327270289624168;1.8357220163893437;1.7418429345174271;1.7431066344271315;1.6954233408926638;-1.6847512950555079;-1.7129975132246968;-1.7118112256605604;1.7309191525675114;1.6294958026976722;1.6136089151917068;1.7301041905089052;-1.6858224759434528;-1.5530045719205663;-1.5899198942487727;-1.6193294526966027;1.6766831192729041;-1.6246982992025947;-1.4311046079901182;1.6661662853458372;1.6120893411116008;-1.62263656748868;-1.6667382040276082;1.6356876200037798;-1.6704772171485029;-1.5087963110938631;1.5792755663502982;1.6322401209347699;1.5206722697563058;1.5470021871944357;-1.5834857020282351;1.6830966332128661;-1.6524531504731281;1.5993488591440788;1.5268625812848164;1.6056981515126356;-1.536329735035612;1.4536772402888114;1.7822301471707924;-1.5726366931219109;-1.6249286845489321;1.3930535317569586;-1.547067896720419;-1.4939681450322413;-1.580781951316691;1.4649100288276351;1.5514105995615532;1.476882135484793;1.5600536582671523;-1.6145394776457311;-1.6047299104507329;-1.5492553069046731;-1.6042080124769071;1.6477836928889207;-1.4818916643916291;1.4915481548146341;-1.5833417936541918;-1.3613543073421548;1.4422129696664228;-1.45860516885245;-1.3513706514602666;-1.4563889281458076;-1.61328184635922;1.4402580732546966;1.4884397209763669;1.3934132598169549;1.4940159683816714;1.4166135390115557;-1.4172805345618382;-1.3983890709834008;-1.5855740435896883;1.3511856134726836;1.4823235086798743;1.5989978990930178;1.447198952106256;-1.4244821190905519;1.4734927725580118;-1.4047405950666232;1.4487977461461847;1.5568535868334594;-1.5603719738239481;1.4442183854732036;1.4932398360194024;1.3744299179705655;1.3945210909757257;-1.4042011945212525;1.4746609426423485;1.1587032015188408;-1.4132605753237533;-1.4570449598862238;-1.3380088578308975;-1.4190015799379279;-1.4015507624336558;-1.3647400234506277;-1.2438401450169276;1.3446143734285294;1.3495806629763847;-1.3911735159433909;1.4343251791924063;1.2052685824687981;1.3321751621092501;-1.388013758442741;1.3037250179131639;-1.4114376458405589;-1.377135301943371;1.3738755133367546;1.3479000473516825;-1.1438349731862967;1.3136561627172496;-1.2201048042208973;-1.4445695769483198;1.270436348158176;-1.3766025095329888;-1.400650491102853;-1.2710818580148524;1.2496479986967619;1.399821697640236;1.3339080726945161;-1.2772165721309194;1.2516391284763102;-1.2579911072715828;-1.3207123292089256;-1.282311648561224;1.2738969859614748;-1.4299740884655625;-1.3089122376133948;-1.3041426153212241;-1.1606822872111087;1.3550987803215087;1.2078681018580815;1.2372344248472769;1.215579548395169;-1.2341727624947085;1.1580813954492735;1.1952414725676765;1.2691138387497765;-1.2088195343232015;-1.2445329628582942;1.0830081836295697;1.1569730968948939;1.2007867957512177;-1.2156146152212142;-1.1721840115210402;-1.0598576401374502;1.1094753992011168;1.1998059219202193;1.0441710058131162;1.1289337567794078;-1.0628207886037668;1.3017870643705647;1.1624387470445172;-1.2584260958233167;1.081133527061058;1.0328214406158274;-1.2283355570361321;1.2906294314960038;-0.93659340134345082;-1.0902686978774674;-1.0620789522195728;1.2132607599162579;1.0517544514482073;1.1001314057322953;-1.2049085806921069;1.2483701720941105;1.0277909566508623;-1.1216241168554792;-0.89685890801843904;0.97887172310901494;-1.0530652070263462;-1.1261862673290128;-1.0238341387437544;1.1342619094042985;-0.98775207706070567;-1.2240881373022061;1.0568089909281491;-1.1468548925545445;-1.0151238059134953;-1.1447470071202401;1.0227120014109723;-0.98659792873033991;1.0469437121813361;-1.1071725302026925;1.102772010624784;1.0434724631222623;-0.95693678081330291;1.0493542681106647;-0.88304523761299425;0.94542532559880599;-1.0222300312771999;-1.0484603897243849;0.95082437253090291;-1.0739362379051745;0.9964822322279917;1.0437054532432699;-0.85763770248270554;0.87300265799198995;-0.91799570799938468;0.86429955331351616;-1.004135784497012;0.99323356628581727;-0.79364436072270916;1.0658964537183198;0.99926152592041784;-0.8942354824336165;-0.85207872628140624;-0.96872721345728963;-0.92261738036710217;0.78734997056802913;-0.98480018639587896;-0.95593602424024604;-0.64453617076377256;-0.96486050178502403;-0.94893295122491639;-0.91874219478693375;0.96179321178860211;0.99383064759172457;-0.90401269178498733;0.7573000226763732;1.0153435344682269;-1.0295343011926592;-0.80922606916075801;-1.0003989547245633;0.77553558015385793;-0.75856037312562663;0.81445499225398232;0.9431223603018708;0.73058248352715338;0.97844819003270056;-0.90696239145043689;0.73888764288117736;0.79488378316620434;-0.74700407428862792;-0.74494510437572503;-0.81844585912082957;0.87755089292636412;0.98556084865791016;0.90667458169044224;0.92097695605484986;0.80035205723605918;0.98454050546323035;-0.88742425870807462;0.65900440623487389;0.8671712176002937;-0.96513272174976716;0.85360330938988349;0.94183752412725597;-0.77432188497792032;0.9100585885428043;-0.67616376658346478;-0.84003072842333493;-0.86730896160642224;0.76939925803901266;-0.85194782175457295;0.69417840632986738;-0.69944997123253583;0.76200413879954565;-0.6006894883670626;0.81718406372751962;-0.93343812531002923;-0.651628063210268;0.70501725342237942;0.77761915942456661;0.7388749137471553;0.76664094597465715;0.83818164128316019;0.84220871575686418;0.6625458992747546;0.76294505817908242;-0.91107409522270721;-0.88333696323129063;-0.8394316724965436;0.76389583416155316;-0.63855942677858868;0.63420705465466087;0.6535634476260368;0.80897197848753;0.8729466309049313;0.50897225986357741;-0.58708606652334105;0.5261324381550142;-0.61163973406206484;-0.63991405482654828;-0.70418502467194666;-0.56014346074494092;-0.52525834307327912;-0.74448371833944449;-0.57537960472230254;0.73888857875417657;0.67227829328028244;-0.53779967714275345;-0.83671366410409831;-0.67351394728808156;-0.65171605962471435;0.59170273087564607;0.77724567824518254;-0.59803160350934081;-0.54691589043665223;-0.59407916047601517;0.66427501257639376;0.88841782400320324;-0.61207580085501734;-0.40004440475201358;0.507848094314856;-0.90345950788673379;0.57220715134334355;0.61363387988965801;0.45439886755368286;0.62373624020610685;-0.63470331615497433;0.58274548999993814;-0.57398528602764454;-0.63316001928009791;0.6979987039148059;0.49753555657159965;0.51355424098219149;-0.5965895750892396;0.41149232329526747;-0.47292095426176345;-0.38919823833371581;0.62282701227650394;-0.79563233610252304;0.57905611926613021;0.5389748087504197;0.65446923809707647;-0.47304526426098914;-0.53000450892210271;0.50165950565069273;0.40673861296069996;0.54110082218543087;0.47634024215129322;-0.51973131365252256;-0.3654277550358056;0.52546606084628034;0.58328817180606651;0.62782209352922913;-0.084636897973166647;-0.43743933494735138;-0.49394573904510491;0.21035918806045398;-0.43780642052319418;-0.53243576600491527;0.43883328663061566;0.54506624046479646;-0.43699146871276184;-0.41579194193635555;0.26441145873156741;0.46600102526347653;0.26127212181914922;0.26268304670740272;-0.54911611878093525;0.40134674877940901;0.30194127705462126;0.46419913253113798;-0.57213978245209385;-0.47120406603444465;-0.46104638041653517;0.34328849923943405;0.54573467506030438;-0.31463888451871491;-0.5199700030715273;-0.6855561301100489;0.4155003824003089;-0.48507965571934558;0.19079350967241365;-0.46384334662904514;0.42504360165957594;0.50438330374839546;-0.25529289973811459;-0.56725707381492396;0.47681885105251059;0.33267554774001068;0.44527557549909225;0.39103420612247658;0.282119420515209;0.28839176875525113;-0.2787177559590519;0.50856980474756341;0.11088319504788398;0.081264174474771245;-0.38157774058345945;0.37986276707975958;0.296098735118626;-0.25194960172963576;0.3500359754713574;0.33813414274545883;-0.34976515629525401;-0.45015031909745373;0.2006369156511971;0.16224446017337363;-0.57147548358646627;0.33972449364563739;0.41156385566671366;0.11527866924252457;-0.37671631171563641;0.34269310122038305;-0.35848581325905016;0.16891812304339898;-0.33310280035993961;0.0037974373099054588;-0.14889121723567561;-0.00024265658252613361;0.29465071145414967;0.19870474818763373;0.29159975691162937;0.14811070538381885;0.19972558785281291;0.15895659030627471;0.15805563932531574;-0.16690477625529052;-0.13817087790715274;-0.026729737808498091;-0.37577976794548273;0.21152806247484887;-0.030814804985262383;0.43334368714910826;0.32367769649499695;0.2162755461823555;-0.26661331731587073;0.27471977361935623;-0.50243762178634799;0.19816256539262725;0.16252446271140045;-0.2807842157670814;0.038718533937615908;0.17350673349806425;0.18556357821928054;-0.04479535031347065;-0.0057149767076768816;-0.18023067815437324;-0.14089424159227623;0.090899470659293852;-0.19761835646419817;-0.0048695621460010299;0.13998297992473141;-0.14810985947724181;-0.042479896627327901;0.12139224074020191;-0.022537169127861554;0.068458461344123159;0.13206482586576609;-0.20704175782959378;-0.074090610610426627;-0.25803002247104811;0.23153806522512657;0.092223606221200072;0.042841970187641278;-0.069227727270469441;0.26288207216759196;-0.19839886510144092;0.0062318203889337124;-0.092852113785542839;-0.1019620888682021;0.17196541045040128;0.071265467415498246;0.06778157024788467;-0.062197620057154145;-0.03828629199424876;0.0030928494892735713;-0.057787625448586274;-0.18471535249861357;0.011578748163839036;-0.055032777024591951;0.061848233604672287;-0.068016976900967543;0.10758630356040463;-0.11510323603766144;-0.0041583084155400775;-0.0780833541635578;0.03868144201127522;0.079824076103886366;-0.15785075738805515;-0.17726931313070196;-0.029804781665349139;-0.071254222582533625;0.035910766300472123;-0.18885925698228972;-0.10901156949658705;-0.10276461783243444;0.089608685201401209;0.063409772501190509;-0.036285552591953533;-0.059148650147140609;-0.01461885938073987;-0.025005591287945959;0.13396176978573704;-0.081035879544071043;-0.2393363421978193;-0.18300086563810447;0.15721900137399433;0.19281970525571318;0.084074982894123462;0.23805586444190902;-0.039773409115957566;0.07264479112571863;-0.073289955263246997;-0.1797926733656198;-0.18828174574632234;0.034134766968514106;0.0026022417147111374;0.22072873522957287;0.30938052204251826;-0.043882698529188531;0.090802496300924601;-0.19666736397486653;0.20761163197184485;-0.1136022917719747;-0.0091233551562945152;-0.058330769544656581;0.26269733202309054;0.058270163552337745;0.17747218139296181;0.17998289736014553;0.28967456401911479;-0.023047190487142887;-0.26191587420049073;0.17823876030409608;0.063701792217897291;-0.18002266658265295;0.068581536211668334;-0.35215431003494219;0.19149427919920656;-0.20115212306646665;0.28906338690876593;0.10500738560697562;-0.1150624820370052;-0.00094381939354049949;0.029783880076579394;-0.12599773480167928;-0.34847673118677847;-0.3243398996097227;-0.21297939651570455;0.36966811589134307;-0.26305129894015644;0.026237789092734654;-0.15804087166967648;-0.22853719658234622;-0.24436903130578608;-0.29806828599929902;-0.2106365028592028;0.06255013846764175;0.014749813168129155;-0.47693097504341936;-0.26618968216271954;0.26255405720981245;0.38270039951465951;-0.36318946491844228;-0.4122505461348055;0.19705250938916855;0.24265588065472857;0.31130185152449991;0.27480248417828163;-0.26524332917503662;-0.45106936455777247;-0.16660393362448653;-0.2996817708468601;0.28538269425768992;0.32212417106040259;-0.39815332784944141;0.5679666526239957;0.20795589267472506;0.22078630289616122;0.31784169344701202;-0.37410185352352443;-0.33392343651198669;-0.30609238127825172;0.33575747947228402;0.3445086620470269;0.33643874854201417;0.26196203771312954;-0.47020314844323374;0.20379551340609109;-0.39214432419190498;0.40511347045584833;-0.40268396297641235;-0.43891217868738414;-0.35865337498443473;0.39800222338866698;0.2747750636833205;-0.55913972277166046;0.47223463790074122;-0.31776071753167118;0.27588750754712615;0.30723448734605291;-0.30724715563571509;-0.26427398269554458;-0.41577449130741767;-0.3670384685573776;0.46072680268192062;0.3365497959469963;0.29063251266850731;-0.42085728042162007;-0.48165317761868248;-0.49269367605760095;0.57639273210011233;0.77844097441601157;-0.4704326232361738;-0.58709882082187947;-0.52319209593743288;-0.35600994159581112;-0.60846934472641234;-0.36279973344379302;-0.36924872064929976;-0.24931438607168452;-0.64999606479524075;-0.50556897524048816;-0.45017390904687021;0.4826745436426072;0.5815576271276981;0.49684998607495717;0.44583912388093033;0.51986577257951172;-0.69171056526941943;0.40699884776067019;0.49735147132011814;0.51013274592055391;-0.72241725804264334;-0.50733990214999669;-0.69202237547271095;-0.57483824549152751;-0.66517174687204117;0.3816200830740043;-0.65705570239388256;-0.42744028961966901;0.75998289922884454;-0.22774373235453405;-0.68566527811884248;-0.53872804379821182;-0.46386348853253667;-0.72184353978494131;0.48002921631545592;-0.53903358412340618;-0.55491046823817991;0.53083411019714866;0.49041869078012457;0.62440558730961804;-0.6502113049391427;-0.59787539613645035;-0.65172607892613643;-0.63693518401041627;0.77373990613694466;-0.63937678836470091;-0.43191830463428926;-0.6853015895642206;-0.6234209275527095;-0.58174255143434295;-0.61977671275889512;0.4385507402009341;0.57909135795117894;-0.75297111895486457;-0.61749083678837657;-0.71468016307000815;0.57812860292119861;-0.52629107730938729;0.60238469569797992;-0.82295663051909951;-0.54002771274803407;0.67003509993433141;-0.6698136250633463;-0.62616197256422801;-0.56519025989272575;-0.54577116293915906;0.70537320866447972;0.64257795624250957;-0.61270930159680381;0.81884202556892649;-0.83177731204167782;-0.80376942552389352;-0.903671029426938;0.84231618864396218;-0.76914590458078658;-0.86524137391676736;-0.76847662831044372;0.70943612488749597;0.79755880165327309;-0.81380689339104018;0.7709032376634648;0.71798897100124037;0.74009728800211072;-0.84482583317198434;-0.95885160487015531;-0.62023174068151476;-0.82620649527936674;-0.87723790584989303;0.68414680821702112;-0.89195452822337373;0.78069693646294558;-0.78041974762948318;-0.89004521066201803;0.86180061349743498;0.8223847128377233;-0.79672619941869871;0.7455028156846083;0.82851012723299877;0.81936252404007648;0.83602386444520316;-0.73283021753769151;0.85330656616426359;-0.90261594599079531;0.88336247565540893;-0.54712678885604837;-0.83287246829784911;-0.72326655777098381;0.93281423516832351;-0.81098482674969063;-0.81111841327572576;0.94455656780645425;-0.92766854171420865;-0.80560784344785963;-0.98613516400512735;-0.88780182000917973;-0.99679428374553747;0.84769571291297807;0.83858422684298173;0.76968095213164567;-0.8976647556977515;-0.90540859967998155;0.84464942570466728;0.77358304098110087;0.91811403710902928;-0.93104656441189337;0.54809694431507183;0.95443998908888217;-0.89251720735781026;-0.8953173765021043;-1.0333831665966473;1.0497590246950521;0.75381653123597425;-0.86348720451308258;-1.0176811365856127;-0.95836740868720049;0.97659711001652161;-0.95024098434568161;1.1232549733133117;-1.0212018752321743;1.047001527095661;0.9256634628211583;-0.93851809485065796;-1.0676598424504153;-0.95511360738412476;-1.0180087744152615;-1.1011329859761281;0.93615544524119321;-0.77844026107350606;-1.1621304430891439;-1.0819143484189613;1.0310426901553205;-1.0667372330481222;0.91535811123169897;-1.0839815063985354;1.0685219849714982;0.8828280513296386;-1.0326690545747002;1.0293177965200757;-1.0800902578036269;-1.0319072900139934;-1.0056703588111688;-0.97291577226513515;1.0864671737419589;-1.025019594554178;-0.96687905311354361;-1.0936894685408618;1.0241143509313519;1.1635483471795511;1.11339490702472;1.2585158848103055;1.0211858143271657;-0.92157875523983379;1.1633907272416608;1.0427726429115656;-0.97771449474998717;-1.1233467049060544;-1.0873772028483726;1.0467468418035257;-1.1699151328097166;-1.1149925267716361;1.2059121654442193;0.8312902762749822;-1.184910675776768;-1.2870792050123043;-1.0008919273970118;-1.0961164619351569;-1.1802855756625203;1.0135916194604202;-1.1084628454613106;-1.0823204783592302;1.2582859617691666;0.953015022540043;1.1651286951480557;1.1788605016205318;-1.0633507437037306;1.173248590203521;1.0621284761015963;-1.1707114048994005;-1.3003105915556559;-1.2963732141905693;-1.3489221202404089;-1.277021115176713;1.1912067952084302;-1.2884015423487252;-1.1787105542506431;1.1274893473555616;1.2565847745903229;1.2208099315062722;1.171618821284556;-1.3309958816710523;-1.2574795069302303;-1.2656591446296832;-1.1091170396128349;-1.2418604673436093;-1.0462807144396273;1.293009130326628;-1.2972757135355406;-1.2392855376237266;1.2965907106056238;-1.3242787772365479;1.2251760827362732;1.2997739807359667;-1.2506133516775917;-1.2995419379053874;-1.3637125942143766;1.3936540435414833;1.3222607102804751;-1.3792650974669409;1.3034863830151766;-1.2091828392848296;1.2702883536988312;1.2768554573246644;1.3676046566629967;-1.322395930973377;-1.2778005561265913;1.320010247167436;1.2751424501950954;-1.3422668716034654;-1.1919122212572377;-1.4007506817347155;-1.1753121239274584;1.3928384537564475;1.2251956759267126;1.3043221174452897;1.3832278290365645;-1.4425772370854237;1.348024647513461;-1.444027854637651;-1.3650652052704304;1.4838927003817997;1.4412971053056498;1.3539041997337982;1.3863843738131796;1.2719199487355144;1.4923100224106514;-1.4055547137218714;1.3769133504914335;1.3631332313397713;1.4925772092084111;1.5443450248600572;1.4693584124384913;-1.2919564713941534;1.4122274029437667;1.4019668170183734;1.455015207289353;1.410761718348662;1.4751412221263278;1.4140948437065308;1.5742432863443441;-1.4277566586388488;-1.4777206611322493;-1.2727023209605308;-1.4295090486756945;1.492940170769999;-1.50996584702327;1.4021519677160321;1.3324279912711519;-1.5521268174978944;-1.4885850774286393;1.6166875928752429;1.6026164538048586;1.4493584824296024;-1.4743410837297646;1.6424946674634124;-1.4040198369204389;-1.5541408008230777;1.4770342573199804;-1.4662894591302027;-1.4420093336404414;1.4497733930711376;-1.574251217635134;1.4755740177524932;1.4573138320337131;1.5141555856551234;-1.6369515713309171;1.5369794758612483;1.5331491679105493;-1.536253877508768;-1.6011014430883059;1.4535292049953208;1.5363632598792334;-1.6163979009822684;-1.4949360976472705;-1.6885122410226956;-1.5842275083068187;1.4535487099086408;-1.5997820151486075;-1.7146745097341527;-1.6302644016515861;-1.6097473244123546;-1.6690921655359292;1.6695499506573346;-1.5481675104836174;-1.5758804954543268;1.6806918134664621;1.4901714984017393;-1.5566982779758891;-1.6167911624544609;-1.5951258187977648;-1.6385219234270922;1.5758979055634983;-1.574999169055443;-1.6405450075890025;-1.7836474000316811;1.6317639341327819;-1.4207172159626107;1.6106515199613014;1.6977447339610205;-1.6605979730825953;-1.6781826988259696;-1.6172869093803517;1.6527671919065465;-1.6778461254077635;-1.6637671858457603;1.602287997567432;1.6240539639719618;-1.6478135482721383;1.5531197525472336;-1.7211849475759242;-1.7489022520268018;1.7640730005849174;-1.6795917154366831;-1.7503656536488388;1.6222368878692597;-1.7980095884469169;1.6507030768943527;-1.7311420709481844;1.7210546477980149;-1.9230041255863346;-1.7529231478754297;-1.7426659744692485;-1.7284099033937412;-1.886724456340662;1.7480438764413728;1.7611098302256627;-1.7712836676753709;-1.6475142900017701;-1.7357014817095813;-1.8173014458945331;1.8239533557055976;1.7278730161967626;-1.65552425573364;1.8288469682189481;1.7904274106587361;1.8906257521090275;-1.7442589472962124;-1.8061973263020952;-1.8869514743120543;1.8687599520361216;-1.7395726024771596;1.8518817859950911;1.7212920955003363;1.8338585025333518;-1.8946322611709241;-1.8128933626002515;1.820224225900712;1.7844728658440769;-1.8547435211215184;-1.7774870593682695;1.8262204240163264;-1.6488429689448529;-1.8412564797350539;1.7697578054383136;-1.8447698198348677;1.804415425002508];
IW1_1 = [0.1624979337205299 0.14465957135789484 0.14239682320933159 0.53421441288500893 0.44104107716051161 -0.044863340162283855 -0.11112853229761295 0.67459403545292929 0.250901320046376 -0.25336238976560993 -0.2480772433230917 -0.29951531572294238 -0.3974590713985155 0.43511915753614661 -0.386897150458406 0.43048013138895219 0.24228837551996107 -0.06011680837905397 0.69030915279213512 0.34897987685804832 -0.081823644593751646 0.12179747953894633 -0.26269475960133942 -0.29806628968913185 -0.023595580131885927;-0.14087523080589703 -0.33848107079722872 -0.19140141091816809 0.50310824765782547 0.44346759766056271 -0.50868557717113505 -0.6019135474383065 -0.1728138042368558 -0.50776092694618402 0.35710502736168287 0.055283514061538495 -0.208083288794955 0.35866424999039259 0.074135699802967039 0.11250499606264192 0.26347973912442779 0.043112741866531488 -0.1995197958787146 -0.028996301926258562 0.33531401373168934 0.4821535940383278 -0.6905513902426561 0.37416796521179646 -0.56682405326645979 -0.24611498913471863;-0.50627205746811688 -0.39562732664600286 0.20155285042497528 0.085377084041462242 0.37179703015696147 -0.12433038256555028 0.043138454015595795 -0.39699399320704087 -0.28499804165373199 0.4387917693104848 0.28129411221469031 0.47066722295453983 -0.54287769046883394 -0.089181479936094737 0.28845019638887204 0.32122139366530766 -0.0014100193314104295 0.48594239129567829 0.48076239506175239 -0.24734342501720524 0.27713578540809403 -0.30088081598286492 0.31736798800061961 -0.56223974800904009 0.3631149133157397;-0.37570874263057014 0.50178523691573562 0.01952527590886249 -0.45971159733759781 -0.26689676670096502 -0.11940676168297418 -0.43778322796028313 0.50309143788846633 -0.45151738962303661 -0.20466522292673486 0.55128438901413501 0.51945357519748636 0.41932515908441609 -0.63009322849355687 0.35494751689234377 -0.12622202616994413 0.48137276975285631 -0.33733543890109352 -0.30240696081424306 -0.39874025180966749 -0.26816429321862439 0.17931414920364669 -0.45365859135364472 -0.074179617343316517 0.21765640774455183;-0.13136403739740679 -0.40618722494576354 -0.57885014841277849 -0.30401646321868164 0.18087241675125032 -0.45712516922737639 -0.41636512598507008 -0.035946273346037852 -0.26067190246129446 0.12357479628246226 0.54308266564320917 0.48609757559433558 0.3097540287705377 -0.51746362515471656 -0.53868936419264846 0.13135569445698653 0.27199937900742349 0.5743622860937766 0.46158968103655784 0.1517936301802581 0.38009024968289956 -0.14867350783192482 -0.093129599727278425 -0.45557519840668498 -0.37195024690874934;0.37667131422331734 -0.44549096083979156 -0.53972094744163979 -0.34513812527546561 -0.22457667517552957 -0.04671273091520467 -0.060361195746552077 -0.023541403391766462 -0.25959918990010411 0.4633415291606327 0.09474605860908196 -0.0038950735706362628 0.36343003907570864 0.074544584333296929 0.37869704965194484 -0.65151955550646001 -0.014456502897312803 -0.65297021024177682 0.072950382572815262 -0.19360738016786505 0.33867355263747601 -0.53448103544613723 -0.38106066620452789 -0.42642040411547483 -0.1328892992306657;0.56004985790713113 0.19277471509698357 -0.26376308768225504 0.046203038173202038 0.16450958838710134 -0.67516292611553741 0.6521602140470707 0.071356455729020482 0.3141875537173065 -0.52894832981609174 -0.4150782755826507 0.17499288196717944 -0.39253006534183588 0.31983114439753324 0.35072488363551363 0.32792343916040356 0.59971117163147647 -0.3965544103931366 0.12809294247246275 0.21950413824746445 0.085699531134677001 -0.14426298621160305 -0.12885659018638035 0.46940366999728911 -0.3277699611123962;0.5853432438830134 -0.090372284220372648 -0.54296671037829836 -0.52275417170229477 0.16993177040680899 -0.16512393352818924 -0.11608391264898597 0.71989003930431394 0.35623050605620465 -0.30802572426562236 0.0081083248023480128 -0.21223530740443372 0.15659208398356289 0.49089385001768771 -0.30779166932785851 0.31408339793255996 0.36027158425129524 -0.49775897738399166 -0.22753030757195317 -0.13855321901725368 -0.15399252896594348 -0.48769390641808924 -0.064198853082026983 0.38078290999781716 -0.036781674562526595;0.088061183057404166 0.44036486519203294 -0.36480278442051184 0.18005059717559654 0.61835944576663304 0.39982084832745129 0.05405079491012784 -0.30047000824602865 -0.1755530766763215 0.61639131239138156 -0.14226795314053492 0.25363027722418907 -0.016380366735726078 -0.58367595984960485 0.41308125811306973 0.25912772960870606 0.16425838221758438 -0.26740667871476154 0.584314897500678 0.38753426389740059 0.2485020164604009 0.134676727297843 -0.10408146456814284 -0.22746626777644541 0.41822112040264253;0.50624054807242125 0.0066717602559385192 0.25170821248534736 0.52159945095407345 0.6634495020953346 0.65805202995808953 -0.47039594894389969 -0.62263831476805809 0.2787824044022133 -0.35668163807374076 -0.19736289859737915 0.0079742100134548959 -0.10898757123705612 -0.38408741955769038 0.54733672301458991 -0.25005083868309069 -0.07986442432000479 -0.02451963058499821 0.51535150719743728 0.12187942679437071 -0.22059335919000636 0.30858411242373296 -0.31561106169114517 0.31171080382296712 0.10162980654332046;0.38597715672162058 0.029170087473081245 0.55402508292930841 -0.089382821290127132 -0.23491085877192178 -0.27205716967032173 -0.29452177943842606 0.028117237404866626 0.016953680315136384 -0.25249657645326762 -0.23106358848131953 -0.61193835773798977 0.72196447819480403 -0.62188492259318862 -0.42058387824890509 0.18910482190866162 -0.0086794821129176775 0.35463389572840692 -0.25950579713286737 0.00029816872349706328 0.39999826720399795 0.61716401902154128 -0.19893892153919662 -0.16680173472881002 0.39114612217965383;-0.37812937236891142 -0.32168468740892281 0.16958575780562166 -0.041324124299710573 -0.46074012123297808 0.011792796887185177 0.30373184385713764 -0.57069958413231414 -0.12848189993496895 0.31428297078104023 -0.18787006472752898 0.27773471960763602 0.40643271134094361 0.047674608661549336 0.51028424725571442 -0.42433626883189796 -0.30121669832205605 -0.067440493707408927 0.3433084360741846 0.20186600127413273 -0.049882936487106747 -0.38719936212789474 -0.52173127828357835 0.26818884362553136 0.34508170205023692;-0.16262557317106985 -0.51296590279867105 -0.33393345805683222 0.39395308672577856 0.0080235696059897943 -0.31510930048813507 0.2977651075907165 0.34857803187995989 -0.17494415098414265 -0.30967844289776547 0.65936756890814063 0.60737986814319311 0.25428068427779049 -0.10702239570760862 0.071502099189721127 0.15368443908923327 -0.24380262607515335 0.54445949439690022 0.5225425146844318 0.17497664850916145 0.34341179093082597 -0.32833663619866893 0.35795231627828555 0.17433697106213775 -0.61125145832328531;-0.13670349908011706 0.30895985325279984 0.2508705796102027 0.32343705761211589 0.37521875631522406 -0.11290277747629208 0.13328878916441872 0.08805840564489377 -0.41833496427677602 -0.17252389402557003 0.30350237946649605 -0.14394715985434489 0.53518264267119509 0.036685912994772731 -0.53522426328071526 -0.43974898684218217 -0.15831033769139205 -0.6183046443716832 0.45975677679438426 0.52799967070071074 -0.62385824758218333 0.50588969823961316 -0.15430706516384732 0.017664652680664989 -0.51505798126005631;-0.35420474798192131 -0.32912063218655169 0.49867402371665515 -0.39679517967505928 0.45214928704431312 -0.51434200291370702 0.3088218069731607 -0.28468150992100644 0.41918173159348621 -0.15909034134190952 0.0096891299722746908 0.26017312383649427 0.51230470762135982 -0.23471014592097889 0.3028783306434778 -0.4391791501600214 -0.23767133018647166 0.41819283533362278 -0.37088480945121444 -0.22760191814428599 -0.2053902400638129 -0.5241285092710205 -0.21630177193265915 0.24073916580318871 -0.4533820078735003;-0.57293371697950768 0.10866777546018214 -0.37867154075937609 0.21660268476550973 0.30467272066731699 0.3353254321822744 0.5622373025893227 -0.17846704928107651 -0.17759435525199535 -0.32289054496405273 0.13894403078014275 -0.46082640026522242 -0.60218601851125908 0.10190571114938345 -0.52019497312907947 0.092434197722290654 -0.36759514218511319 -0.023278463972174212 0.40035655089559385 0.28766733801347694 -0.12228530198091266 -0.42904707624661587 0.13912377105766938 -0.31264050094738127 0.13514938560408649;0.50340208649869511 0.084786741046141229 -0.14131011477183328 -0.1392415307017843 -0.35402589387357997 -0.33792286540547412 -0.55445976750550163 -0.47532873235422352 0.30846073379050376 -0.068718062296537027 -0.084315664399410462 -0.20846944075303447 0.60618340259741632 0.18918876963836317 0.38561463405779106 0.28740289881776182 -0.50783644541646877 -0.050171415226461187 0.11290767709290221 0.45344811339441021 -0.38702744000068778 0.11433761749539938 -0.53112995353831194 0.13283173112638896 -0.22517677922860244;0.6149899757259345 -0.3168674710839815 0.36547770664488755 -0.23793662773842245 0.35049877262385182 -0.1361672707117596 0.39772347807765995 0.50878041674404484 0.28645814397877767 0.49309421917236895 0.14654217445843798 -0.17776103101856799 -0.60548964395568872 0.14302006431306219 -0.16373816381094822 0.231122786727673 0.13519682073461362 -0.38080107970695337 0.24290263172189458 -0.3132712060276942 -0.33029362263593459 0.30257282088655418 0.48119146830607423 -0.77019685417628958 0.39754453520598548;0.23582196205063966 0.53764777851237799 -0.46375024519023755 0.32830840112035703 -0.56514107324829133 0.058304749382309624 0.24596764440219113 -0.60274417371123368 -0.02418750060087203 0.056393294920958875 0.29194456727727819 0.1126308518480747 0.19549531044220048 -0.42721013366590993 -0.11309550583494188 -0.5679347048315242 -0.28216049786276948 0.3937516397531664 -0.52259548452579496 -0.083028926892848048 0.14644583567442782 0.11671538709257419 0.50456832505236715 0.065995191229238054 0.33596438407583673;-0.45256024444862075 -0.093052344413747948 -0.088175838871332929 0.051804536531221301 -0.17079804722454864 0.52687059287645244 -0.31397614538169721 0.14369742930024532 -0.026629762545987982 -0.51740108807782925 0.0026038441538175161 0.51475302769759734 -0.50701510416358675 -0.4395889795374896 -0.0001370182865413476 -0.47522702451701732 0.55822923503274458 0.53280713261352453 0.5548187772788411 0.11755946904253582 0.36769588755764326 0.23855529321376456 0.19752487603040772 -0.43986447027634235 -0.28026638073778537;0.26247170270186337 0.6429251160545727 -0.33124326669789222 0.023947613943290001 0.16317196866402717 0.3213645360365891 -0.32100830035309891 0.17050579358060095 0.51487729222664691 0.2240444122746641 0.065302047725203302 0.58555890923636011 0.37456918373288861 -0.36041262837456089 0.23965751704553981 0.40780705147178326 0.54835223273740841 0.51120117067812654 -0.28711371070830166 0.58419641493556729 -0.62563834708423705 -0.54738696679640009 -0.017736994502513103 0.069007810691017857 -0.2078059133074027;-0.15229918015497243 0.49998992417787658 0.32065000992524106 0.56067649244467266 0.36201872646479094 -0.46527279085806628 -0.26630652410795258 -0.081215822994955278 0.061923327410484716 0.072878570073413626 0.16544076509157599 -0.43065584710569865 0.32019512094375618 0.39942086782821429 0.52088855930053435 -0.19261688672959501 -0.11662041374990523 0.36197644817037428 -0.19965998332377333 -0.23517608730319109 -0.6428683858135954 -0.36083430585491999 -0.31901599518219959 -0.35737900521432658 0.50788686827366802;0.090666240240718246 0.43606211835843461 -0.58372618737382054 -0.14840219120418272 -0.47570260667712411 -0.21669060774032847 0.12709486182029281 -0.55461749567435281 -0.6044048827419678 0.50000320753017347 -0.47798240148239596 -0.25147088208457147 -0.34403305687337798 0.096591260257908859 0.37708826686881247 0.37387663890597306 -0.29531739194695272 -0.11965380863749715 -0.22187296019212813 0.28556638748651703 -0.019037385327155001 -0.31223823190475625 -0.22217681189108393 -0.77358577990005839 0.36946697256396377;-0.30363450901021755 0.19952805721376543 -0.41904838466603156 0.57242957870529909 -0.34922091161006436 0.45677906767662552 0.23390887578729638 0.35499270449704529 0.42371496525335245 0.33150707901833132 0.40217619517899711 0.42217572867827469 0.016200754516926645 -0.39980442024986867 0.033357768505603867 0.38958456165007382 -0.43579068957696926 0.50721250107290028 -0.16942667474262316 -0.11051977735216771 -0.38336759752406063 -0.28750247988821909 0.44144638984025025 0.17932298405295938 0.41238605541301759;0.59673872251371507 0.2686194042232708 -0.14382770924334706 0.3321327480016662 -0.058966268143578728 0.29887758153521871 0.10591613223173015 -0.35025488144660688 0.029547787656890541 0.59680451647703137 0.064752312499480866 0.011057938651985563 0.096919139560401574 -0.35988081506414876 -0.57310224547771205 -0.002232643200836991 -0.054546443522165276 0.31175657468354567 0.51473276818492841 -0.36003131961817825 -0.62717271457078949 -0.15477414584937016 -0.11509042890814429 0.41308166265161045 -0.38682567370280385;0.45282656694435136 -0.19830059941230482 -0.092300944903687426 -0.52736356939864104 -0.29450778435660224 0.24503083585458527 -0.40824292065115014 0.5140584723818844 -0.3118659066494906 0.5555291281585073 0.067168569657162724 -0.30257805922929065 0.24645405823536648 0.091985460177295447 0.23265302486443049 0.48836611417584685 -0.067362206758197485 0.46815773074692335 -0.035402863464926479 -0.62738230701363018 -0.17297814456887695 0.45344975212655486 -0.27501604329100904 0.14143318390975965 0.35462844368721513;0.15893940174326157 -0.19310758161823013 -0.55204764255829342 -0.33932174653715269 0.34921218960051209 -0.43710710223928673 -0.38517672913696438 -0.58604581147656309 -0.18658811143765397 0.21324003407892411 -0.21310800202938088 0.40658636826839151 -0.3602793096237063 0.26475939632096085 -0.14656452166930056 0.3215411952109048 0.41819840021551941 -0.33238774893548917 -0.54123813063685178 0.35108551943015404 0.59839614031973343 0.26414289969226745 0.002352147049929078 -0.62915981288481637 0.12299429152634586;0.22620278574009028 0.41439740569116229 -0.30995110133763487 0.4238499177396316 0.16835109344883903 -0.15662771296079867 0.52318903709486342 0.15275069472727335 0.47083631307636548 -0.36726338586658885 -0.27174256252916695 0.16740128961449816 0.51057792229621468 -0.24268738179468918 -0.27846738151283051 0.50013683853016555 0.30026733444579345 -0.50202359425043641 -0.30066011807117615 -0.63918769246083529 0.46141259554957209 -0.38154725741870105 0.36490551045604264 0.15820421966287238 -0.039546375394774382;0.054995986290181112 -0.10230049375577889 0.32486101101708492 0.41911792592846303 0.33805495524955492 -0.17020773503393979 0.37955539192001186 -0.44082708337413429 -0.56999370632260926 0.21645239117849782 -0.10211771084437075 0.028251554282836159 -0.59855353266793199 0.061293801358883952 0.58273170097080351 0.48622540721799518 0.50918249450662911 -0.27662899828878595 0.080002590001434906 0.5770182170926752 -0.62643324448574378 -0.21047860837944782 0.032756575576353697 0.12390732528560119 -0.22012171070759676;0.45310690808759779 -0.00087015180120547143 -0.081949440893203301 0.51795409675730775 0.084609872399781183 0.25617045698188462 -0.27217420973911211 0.31669069310832537 0.37506436415798061 -0.34932364317168324 -0.27174694168943009 0.44376056593936758 -0.51640157416890198 0.24214922787688339 0.51562548870129288 -0.27111484591441004 0.031183838301629078 0.44353535770737357 -0.021568408355146888 0.44566891007229581 -0.20302273505826218 0.3270640491094135 -0.30127787347117535 -0.84148807908731682 -0.61068122255386459;-0.34219634666044896 -0.022940083443027864 -0.27290418056368043 0.26198408861709493 -0.38647554772585024 0.2520967169006228 0.017081765050908523 0.64879747597625348 -0.54438741582682759 0.39819351681342519 0.11220822970803057 0.35273334906023474 -0.29061221906222978 0.46396320696062121 -0.027448582917880451 0.50306495321571143 0.53940330294853456 -0.28026467836965263 -0.3502921329058275 0.66948430388619595 0.04779360425063784 -0.44408529075283765 0.35707124953592195 0.26755035833033686 -0.29905495600988685;-0.60457428643807853 -0.3170306308710632 -0.26204992106309266 0.21580343663899335 -0.040590658363570266 0.17691630546586121 -0.28341937223070623 -0.049973779175023283 0.47525160599136901 0.11096593618617212 0.21890432091546277 0.45351009863355579 0.42951191788995874 -0.36137906364745631 -0.42790832633866055 0.33007619894445728 -0.24442334890607798 -0.65315699258710147 0.0037708365479593299 -0.52368332137365659 0.49352843782478029 -0.49815181089087346 0.38033710420255462 0.29529688872820797 -0.38956123175369473;-0.520371683383965 0.29744952654372769 0.27734863521201647 0.46050584244104958 -0.34706544576010789 -0.36989513637585042 0.13653235715253978 0.018910260664392563 -0.11631567238195109 0.38065059493876691 0.16392226215770553 -0.35844860654918309 -0.48493340472952712 0.2273653767408822 0.44357996458093352 0.47399672469764975 0.27383751788027433 0.25542704185856335 -0.60252808714189976 -0.49914625236284998 0.14280326545329416 -0.44274524560839473 0.39337001047205661 -0.27157572829292315 0.47252417828700749;-0.39594896419758902 -0.02866847838505009 -0.071510092708205492 -0.42340798083207182 0.29322991911489182 -0.57153003285935344 -0.04233661542115822 -0.58666592535473894 0.39132900759778771 0.171321201037202 0.47182529007673346 0.44012419925860158 -0.19463836751390781 -0.22511357691849065 0.52137365464726437 -0.56006850593790358 -0.0042912691128027518 -0.44251629960891614 0.28180955816041031 -0.086001365942927024 -0.48144701187271016 0.17968915105670505 0.44181867206613995 0.042380324764624604 0.59340001892052774;-0.50790672455009378 0.045787243120223531 0.36165748420404592 -0.26955172719025072 -0.59216486712820227 -0.49852316590430146 -0.5544331764820023 -0.26889468047085335 0.045400000247824118 0.44815692913612482 -0.26132199427170882 -0.35944382177461753 -0.11471925004726991 -0.075298133106873874 -0.37258735366070389 0.4014314524854557 0.15603215772860746 0.20975807100973873 0.41064768645593203 0.12846024096898842 -0.55745539578020653 0.48625365286221761 -0.067272787920752114 0.11993047048079911 -0.14721920162752569;-0.054040762070533203 -0.098187363221787588 -0.51874462160423906 0.53263099044811457 -0.35399120952669205 0.20348335789945876 -0.27452798045892735 -0.17742636533402384 -0.38752622476916032 0.28969605530049647 0.15935332633024735 -0.33088539009626239 0.40884579791293751 0.41552429917736278 0.1664151146591846 0.52253028449934047 0.25273491621074584 -0.39571965059062425 -0.54420845328968681 -0.36960550490590804 -0.4970930443207135 0.10622810668223251 0.052900108885443074 0.32615713392570084 0.59464690655046992;-0.15164367494664638 0.45816936489646332 0.54306326796934912 0.29398400661097579 0.38389706336578661 -0.067172616955257336 -0.29387034913610843 0.20722191227696066 0.28490594277241243 -0.75431965406025092 -0.11005488631241327 -0.0029322096734431388 -0.40311962708420757 -0.21987719666024974 -0.039201187223807929 0.1304261465954179 0.44786277940119801 0.73966435882412929 -0.22473673349804812 -0.72603670797971376 -0.2871897046384887 -0.30974736343372278 0.31358975441700571 -0.25489200107625487 -0.21973162833905779;0.22299294319443544 -0.40242820882765218 0.057989714212923274 -0.31896120112852056 -0.030448368324235288 0.29659279626471602 0.015606629487221486 -0.24029204551850697 -0.40786805530728831 0.68754040377020742 0.36661865413809436 0.4704147747062421 -0.072712893868170522 0.39589562779647874 -0.25266273688834523 0.12699745506154891 -0.0220323242360487 0.027301248538618574 -0.020329038429463025 0.26763651288615675 -0.56510601850907971 -0.48201205792587887 0.051011942487643229 0.7850105466390529 0.49029680697068356;-0.55269266953260598 0.43585889645573855 -0.59697609038354038 0.31421023412351679 -0.71268483805896565 -0.65183089283174545 0.11138426270861999 0.25319428378397191 0.4122963699334623 -0.39807872429384233 -0.14151444938231381 -0.22939034078950904 0.045213667413404587 -0.0098016085289695902 0.13222955022744326 0.072601744840758278 -0.038038280004865366 0.29490732957830396 0.067931106329116378 0.3604339358389308 0.53855502034425506 0.18054406431190687 0.24572502162120979 -0.56395312296664057 -0.85444912259533234;-0.10738670357307362 0.0014570651564527761 -0.27428251469524489 0.52417997654988824 0.23676442380016632 -0.26201162153237795 0.54972256040292944 0.78264891737091025 -0.5717326610359591 0.12620928723030017 -0.32223782982179083 -0.065225780633956967 0.32134666121165539 -0.15991877685169645 0.11776552845591426 0.33845078711073362 0.60689623780296464 -0.69615342343414122 -0.15505316862531324 -0.1940763023329905 0.14887316187631167 -0.23969201567566145 0.38695967830524824 -0.36261098519607327 0.045732098591716112;-0.43954587259191574 0.31808079403514916 -0.090143506527801648 0.034915390396262846 -0.37662177263144281 -0.41359887555581848 0.53494528818978049 -0.49105139955258625 -0.077893345422589813 -0.22214539842691444 -0.24558748496661864 -0.58752771492480971 -0.040985382320779813 -0.4977855891282425 0.38697087784974854 0.44789182408422229 -0.23961042056437168 -0.54134054544328125 -0.49125044686110808 -0.38025057248086891 0.40006104677214355 0.43297645404204593 -0.23908863428368837 0.48782774091036113 0.52727493876344611;-0.29204934837378899 0.019812026361275083 -0.12956544531900074 0.49103747466212089 -0.44959447389920587 0.35506838341353564 -0.03652231679729024 -0.15182693047299328 0.13645054669864773 0.73572793554508975 -0.38877915352087022 0.32338528967299934 -0.0062633501439908054 -0.42956862782384414 -0.22463464102652905 -0.43424132382604602 -0.35872087256421964 -0.16547769290224351 -0.25647900828949421 -0.12193166191134409 0.44531681375054222 0.79679653539149697 0.38945887970226528 -0.56484670082121258 -0.19072907124748101;-0.60766347866886716 0.39503111688357934 -0.0039077037738550428 -0.37951217146289346 0.61320786549882744 0.47264964074169757 -0.61133475835674556 -0.015779287149741063 0.073928481980987754 -0.10660426397513792 -0.07841652661986491 -0.54305892569643477 -0.10212948316693517 0.49573333336385594 -0.34545446744541508 0.44856993427013325 0.53300196071771011 -0.15077216451741637 -0.51455370219626051 -0.020973463116675903 -0.013285570466923059 0.13247723036347828 -0.16341369746661175 -0.50539493529343049 -0.39725738606637823;-0.54261874683842559 -0.30001808743101155 0.34396436499928895 -0.15478931095338819 0.32920274010942102 0.48091572804867228 -0.39679227908042314 -0.14760798277875212 0.0071550724735473577 -0.028955285284441225 -0.58835694319350773 -0.022054984814533978 -0.15045563259814135 -0.55802081120236491 -0.52219340013090709 0.52676715619789827 0.40555662604865378 -0.50869663432519585 0.15511931768606288 0.12565290483397842 -0.21949306728857776 0.25562187305222889 0.02611767578649932 -0.54991405002910632 0.33394060741422588;0.19505478696749953 0.029472360519745111 -0.007317917720671069 -0.44702564052109078 0.068927801626397653 0.29773619205052931 0.47353736733433144 0.5758123986297855 -0.39947929565794577 0.52426250252172679 0.28236227736661657 -0.50675420685014405 -0.16040415091182847 0.23766114205708885 0.40089789725189229 -0.43926236308940536 0.54535928752064722 0.5227369722304962 -0.52311674012313525 0.048384681598034482 -0.18730581505476743 0.099964450218552992 0.04792335072198764 0.52548608773323036 0.21883784039127283;-0.60418504244356841 -0.18023595757785496 -0.27626002114865461 0.1872471705313058 0.254919936774963 0.22760212224381951 -0.56908933202532186 0.24892691686811799 -0.16306493295620186 -0.0809124473993693 0.05570910377549701 -0.44611803776909559 -0.10572039319669284 -0.11738745766570541 -0.1180156717347836 0.57089988098695044 0.47391500349162075 0.46084624596700247 -0.071730330857791277 0.75330652094269768 0.49413878686139351 -0.3384891894274431 -0.40361655585348866 0.59665844986670069 0.22314423784957418;0.016811074170637715 0.075647304638357254 0.25642246145809144 -0.37133026436719724 -0.55592536645025348 0.4056960925789263 -0.45161724272653009 0.51336753074314112 -0.22375351060561594 -0.064947923197750321 0.54186437953598821 -0.29445299771426903 0.13568224613441013 0.5641561472335731 0.44886210048126823 0.5947549850522067 0.52983619871911802 -0.33907989897176799 -0.40015013509518088 -0.26647588707675202 0.067139463819132175 -0.096913614949552501 -0.17612202188166595 -0.39877319527532845 0.17549237625835673;-0.30082575464962413 0.177253029720434 -0.34724004997947566 0.061304914799182104 -0.27699447132042593 0.32163391703372352 0.2094911323264495 0.085626848558341864 0.12889885542040502 -0.40255344758177586 -0.40783358709153089 0.21692971167710173 -0.68410985327298623 -0.44441669912185883 -0.52142009692046642 -0.31748090687626424 0.020240512221027754 0.18904932531430194 0.03851412624880457 -0.20434532218783752 0.57475720890508819 -0.17338393026191229 0.016397433071884352 0.65788609537498677 -0.67170868662653349;-0.18361228229226462 -0.28631670502611856 0.50242847495432708 0.43763303884090998 -0.30259375166554736 -0.55710044969051797 -0.37689252691112618 0.63711514039499595 0.022938906863015866 0.20427537931335918 0.54296108960451861 -0.29269382431225743 0.15671281593263009 0.42142045870903483 0.079928966526777764 0.23829982833662536 -0.61342701812264178 0.0399501835111691 -0.33788156626529381 0.22519601144504264 0.22571899970321543 -0.25204051620484286 -0.55861846744512289 -0.37687109274768033 -0.22832802590296827;0.3986939854999012 -0.46758583664900538 0.51511059273841875 -0.24781596985272081 -0.50057970553111975 -0.017673057551841415 0.51140979419766286 -0.6750740399662587 0.15980311297192917 -0.32460179218146862 -0.40333826206298989 -0.064511018543761636 -0.16226619830168579 -0.31475319322899964 0.61745580757159657 0.075803057076046648 0.15366097119738348 -0.23777259912683152 -0.4847334965062281 0.18930794116184052 0.31124245154384611 0.4507489022860377 -0.59789925477459049 0.095639850452315628 -0.23104432076320525;0.41184191906121087 -0.42569845415130941 0.4165694467512937 -0.10208161356196208 -0.35216025295098657 -0.29771917760019312 0.52739766612957129 -0.49787406120297911 0.063834074756308451 0.19698488894150498 0.26537552134480719 -0.18056566817497749 0.15064302186253245 -0.59595173288534786 0.46618148895965494 0.025790310300128187 -0.58398958710642368 -0.14463347174646343 0.29520546650013613 -0.24036066743142548 -0.53795156033866942 -0.29725261188449015 0.26529793013521114 0.36639414506387646 -0.33540491905486958;0.085388209800386958 0.13682310040019127 0.49836636881965984 -0.64289907189813023 -0.4217265510007171 0.081695044860825836 -0.4488036982595105 0.2783337840859183 -0.36731261718897118 -0.0303752804930724 -0.39614929999158555 -0.081176058875305865 -0.15713781304364563 0.12060558281325992 0.23773668501032022 0.48077831690797873 -0.45080531642601845 0.35098579076957992 -0.0123243383135628 0.31188114837815101 0.22859463336889249 -0.5752397297923213 -0.012023837232221566 -0.52556538117874096 -0.71406276517627154;-0.53658945231972421 0.31436752199957918 -0.17421177947367816 0.34322225651298788 0.46882450524254454 0.26600138878289786 0.33261716632357952 0.14033594431223981 0.57447903867946215 0.51593174398934771 -0.13257647776359149 0.49099769437910573 0.45394571463601174 0.20327588057753865 -0.26821240602691315 0.2847265032084379 -0.56349807241471084 -0.42290245541374916 -0.030127693229587273 -0.28519798999735602 0.28562425349237119 -0.14679435450644193 -0.16369737628220496 0.18312150739294605 0.21865296091432329;-0.20739330578155318 -0.24172256902418604 -0.52106847729279637 -0.3335633619507764 -0.59841850914103578 0.11044535116711016 -0.071685668710796457 0.57050951374944181 -0.2086151002881981 0.24010230977132876 0.51247555734886496 0.35573664187774801 -0.59078079990974863 0.53493508884795837 -0.37773978763619953 -0.1219328232407325 0.23464461653799332 -0.11328977534872667 -0.59420606053594294 0.17140174121626256 -0.66118753428430777 -0.18352014691066784 0.032126701437761349 0.21441322296850365 -0.27698500554917999;-0.45946320103021704 0.14270932253975835 -0.31704643760737383 0.59532553259494581 0.54034801498612273 0.55625107958782027 -0.064569674234004601 -0.2025460327353247 -0.39162901284616142 -0.26807409870116783 0.29259438165740009 0.075450088966333373 0.54865881892215573 0.039861007546072295 -0.50535212653511019 0.56047003323281364 0.49853804933052498 0.17699513329482441 0.056546875876949239 -0.29071793137156282 -0.30251559129608013 0.65571553812039107 0.25134651784889384 -0.047132336633507042 -0.27025640196155504;-0.050385105656807823 0.71196711559908998 -0.47856314665727151 -0.25843571836760587 0.34769392585002706 0.25670576500501457 -0.37927205208511067 0.049913760750404941 -0.045361395501810911 0.1249777754522427 -0.30008276961587022 -0.21471702771355589 0.15849319452394675 0.33760145639546701 0.51284062138151176 0.39387219460106498 0.60539553740413998 0.014346758003358478 -0.065231973642764507 -0.26027877132939281 0.47000014125571149 -0.22630480381676388 -0.13600078071503122 0.58694940790414163 0.60717868250234908;0.48080384408372862 -0.330190129856341 -0.06965405708356591 0.52918555471164586 -0.16456607307159205 -0.43455569995470278 -0.037613245626630834 0.20870913288570858 0.52925346481206481 -0.45318345358404694 -0.46122467999554051 0.29153656103329245 0.23965721581301119 -0.2840769974502661 -0.71909224357961721 -0.10304434356312303 -0.14056106353980885 -0.19522562266075347 0.14486699416558271 -0.16763524112566536 -0.24062274780540663 -0.18552415278500664 -0.38231636196218149 0.78370500625595974 0.25027329763261341;0.027408324403819496 0.51610152948720556 -0.34187360247131227 -0.31446560549428137 -0.51130196821506912 -0.17687086953562689 0.047625758183077571 -0.33380466060824976 -0.28652821074793061 -0.24915259557147851 0.11027232724886579 -0.51996758797275389 0.32182890675080811 0.29427054860412538 0.58814756135538138 -0.27735826627476701 0.07039461319561352 -0.34321991575246602 -0.56191795274997269 0.39626495970419751 0.57729490264445094 0.54651142842391676 0.43566845611066746 -0.25103412982965068 -0.39046914811802191;0.3978362680220085 -0.2002755765839834 0.017004610161964799 -0.11528185232657112 0.029554719098925764 -0.37955630653545575 0.31882706052536541 -0.46082896290284164 0.50727843582252818 -0.15389983127161438 -0.15189414875248033 -0.039731670265359578 -0.54231164812065413 -0.2028921461059722 -0.22947525924697729 0.56900479164025586 -0.46144917434470811 -0.45205749325333272 -0.09440649307126027 0.50299981420477213 -0.40125287452756636 0.60802674895167563 -0.33290082353713701 0.17838042659713241 0.65910878621804303;0.43428565208985953 -0.21269290341358149 0.55714449815456313 -0.29329131000753328 -0.0064145879771703744 -0.38509906850128867 0.30118597809692293 0.5233124496880236 -0.1207544022109326 0.21279503257736554 -0.32909554762627974 -0.60724710064490206 -0.62018104063781432 0.49319692991961833 -0.2202196682709362 -0.24150040582931981 0.31447946353852496 0.12837208985557322 -0.55548905366048984 0.0024304368158629846 -0.25163099472673173 -0.40280253389543785 -0.31852332642959369 0.10729543089375206 -0.50247621824565147;-0.47629779142639339 -0.32911609079774284 0.018927727290561008 -0.5606023914070708 -0.12781983053337437 -0.46861021595612157 0.13245911284876147 -0.34445867573910199 0.41712252315127502 -0.057497060772290554 0.45645402593927487 -0.39516501156730727 -0.6038767311629335 0.056805962178786709 0.47695929742882159 -0.008717001987820187 -0.33413879299435684 -0.29491515261673046 0.18339688428476064 0.53696140374050061 0.1960483789284497 0.3590632793213141 -0.051539195910223476 -0.65652860636271948 -0.28572766761705098;0.58986845972031998 -0.070803418779906591 0.0060525476893377251 -0.29814251838989198 0.43793393434042088 0.3224037756090713 0.14544476355326413 0.28235643667087224 0.59331387129630631 -0.45655852069092506 -0.021724239463590013 -0.035874455249850341 0.0081537631492538485 0.44446570772469945 -0.60368893029342618 0.33130078661173495 0.32731355584637012 0.58540192894338117 -0.52104610330879808 0.60569386502437905 -0.082991353863034356 -0.25598208774822451 -0.39887906446386412 -0.27457481990132881 0.20700318131898171;0.34886636333764126 0.33756643875652609 0.59534199306233104 -0.18866295459603752 -0.22959138655567141 0.062144549581243484 -0.3084923123457568 -0.36804626047686156 0.4063112079770132 0.13563304777547716 0.097733614064691707 0.38724279964773978 -0.13601445603609533 0.32462919022382208 0.31413203061903811 -0.68939254699879371 -0.47195270892676633 -0.12053053994158676 -0.31839321588564878 0.50424102400936244 -0.58786149602375881 -0.0041027727238977484 0.6355158134172868 -0.99462145675951041 -0.60320661678609744;-0.12853681279447518 0.31856005908649443 -0.46807690107375244 0.32592768055226545 -0.64367226657451837 0.078405041450536991 0.11837402626182879 0.30954178869998678 0.25221066998777575 -0.1179931481738357 0.43057622629380105 -0.34367718464942421 0.54047308258976035 0.54952767476166942 -0.2685730048847445 -0.22771874946752782 -0.0081618896138236953 0.29068212404640709 -0.48463309064712312 0.25111226802155096 0.46949153029308688 -0.55884480641977941 0.16038856338720575 -0.56269617424460372 -0.29577723622977381;-0.23313862344330605 0.21303690288660887 -0.18968406871088561 -0.13518857306696633 -0.40341263856798254 0.28004248085791961 -0.23741186780076998 -0.5861588444928123 0.11782078939650105 0.05253383463290965 0.35802383961789352 0.13259155767701922 0.24800005288826246 -0.32609309063167374 -0.0034129850538700294 0.46849939108595101 0.5162527069221049 0.4965992759882113 0.48130005965532963 -0.51396268021514457 0.095322948987260445 0.20128351087541987 0.5856506385148551 -0.63928960907611765 0.32845451303062961;0.2409716076070951 0.3055902057651223 -0.20342714062265846 0.49855162517412333 -0.23596522496228073 0.27183896667746665 -0.28674474281853557 -0.40441025248250051 0.24690047746727231 0.54182665936411611 0.23748401918225193 -0.62067762614543343 -0.42559050942006993 0.11953074808860412 0.10316147578822203 -0.60661758373562069 0.5575776161055509 -0.54740207135509955 -0.063347083826326894 -0.008932289978312585 0.21005356961801858 -0.07797427598715985 0.60727142709973303 -0.01150215443151009 0.09140288951174752;0.35177040582728208 0.013023156438877869 -0.26311345187071361 0.46928706392210662 0.076765117783232542 -0.3853123157551489 -0.49505357803304623 0.23937733800647268 -0.096269463167937067 0.18083046994832858 -0.45710248752050908 -0.22983593528934387 0.16146944121545584 0.22841913254374543 -0.099360915056974364 -0.50971783855079678 -0.41569936913002808 0.26766072377883471 0.4842167915762336 -0.61411115827425 0.32548317779061919 0.49500467382441021 0.41318741273593895 0.2922372754553616 -0.16332247291664823;-0.27700938627577204 -0.33211204665142646 0.11822032405171509 -0.61587662985757219 -0.59541943988540713 -0.44745793801116895 0.029843564704912895 0.30564842466921177 -0.1172111582677547 -0.23346380721047494 0.61968057870144144 0.32932716940855555 0.087994628958208407 -0.31125977450183068 -0.45865156125920575 -0.52287004846345408 0.34557661750056229 -0.45282954224537803 0.11451231149850591 0.29197985667979764 -0.19258046460302616 0.60668880716768436 -0.34147692512654387 0.41470088367052216 0.063543404775540768;0.47342889586125014 -0.13477636988361139 0.28684957456499333 -0.4582496858611671 0.50237972528302388 0.026975884535942064 -0.3721804258470246 -0.42857218146965403 0.53045462645221031 0.17883589776959846 0.11475674644680277 -0.45334407215361239 0.1565864182489366 0.020523937628387234 -0.54703775986114611 -0.33805207703814188 -0.39130320418764503 -0.47863375358072152 -0.43087843734158504 -0.46790282802753153 -0.16950054215437041 0.15045094829831807 -0.49339588226063735 0.17953201196344573 0.32651151392336997;0.48967536608092976 0.28172000376652306 -0.50219095533672176 0.36523755079308634 0.18614157987215252 0.48215689884001778 0.57917902173105451 0.054642814163987134 -0.0031650306007826546 -0.16172291265645899 0.018924215589108465 -0.077046589828990875 0.51972186464426295 -0.39653271646960647 0.21727308011378693 -0.2012512132660573 0.46261313574164092 0.48840555505386818 0.29996790698978631 -0.34225536607982754 0.5906935548034995 -0.22065282056588764 -0.30574456072657358 -0.64055322740243537 0.45769848215025072;-0.47028490212262164 0.14826597074389605 -0.12348683618337809 -0.50781530548806864 -0.40458605991053931 0.2198192808164233 -0.049622922450820443 0.14202534095968342 -0.50976776246493272 0.026668919526304749 -0.068141678799171934 -0.3359716678122916 -0.70166700726342401 -0.31128871662120794 0.079448482795602432 -0.25983779143123459 -0.59683280642344438 -0.015032933543175734 0.38722266400308997 -0.45693578427289155 0.044862799638890075 -0.61483697168957663 0.45572692080300414 0.053768885589772449 -0.38359690104671529;-0.40400582185859818 0.39265035160315942 0.62821419220349517 0.077108308322191912 0.1432002392445256 -0.070696031933677933 -0.26380007426492635 0.46405055367802117 0.080602146312429485 -0.58606100142898454 -0.29607950166337821 0.53513935325347495 -0.56441163478085654 -0.2763563109773402 0.18705376889816422 -0.22054784461213997 -0.32199296980262293 -0.23985680322004749 -0.025448647109623367 -0.26287172958672284 0.4854225986586283 0.47922815954918818 -0.15609015464038256 0.52308067123249269 -0.34546857322174102;-0.33534142733078476 -0.48141593770732094 0.25553242808617327 0.093213227521909012 -0.18451218529803495 0.69003626910136329 0.11680321190740597 0.37708728159189037 0.42739852794441713 -0.028546522302838349 -0.017922521568625623 -0.5374233728461919 -0.18351667578351602 0.4670073495348192 -0.17727749055642661 -0.32417696164443932 0.3855979810130315 -0.11373313600424939 -0.57418115950668902 -0.39295685208179781 -0.24046499973290028 -0.69109372485462861 0.54169768604642443 -0.32709371913472929 -0.37652189856231838;-0.31407320864950744 -0.5548030107961367 0.049985786679910986 -0.11761839332453232 -0.5132504188879613 0.13176484283310361 -0.17979068558875755 -0.56250770704010034 -0.012695882722071302 0.51692526165219277 -0.24521156630283883 0.099551713606370232 0.56674285492583365 -0.22637876747745195 -0.084063596069537616 -0.22762378443505141 0.34157417217970476 -0.32049584825718047 -0.41566387023281115 0.45096701446729892 -0.70958343899082554 0.26729682820560746 -0.36544006501273846 -0.38001364006302679 -0.57747379357053308;0.27276575673162456 -0.50296382000342132 0.50012751192682869 0.34496070715929622 -0.51001195267099886 0.029105957397469174 0.12886570024159974 -0.55492244517274425 0.28716605190018957 -0.14078155605002457 0.59792541492246465 0.27001991910196077 0.10332513773318462 -0.019455574040831959 0.46761103130795345 -0.25563293926707797 0.45060749299762992 -0.17075112836107126 0.37854975972393795 0.35307060641408944 0.41044972415440939 -0.47183014330908363 0.1087001088069902 0.31459595953862879 0.24529505467446278;-0.40759225214695721 0.52310758001487034 -0.065892599992041639 -0.18780036653743681 0.42540127317483417 0.26494741428376911 0.25896556648022429 0.35619544713176921 0.18259018145986006 0.47923239288860098 0.49524621007829517 0.085783266406337183 0.27537208662318052 0.44501921568601255 -0.17960454966904002 -0.26578704595094088 -0.21648732423848366 -0.57756953008753631 0.013511821377215322 0.4222934813605303 -0.42149859095564118 0.38233597445255318 -0.2205575529032491 -0.67447680972612944 0.069793294689100852;0.54317087171718137 -0.081657224267782477 -0.048142388657190727 0.51699212268948691 -0.11350998908563882 -0.235638421492844 -0.42859447193421307 0.30781032716135664 0.43779373817981027 0.3448159497235414 0.11540670854061016 -0.43388930092426903 -0.028795333820929952 -0.77896964748534581 0.27331921736998277 0.52813093552698942 0.13618221803206884 0.31463083323390723 -0.037214206048716746 -0.65065519155245322 -0.16170354677576868 -0.29271903071033112 -0.086025928517107386 0.51491288546975844 0.11989680590559061;-0.43441197997570163 0.20031297173697396 0.27009949276159961 0.40978778184062425 0.55955463575913467 -0.23475916664032398 -0.4285523208045498 -0.56285412534748824 -0.38884066200135231 0.10741975170563896 -0.1916110147141436 0.32461039421070026 0.51456223203192197 -0.026129652893066416 -0.031776335836866329 0.21682897811384316 -0.31678917988014177 0.56157696789485512 0.42919901514935965 -0.023054140630375669 -0.40575430004436691 0.024686047417264073 -0.35544027326177885 0.50742577934323374 0.27117683511858964;-0.5695024819775707 0.2121519313097403 -0.017599558846199979 0.42254134110596325 0.67842915598110431 0.47912328152616906 0.52938027276872457 -0.26674007535310285 0.11024967625491526 0.092270989474221632 0.38858724182207321 -0.30184138603971872 0.41060581537144353 -0.2904682423453675 -0.056153004713402496 0.13052716241844678 -0.080524318918351989 -0.21072216025125473 0.29821932834529019 -0.14382501443365453 0.70738493675592296 -0.24886213371884769 -0.50132403506461087 0.47963583935198933 -0.45774653369009682;-0.23451605010053306 -0.5342687631894808 -0.41256800314525394 0.60730763533947574 0.17904874812226326 -0.24873760049582991 0.36441151105223907 0.3013859204134644 0.53141078218080051 -0.34843073563036742 0.52139724365652873 0.33143712286193344 -0.091955530849934339 -0.15787605891400483 -0.045454495474674991 0.57605554940323955 0.45695881215180606 -0.25479242955778525 -0.27676942690350997 0.029162762976785009 -0.059428383667145021 0.092214541889348037 0.44226824535133386 0.50970361267011954 -0.46215478627019008;0.44415347674015543 0.29749900570108362 0.31378618494658861 0.23998620817868047 -0.0021007500385344735 0.24101085946218578 0.48470127246911887 -0.32301315276678683 0.55626963985200317 0.45068001395631091 -0.025017026657425414 -0.34584284943387361 0.096074568850091149 0.44867985980832387 0.62787997520830496 0.36986071139597793 0.12542699446654806 0.38631823032007734 -0.19249943109051265 0.47185202828865952 0.13839345409170026 -0.50526004567432692 0.393930007989019 0.31395549761587654 -0.080407929655021831;-0.41776661303476154 0.58533787243845026 0.48673987747261521 0.093627956621550559 0.40880544410954461 -0.33328253072430808 0.64043427828486665 -0.4485233874617886 0.26776912803870956 0.36996636786975018 0.19520218426539621 0.32950909931475686 -0.32539251186732215 -0.06149494980563059 0.50546061571160372 0.6106494972321862 -0.048688078446967251 0.17292966192862633 0.15383613007778416 -0.36145055154800387 0.068198504524513162 0.65446392031028644 0.45084376534635973 -0.0051141632676177887 0.35994432510503765;-0.51584416519224363 -0.18724075881237537 -0.086463017785396071 -0.13461023777815206 0.18334857014581046 -0.26941494974567026 0.20116300026074874 -0.39883057796866433 -0.058440838159282638 0.16479894719442226 0.069258819303550684 -0.35823718115601744 -0.34226164843156837 -0.1493669111072492 -0.17615108252045286 -0.46796047270135238 -0.68969189277555887 -0.23625799829995564 -0.1480665411053135 0.050606194922420453 -0.54685824182827214 -0.54536596767250367 -0.55932037914931998 -0.36505040139503647 -0.39848462021256115;0.29205447253259542 -0.49464652965171463 0.440084674070368 0.29555299031775145 0.11934289106758131 -0.29220755784951197 0.037012552671757702 -0.3104954631871501 -0.47552903173769623 -0.18469762978009055 0.4161836171471277 -0.3450137703206585 0.10975602516721834 -0.069382774901218747 0.22653050867030225 -0.67485314481646674 -0.43323708847871728 0.38700420817543707 0.42781442324968311 0.41435156768497261 -0.4219874341944404 0.4349612940185475 0.26985608500329866 0.41637132604317051 0.67734758263235917;0.41465852002173376 0.3425763230689996 0.25702704112255287 0.14076634723648898 -0.051387673961341244 0.40975558753019964 -0.014875266136710455 0.27891178463611627 0.37301546662559842 -0.75867186333250081 0.40658814101981133 0.072519660967092101 -0.071701208101852626 -0.080005840099592149 0.11885402386998789 -0.67233555984336024 0.55852566852213237 -0.14292419422851688 0.23245572402966749 -0.52759966805731562 0.085552289872028023 0.2779315296550115 -0.47537160876220014 0.2912276235051825 -0.41935864431367703;-0.065157523255026537 0.095299546230231638 0.41414109861617626 -0.37011134620355723 -0.18676193142874531 0.75956462249068923 0.4217336990199696 0.59966481013556949 0.094597109980190053 -0.098036922719138275 -0.5684353711879383 0.15339073595550637 -0.18982997007351532 -0.085275654314058147 0.071799973678042819 0.12735915814785886 0.6137739494082084 0.33971695678350161 -0.37359917071700949 0.14211065308298737 0.47700498434475486 -0.41617448165870974 0.4494470078294952 -0.2299148007159024 0.66394877143616793;0.48568073579539145 0.42863756769992384 -0.31829913025869011 -0.33347653405151945 -0.38513717643615913 0.43965829218834435 0.42349851288099172 -0.3233943330205441 0.56532354197753976 0.53949614096281673 -0.021534070080007149 -0.16767909851774096 -0.31969197100720026 0.25565328188036551 -0.032801149883155759 -0.36504471346353606 0.056182970381437811 -0.30805173480313874 0.20684774938216272 -0.33632028389070801 0.61342319404744527 0.55511237393816915 -0.25654569773689623 0.36505098885764092 0.089606369240024214;0.30385698011857581 0.49615459472715401 -0.44347215856420308 0.19277886910763836 0.51181236037854849 -0.33135993618177223 -0.026204745598463319 0.14869613260603753 0.22081176905602468 0.47302910487903965 -0.095903685566935404 -0.3599008112689901 0.057473752825943726 0.56024062558591448 0.47405041300350359 -0.45745014162736802 0.48896612390765026 0.55934719022029145 0.029346590214883492 -0.53487949191234641 0.55633853000614253 -0.31250042824988061 0.12008340710029376 -0.17617010044575349 -0.15467095008714574;0.47197024043259667 -0.4444801869712664 0.57970697639876667 -0.42618072459637379 -0.43981465157244171 0.18535341857348092 -0.61722285460830428 0.60354311511113479 0.54609242142183156 -0.13914046911005171 0.27389527113928924 0.18659955806726561 0.21738109748354384 0.044670691232472477 0.14238530696487514 0.037259099585551889 0.10567195587371007 0.23470755643264557 0.44185965832069174 -0.27907083109657038 0.57743168427082026 -0.4219555506977124 -0.036656033635772203 0.11190407804586577 -0.10710559852479289;-0.32452160456632967 0.53951062739987721 0.020420272156064508 -0.58391581428680017 -0.34022108802871415 0.60738439016923251 0.71646081808687978 -0.19458624600441038 -0.50365047537766394 0.14114915669998326 0.53428870105992432 0.27270118118287923 0.12774902648900668 0.3741992376866749 0.50800939862100991 0.42823492247777417 0.34510385029641233 -0.44401890810963546 -0.24866379171369177 -0.26574717088760896 0.085243268023422247 0.075253576532867517 0.15042962789729381 0.46916261148064026 -0.39164745159809322;-0.13466091204501804 0.38061333277044168 0.59051654034681966 0.21962612544266172 0.31361051735335899 -0.5053536009122237 -0.11178312244641747 0.37639050632921628 0.10061084544594197 0.4334720560995175 0.54297935252299179 0.37597390128714098 -0.18710428965910164 0.51395340065846673 -0.51893666461707444 -0.23750165100869519 0.052344466410812258 -0.56118470527575404 -0.28026492201522718 0.26376494388109545 -0.10680562823235983 -0.38933570359660813 -0.26301774136748474 0.14907804489873591 -0.44657075646105004;-0.22621328697781617 0.036057052897088528 -0.15420668809636054 0.11386714305486241 -0.26444125029380794 0.2919414126761033 0.5409243742958979 -0.1389265461000328 -0.26915143722896662 0.67912318651467241 -0.68389511985888074 0.3157856030093712 0.31058121157116919 0.39753806114272228 -0.19621011576337055 0.68776655802199682 -0.15510204760570198 -0.21568643702516649 0.51111701655545494 0.31209637207075308 0.44744382596515359 0.38580333752398183 0.43984426520060921 0.40781667432781887 -0.36334455931062504;0.075653677041144243 -0.35736884937466568 -0.21289166684180477 -0.072627442782908766 -0.56915974129010727 -0.053371132743598677 -0.37155785346116327 -0.38390777886906624 -0.12106893542487034 -0.30549418994260363 -0.25345001055985333 0.037205996463038044 0.17520534901447563 0.56185642141934744 0.36051409054272199 0.35989904413082341 -0.23694418402399486 0.010673400364875988 -0.36722049127632056 0.019840295683919568 -0.56267729015934809 0.55458063712587236 -0.61660647694647863 0.54115009506126388 0.51563336349123623;0.56752144439613816 -0.17415458923790622 0.37994907636792152 -0.079067914551210136 0.027966035546904841 -0.0093943003423357391 -0.063303482435041691 0.33222952558720009 -0.49033919164031492 0.6044506424083903 -0.052723398454906006 0.44254518475275334 -0.5447372142075273 0.14248608950459651 -0.59466852415155991 0.11256928671803688 -0.18773985407936114 0.55201020681206825 0.40360629897596934 0.4075913648923658 0.24150366909288448 -0.044615611619303726 -0.35443805624346314 -0.41047282203271257 0.14620659702487479;-0.10048789757671005 0.38838115814694424 -0.48361322597082257 0.44147668029487325 -0.12939518790085958 -0.26351410185912771 0.26836633869833176 0.41051897806210297 -0.16146417554819092 -0.55363366313270568 0.056200713930681857 -0.56840694639463218 -0.15224320776863079 0.3335930238357489 0.36439269459152551 -0.18220023330593543 -0.15513958874869685 -0.16864777222176677 -0.35277990968027984 0.53816798703942759 0.58583401653329148 -0.50160901766160382 -0.018460573119826507 -0.49010690772155974 0.20055235834326396;0.004721662449735208 0.62162325975272825 -0.02519372532745498 0.09518285122103444 -0.077213269773591039 0.16405061537435905 -0.35317834354108896 -0.46130256882518461 0.1978731195190804 -0.3860701250014128 0.42069651538116204 0.48111379398656806 -0.32329170898802839 -0.027138232095398899 0.33530349671621085 -0.62507222500451121 -0.36048534685073003 -0.58435227238999632 -0.52997409568252041 0.36103558336900043 -0.0042322128362093205 0.25412730456704663 0.041647367246755627 0.16133164478793197 0.4487492153307337;0.075382543209781966 0.32776777367418991 0.2929455471742925 -0.51283406250466712 0.55127940431309608 0.32548719080326133 0.47997608206147835 -0.5783743829388055 -0.56503771784335177 -0.61215617741859563 -0.55807637855728143 0.32430753220671821 -0.18860429715488897 -0.41057852550518176 -0.17226421660154539 0.2671711014208904 0.1337651435931608 -0.244582467138686 -0.1808052585910401 0.06878891825579346 0.34385266649632373 -0.03348524424901661 -0.063884884870099745 0.35329366862948541 -0.076428505737401897;-0.26602892596044253 0.19431664275965901 0.31145614958173434 -0.33503410115650245 0.58952062139678929 0.19171740230005618 -0.20058322882470284 -0.13025321461386105 0.34752450399281276 0.32664876572950519 0.043962423113358969 0.061849362687744762 0.5233856903115407 -0.39629848436224774 -0.27476010251495414 0.40102366083160584 -0.50330044098034532 -0.38283043265059707 -0.59328482353485967 -0.11414673368145792 0.72423842900645563 -0.1561068573558482 -0.39971345121499136 0.10968421340789856 0.26236843271671928;0.25531736315193299 -0.094301178659184068 0.50520578068301436 -0.29305498683935921 -0.21714696137605613 0.079149189739453271 -0.21421133030351719 0.31388385715077805 -0.41316567045392621 0.34355666398173423 0.66072755916260606 -0.52189528297288001 -0.34368561982906431 -0.50229626939578575 -0.30693802372577056 -0.079999605317014291 0.3273445666587948 -0.38989678914655407 0.30063902169993761 -0.4858955708259462 -0.42510406735946316 0.40152539877719418 0.34241160057402203 -0.35337117777112792 0.17791581373198068;-0.19864884265533425 0.32849582297632307 0.0089080117204389658 0.55289756591251649 -0.37097159160106902 -0.3249916732605943 -0.13163750328706886 -0.60931244436998377 -0.26394536973296573 0.30485326848716504 0.52684532030794506 -0.12025121654207928 -0.28943874894555727 0.50771443883152123 -0.19813860145275808 0.34565003645598008 -0.17205799375992006 -0.5991165800181103 0.2799205421301949 -0.016322231244052542 0.030395226535571623 0.38844675813511642 0.65521823125843137 -0.044651061690722436 -0.53053995704052948;0.15670143153233487 0.30987139061521107 -0.60743233026039456 -0.18709579039730592 0.36166936693196716 -0.50146852930242469 0.28398456255152671 -0.47410221011789516 0.00051126311571761287 -0.49922414894529593 0.29397797827363514 0.052707557133689055 0.12379028815717485 0.40524191957330574 0.32190631332596259 -0.35965758247030116 -0.19956456427136562 0.49660458772348187 -0.51980324475510131 -0.069787277391927693 0.20278343389821404 -0.52572749835675114 -0.60675060798823266 -0.052302456648768959 0.21424158721327763;0.2058886908216242 -0.4417688585293188 0.56844884758584202 -0.26942129427754863 -0.56912780429314302 -0.257019960441422 -0.05470755788444389 -0.075560252387096322 -0.10865610797430252 -0.59403621147732888 -0.32254973463043457 0.16024288744334425 -0.42725351093346575 -0.48446842392697848 -0.43016781941551518 -0.12117412491463382 -0.47002759698731339 -0.32623571732074774 -0.21474911224463394 0.41247987120904461 -0.066556285406514912 0.55565690353687702 0.20419355619603716 0.57899640913885975 -0.48465839271174277;-0.51702763301100241 0.21004419311916361 -0.20119413521479801 0.12580230675923368 -0.44756456351990626 -0.22535588651464813 -0.57401090558318713 -0.31389505623015446 0.43741744021055495 -0.63073354704406182 -0.20609443970011607 0.24261405623772514 -0.47982324687160122 -0.26585600519065017 -0.418041030189572 0.58321553967852957 0.081340398668274042 -0.088033579893225508 -0.48273983449034913 -0.032811865244596818 -0.42731323254916054 -0.47687389397217606 -0.20265156906012396 -0.22516721770381493 -0.41003684998638212;0.60100286977093664 0.12100415784592546 -0.24055048745736005 -0.2163100437992943 -0.093662113235009961 0.54604959872029457 -0.14105165247245699 0.36137300632220204 0.053210629498882937 0.35074732159396688 -0.51582585845031548 -0.13490478450677248 0.2822832161760353 -0.43675507568373229 0.3515968275593625 -0.54329393846908103 0.54831383536333511 -0.23151489545019482 -0.4589867035075893 0.52009658994781283 -0.48920402373422667 -0.19930272496700385 -0.08127007969145586 -0.56567042255291822 0.026447732481504463;0.4754553567505842 -0.055234017826329591 0.61412455904192498 0.22140696133416746 -0.43900003802695281 -0.14481829237548688 -0.60962024878785515 0.32544200525347794 -0.30971115111076258 -0.50314303388755399 -0.4096847111382283 -0.05045877068019472 -0.14315109683602609 0.25292048851622051 0.2582883230290281 -0.69143951488974198 0.25684227481055755 0.28912758409231176 -0.62818391598273038 -0.19417483425160872 0.22170619931026048 -0.41730499565254509 0.12435447486210389 0.46393398258847685 0.51496521855855415;0.22777033573199293 0.22570289358958665 0.47076578270642988 0.029081237397188965 -0.36609159621082804 -0.45282379405613438 -0.46057650632357267 -0.17861383973151632 -0.48548106624001425 -0.38734317366072679 0.36762671546845643 0.38227297680978567 0.26724051834813267 0.064891205249894321 0.45749784252865766 -0.47589095758089567 0.06723240928397603 -0.45849304733681429 0.335906492655978 0.019410711485154643 -0.26226161513066176 -0.49388835729895431 -0.34465302555086824 -0.67144833622362077 -0.096809696429487224;0.44043114967182828 -0.11502978890073778 0.42753180199198432 -0.080446574716609001 -0.012378223213003546 0.14797576419944711 -0.053480591252042319 0.58238716817310676 -0.57650752545375727 -0.52971802170566662 0.41668158199135347 -0.16651499642195994 -0.097138044497198262 0.42963804351244184 -0.31913619194148846 -0.12056609355071408 0.38770055952606408 -0.43639322511507989 -0.21064375145272207 0.25121626065340164 0.55394307124583775 -0.29708508946604467 -0.45280171694552618 0.2298066991720053 0.23288448054108332;-0.18052264926562939 -0.5179058659336524 -0.32320141693714999 -0.4308149766902476 -0.21901585847320409 0.52709227486583832 -0.14177909527898613 -0.68480656065796941 0.10867483060613518 -0.31798743816057745 -0.34915573492445795 0.007811765802351444 -0.023273711937660153 -0.70893744238313616 -0.13879730093606213 -0.032598001726085492 -0.35351113896790293 0.24405445435045806 -0.067286235780606343 0.061913777527894398 -0.37938798267461532 0.4778885538089519 0.57986097495324507 -0.73246870097626993 0.41086674172716964;-0.33027734056749786 -0.23244227498617995 -0.12595937709430538 -0.17529476017529777 0.29241843868392897 0.47847866163596792 0.36289633943498067 -0.27032821766301013 0.63535010171430728 -0.12049025867821922 -0.48874129376429731 -0.22274432103973163 -0.063873650518059863 -0.46204172245333364 0.077076167371844986 0.056036525682051599 0.20348961060423315 -0.57431559133328214 -0.45903543684008719 -0.091187928662042603 0.24609528320995089 -0.13709414568886844 -0.25528639203502468 -0.53184305988586611 -0.79604724734043808;-0.023395451619390415 0.45860430507079036 -0.047604660060597409 -0.20739830092267428 0.049477100586936607 -0.37525922844332466 0.43325306864075974 -0.11858689330935572 0.68267635011349947 0.18920425683549896 -0.1197344582257998 -0.13125089306718707 -0.65974196038821042 -0.037633358932822665 -0.36215329912372679 0.68410876224312434 0.30678805223113087 0.32182490538155645 -0.69414218664508753 0.78906180640714685 0.18506690124411512 0.14575646360457231 0.10167290145999275 0.68460275756980205 0.090937048324947173;-0.27246469442766624 -0.30748955210829521 -0.36711035237710321 0.16747790799047127 -0.1946382742073075 0.5175166762568143 -0.46748811758048542 0.34510907108805916 -0.60463713606914216 0.52455329905975356 -0.16127880765038669 -0.41943244715480377 -0.34166543087690876 0.47281185892302857 -0.52099230550673203 -0.19302439706343727 -0.38074845251138217 -0.080542028077515287 -0.3124215902878294 0.33169163900191306 -0.25365096033618612 -0.13883403556897553 0.08304892809294584 -0.28771258895261625 0.53172983808394092;-0.33313864979456698 0.45960828812023508 -0.21690247168207855 -0.42779186682510401 0.4003709140820374 0.70380786053131839 -0.35192659413891625 0.34262546301717783 -0.31743957373974629 0.34583282552447853 -0.18181265526274951 -0.35730198379989181 -0.47260255311290511 0.026342168506565764 -0.26858801479372169 -0.37989447812478344 0.39219779002937932 -0.10078197284060109 -0.57548003643900492 0.022440349459539273 -0.078821812308819614 -0.010854604705541421 0.25723762277066936 -0.28225976372545902 -0.80303798216856814;0.5756742138255676 -0.27369866926683062 -0.080504275362251507 -0.1217856847864718 -0.65739792800048591 -0.58099641029765459 0.20773843320556271 -0.18061231400355557 -0.57253338506090312 0.52652846438532908 0.033544519899931048 -0.17793330713662103 0.14622535847738813 0.39659938584813564 0.084724388421369062 -0.37422829715742384 -0.12143610367526246 -0.19511014036062474 -0.28240171655847235 -0.12388195216179082 0.0042661888323550952 -0.65063980712404645 0.059913462432607915 0.72534681372954213 -0.39114698900671918;0.15153707710177483 0.54187726164201999 0.11679406558005702 -0.51177726552132929 0.48126787180227043 0.084264034521764924 -0.17507809783382103 -0.58162035817628388 0.14422855767173895 -0.42949400755216532 0.21708367985657226 0.6626690479928059 -0.3952951329625719 0.23887312980177805 -0.3218845082248849 -0.036922650982262273 -0.048742781903453651 0.25337730234233813 0.26314861019148889 0.4929601251613932 -0.25629965226497708 0.50292101938469935 0.47612284998695392 0.48674306035278503 0.18829351131242089;0.40009650809939307 -0.019038900799748671 0.050613875492845843 -0.42249265565378874 0.46909772138680106 0.57692604672527459 0.5013438128014307 -0.053720131234222146 -0.042534512698321265 0.47381773038759029 0.095962991158809477 -0.54908084704387827 -0.22959257078201709 -0.40463365653229555 0.29746701657102376 0.064241810454227985 0.13626000865934151 -0.3793175600785274 0.17757253859466304 -0.14629179158002492 -0.50416073430429009 -0.34196291646702265 0.5353833963602902 -0.0076628404832714755 -0.41879885918389231;-0.14192318404747548 0.38197038617544449 -0.22954634971056839 0.27470390541142892 -0.14736102249108213 -0.22010676151094527 0.60275684110007033 -0.38517124797323526 0.052186571996229655 -0.42144699191457047 0.63978891797186566 -0.071040645490943757 -0.30138737479854183 -0.29546737354101432 -0.39435264193869524 0.11327732686984845 0.59267423122709251 -0.41884039428652908 -0.16678115070268965 -0.64849561912168163 -0.082672183501861909 -0.63474772469345653 0.32299782176484398 0.15790178010834821 0.10628961381923986;-0.63194446879750565 -0.34385984882593285 -0.53873915290635943 -0.11830335998412077 0.18159177087603526 0.64083834908576276 0.32267686934333895 0.40693893554116123 0.022160287625221303 0.16745412541232174 0.022414840042160895 -0.15591610599513109 -0.043317503943420092 0.0039618848824782759 0.062334008724958534 0.2583374653776333 -0.033283581403122521 -0.13481495016375467 -0.57361310727250159 0.60841057080631433 -0.68743611611804789 -0.28435535931531558 0.39939691655948051 0.14981492483931647 0.52907593692942678;-0.47225499362143913 0.010258510927792305 -0.40780615536505244 -0.20143313966481341 -0.56295171064742267 0.10370013545160628 -0.091815554527232113 0.50926830215558139 0.31416472227066228 -0.49923611624708425 -0.28243585213802658 -0.36778192294243406 -0.008423154003739261 -0.017633836895586397 -0.3595199439162286 -0.29831732697859764 0.44750858078553096 -0.16933397287971907 0.08083679049682771 -0.35313891943494663 0.57108520529148266 -0.04900100134286877 -0.073651808538578931 0.46382203256372162 0.3643713298449891;-0.032747402162663364 0.21231064939668429 0.36030444674607892 0.34163144465962086 0.46567583187979522 0.16768821768983608 0.16805557394163564 0.34800665544248877 0.11188249980646549 0.46207414620287002 0.2934458227375093 -0.33225432365063295 0.57393629214097031 0.45109394471961617 0.02492479738628017 0.37442992618758081 0.56598517150329775 -0.42980443174402871 -0.53203085202519773 0.21715080300420253 0.59366201143507424 0.53356662802456079 0.077883086207410718 -0.093030879893852003 -0.18852182459760472;0.21378652142214435 0.3072657755334533 0.24248237764990782 -0.21395997642284834 -0.039851590985650241 -0.52453795734357744 -0.11782969603234578 0.28938940662752272 0.25615198170903092 0.232978114286406 -0.24382823201166817 0.32642270181900751 -0.47107608489341185 0.46373938043848406 -0.58896314141968731 -0.43420436233343124 0.40235183782866796 -0.33513253933340298 -0.33838646257434385 0.61684426675609061 0.17883252164489166 0.40433363373816972 -0.51989368974219441 -0.066371476853369207 0.10076322462655005;-0.42607633568910547 -0.23761887791943354 -0.28718778926113803 0.19107007560196515 -0.15834891558281533 -0.21715171562339647 0.22036909470869295 -0.58164667199826825 0.24722722519860724 0.33858836265982473 0.24333158306139738 -0.42201162101965434 -0.41910244134656238 0.19248537994039422 0.61034058696966864 0.62747851547218303 0.16224066448532856 0.04886869350181864 -0.17737884748561428 0.32470753838758581 -0.30660769889114603 -0.25554423457658465 -0.5261692477252865 0.27468079455676903 0.48133874048912317;0.14375419565100475 0.35227059282820083 -0.21057945322540289 -0.23881033019832237 0.11074981795118562 0.65523402829470434 -0.013029235884620217 -0.2493908261599746 0.22555526209594365 -0.44170936916044262 -0.39198915169599324 -0.41549402408661801 0.16977850197377972 0.65849602485269521 0.078415783269484188 -0.50089019247920819 0.20980847728955082 -0.43175414220283276 0.66836108048670395 -0.3254363290026131 0.12395114980987715 0.64552001733282849 0.39554786590032526 0.42142279483753187 0.12007993736014801;-0.42038931615482011 0.00019110448859549131 -0.18513738480322714 0.45315582708508839 -0.06420441682571737 0.164769798229118 -0.31392457869419349 0.011376482799733804 0.57588264904923792 0.58078043162842063 -0.60472054342260273 0.08490020392823848 -0.50682612163434404 0.097694564242454776 -0.088309909729296351 0.4176689461055636 0.58170249529066809 -0.51735297163694194 0.34253597730210156 0.24764755480171441 0.26657165095857976 0.18572374689205479 0.42041753141795934 -0.062530092542761984 -0.33348289906241235;-0.4495462209160993 0.020827164240446963 0.48908800529432422 0.048113074302440856 -0.48664118635386083 0.047872779032478004 0.28883953597873108 -0.18612205377019736 -0.14114318259797984 0.42673967770314986 -0.25016036856357982 -0.32937577886811503 -0.1425427390638932 0.23880665061297815 0.0080367831560658083 0.1020588691364728 0.41308358574023385 0.60655623518582025 -0.31617640694980859 -0.1196609166907357 0.49706649685284238 -0.4240583851679931 0.20058798831113256 -0.31630489935335077 -0.69038697367365942;0.27524582557058158 -0.30688364161433201 0.53792320512452785 0.02239078115430506 0.13501152809842346 -0.27011693967575723 -0.089975359208364483 0.057685759914942805 -0.27453249285918924 -0.28239595953665497 -0.094044374612939144 0.26266177055079309 0.50753090719906635 0.2694418372725399 0.4381045575406477 0.52567062903676687 0.17230183098382326 0.38852167446473063 0.47720774932836341 -0.47314655518864157 0.10512045604780119 -0.56769466765411647 0.48795304300745729 0.25659853344827516 0.029205709600851126;-0.37814195674288437 -0.2005311850085513 -0.32171141264136061 -0.35569862301511146 -0.56106665506179532 -0.34258975541700465 -0.092179354100305796 0.36620397402191085 0.070627461569507902 0.42699410322323622 0.2663068366385834 0.41057386531364348 0.42509900324296818 0.28354037254548936 0.40307301213491858 0.19727920212142627 0.40070535859761791 -0.23228008459251129 -0.21843040109865078 -0.23708700789339487 -0.45261268522935127 0.12048571801923671 0.3119840148828486 0.81163652277794407 0.48194358039080565;-0.11276734769835917 0.21608803130116505 0.15817412481652365 -0.043326982614919067 0.44492876589557184 0.45070038653838945 -0.29428562946087111 0.31089444488920109 0.34565298314723764 -0.019704754154873095 -0.46039905297611039 -0.59417275724842533 0.18183023381731719 -0.05652884669763733 0.50045082351839232 -0.14091373414133596 -0.5230742582029243 0.31638504084267627 0.26642849474200625 -0.47763498636051627 0.57291448777620169 0.5313589730203826 0.029712949372506188 -0.1187668736430192 -0.30641581171022769;-0.56815326670500876 -0.39163423626916949 0.55736184242117703 0.027605074390384041 0.23300008042078615 -0.55818256879338246 -0.13121878087908603 -0.22118653574154537 0.34124379800371546 -0.39004796465866998 0.30385718992888389 0.05867510184634242 -0.21765895702434676 -0.31159787755897073 0.27930670948803127 -0.53690894014270907 0.39433501795479131 -0.069782557118665531 -0.20033050973822722 -0.53117715596844817 -0.54721717305659023 -0.06613366582859509 -0.17878743325854218 -0.30705694712363618 -0.4306368967895593;-0.36247963122017196 -0.32868271706228713 -0.39215741093630341 -0.21176628392455668 0.19812154446628591 -0.078041860463901797 0.46146355557157481 0.46847931779706103 0.40569559118438808 0.24020533849317433 0.34884221640959551 0.40337104030063964 0.21348958668183823 0.14652854622320396 0.12910778513533683 -0.11679110083305404 0.1735771630459769 0.34606800084578404 -0.53196853512561781 0.29054033426607123 -0.34331749979181325 -0.57449059607669406 0.47301397453310073 0.24025962516894545 0.47536131747828897;0.30308738701959986 0.48809912285187251 -0.33932447583324454 0.03407115250351872 0.013894747056669389 -0.41241102482955944 -0.035865155304774327 0.62132833855190894 0.25350463186574207 0.66890698534592585 0.67425611524233964 0.12582424030145761 -0.16356396469084272 -0.14266626339330143 0.32825254879934357 -0.42397456975721387 -0.21198825754477865 0.39120227940377805 -0.20513227227122122 -0.25946461226354345 0.1951625507305246 0.21666810074446102 -0.3674429823147406 0.19195691747144814 0.74349988603022221;-0.22430061747266522 0.40227051649355755 -0.61038596757643804 -0.023180923052020068 -0.47935669029719824 -0.48766376038004305 0.14604183613854249 0.30298680859173882 0.25887884906860209 -0.03089486916499801 -0.40509175246475992 0.48140610967418979 0.45753955050489492 0.048171247921854204 -0.10601761949348038 -0.34681189128555817 -0.012728229850320551 0.048960019865218224 -0.20482289536802087 0.32099525703090653 -0.53541309875591026 0.48293502383758402 -0.09896300537658928 -0.61068811145770974 0.26207625187143202;-0.64335500667464773 -0.21149229164220304 0.1151202310230776 -0.037686038118657457 -0.61730361366609177 -0.49339333491484727 -0.067840777635741201 0.090981251272755026 0.33679524173738967 0.50683538628172586 0.25541301364273256 -0.37337621309606739 -0.27904348338739371 -0.65502351931122038 -0.36301772347661587 -0.17516099619377334 -0.6258355103568729 0.20529242668881917 -0.27772713438808577 0.3704697342069127 0.50794925558134096 -0.1954731828112794 0.28760696500797889 0.2790626987775926 -0.34618481288788922;0.6581659913521043 0.081314782796167565 0.25114874116788721 -0.13899880749276686 0.38109316063660492 0.068822103247018082 0.030856330315847322 0.57189432147103836 0.53076043480081914 0.064238038519111515 -0.47213981814768324 0.29969456001631367 0.1461985463259213 -0.52097826140275372 0.28376669785980829 -0.14599755830243868 0.13887836236628617 0.15674586348476346 0.38060132628354643 -0.45940496888217758 0.51577355167688432 -0.34463636625966648 0.39831814799075749 -0.60796034187210002 -0.53337887310057863;0.095232100321993154 0.18151129557548712 0.01987430932227505 -0.41859193334362138 -0.41603428144071181 -0.041188020466063596 0.6224359658876828 0.58040002222823339 -0.33772309203904749 0.49227809241729253 -0.26826088186488317 0.20388733841857248 -0.0098723130377570394 -0.48255056822314446 0.59514436105504254 -0.40355709990228583 0.051014307097984921 0.22128036495139153 -0.13852035562970885 -0.4784652968936311 -0.45833809813350662 -0.35400799637402797 -0.14276529644193822 0.36103283644933176 0.45578950967714249;0.67432470169917713 -0.57722853661976115 0.018767042400181552 0.63405233024397412 0.028741889458375452 -0.1001387562764631 -0.025191276406764405 -0.096734899975067137 -0.019921433206328994 -0.22515310549975948 0.64579222880411113 0.28790618908385868 0.40908332024227295 -0.20260206384838456 -0.29763613320737242 -0.15607130940127065 0.37037999901996133 -0.21583682122220374 -0.056068594832663493 -0.14009106743459843 -0.04083950250681518 -0.34504539103058096 0.59473664412354132 -0.039809102072860293 0.67148026379042502;0.25637295563137652 0.051711081544822492 -0.49360605034931226 -0.23340659639179534 -0.7281118044846383 -0.48361228730071443 -0.18283686460742529 0.48660540185414997 -0.15727279728647839 0.26972555272432647 0.307433477288445 0.66408317934283256 -0.12591494088335659 0.57599695241512372 0.037821982396757138 0.25942813569970363 -0.66544605368763698 -0.015515977821577884 0.24503360306547903 -0.20124868822978237 0.032539708929983896 -0.43594782127401321 -0.11398412995369983 -0.16324484181502952 0.12118482516101839;0.33590927291238376 -0.19693047131276878 0.3639874870109997 -0.69213438429213481 -0.52468436758042514 -0.5093757700362499 0.18549027471255056 0.34095509833355808 -0.38608478208238584 0.1252823320514021 0.54909983354103786 0.28160889250685572 0.15600604742590315 0.45618035255162581 -0.22787258748359157 0.065564588984714178 -0.17820549826506887 -0.21176876147862289 -0.25922471024924848 -0.6662639725124222 0.047907784935174558 0.074498680828005703 0.44860532780348383 -0.31005417907578925 0.13657228946247893;0.24755941111027549 0.25044544186700696 -0.48709850621899559 -0.38324483354862815 0.30425071945064858 -0.74860651172177062 0.14771366719312909 0.24971343781928559 0.30104983263219087 0.21781741821389786 0.66506620155321294 -0.40059802363445668 0.18713231535029837 -0.48474420326575668 -0.24500445906322121 -0.093711466450193834 0.39735760618762012 -0.20522946728062824 0.20391335334325569 -0.23187732692094248 -0.33977595370332531 -0.25639984236092123 0.33702493684443363 0.25168671050849162 0.52574050777124337;0.69806294482168418 -0.50464777746233447 -0.26185673860562497 0.36536670553563344 -0.35049276798385576 -0.44117317286309116 -0.41470674264201668 -0.51007141573694736 0.19951495483150378 0.45191986528679118 0.27849758607026615 -0.20686209331336108 0.24199510723583095 0.20216306867758477 0.41610972565397097 0.010998457169320481 -0.57080299233714249 -0.48780896572659815 -0.29038295548169929 -0.21541158697394483 -0.36182755058698268 0.41333325147118272 -0.32942521674086173 -0.27269179135245436 0.10564438127773221;-0.28943820278734422 -0.18635535579467138 0.059948163047604842 -0.66681032198183143 0.1309823212116264 -0.35453805721089698 0.51877159026117259 -0.30071632041846086 -0.59921565983508196 -0.16215161791425656 -0.009844986378139714 -0.017845019397345466 -0.3772213657073431 0.51496498570023885 -0.29396549877130368 -0.55725306561883658 -0.20737100518470339 -0.3275328800731408 0.21498567114303355 -0.30433389331623023 0.46666327646425898 -0.14971464454173425 -0.35207552947199972 -0.63252899067134238 0.1618827350613046;-0.16257137146130107 -0.36299270218912211 -0.28785863170886578 0.10795693565387389 0.49985522644690711 -0.43829765245768221 -0.4724359703191976 -0.6242984855392375 -0.044193762299345504 -0.52483584796311245 0.13444572641891178 -0.49262757221551084 -0.26872541192652111 -0.28666794586249766 0.33441636141327602 0.31193336825187434 0.066728988589762547 -0.46219560329991671 -0.36368936109187106 -0.36231256198207945 0.65984610155996615 0.16587892433095369 -0.045719352690902507 0.23257904562866533 -0.15567735454930898;0.27439293811089072 -0.1732782549533331 -0.18319329207240989 0.62182604469222735 0.59069050197200623 0.19738623807462441 0.2175479035372411 0.0017748113349920413 -0.026699979783372962 -0.19274190003528277 0.13770208445236004 -0.32559842645020193 0.41819880207292426 -0.3250427681326935 -0.51732980515853777 -0.28124571038834179 -0.32179411747673586 -0.24712278372712998 0.024701880028296722 -0.35589284851102204 -0.040673851983976828 0.32316432584751054 0.39162787371013591 -0.98588141452105216 -0.77200016565309193;-0.35264939910382598 0.021446832616554466 -0.45433018004720821 -0.19434049559529729 -0.064350688152166213 0.30397211980413003 0.4051022384262617 -0.46190912828837999 0.12093611753151375 -0.19373676157353845 0.57883089861867143 0.093412436531642745 -0.38827133292435551 0.60654030939750347 -0.37686943802756429 0.21143964154758516 0.25860375180179129 -0.41577563088168867 -0.60039061068118793 -0.24738492884377289 0.5147064970288967 -0.14619603405455373 -0.044691559940946056 -0.25963090322198074 0.46912527176854985;-0.47189366161247198 -0.15699718735775639 -0.3111877469457226 -0.31549919396341308 0.46611614095925796 -0.0073494952497442558 -0.22292591670780695 -0.16320754691824976 -0.25363766168964758 0.61470418507700042 0.25939224127079552 0.28737863774444805 -0.32579932663595063 -0.64266780655673517 -0.42270881236800217 -0.25180838343210704 -0.38816818168666384 -0.30742232663897129 0.16027963177844246 0.54227797072893635 0.12136076117740377 0.27812945811959328 -0.50083178791688121 0.70825206860031542 -0.46785968055578503;-0.23850527869550814 -0.4720799501630491 0.24371738293604392 0.33609031012579027 0.14060343658643862 -0.1106102482440476 0.63807154969211322 -0.15718239030470982 0.27887057416440303 0.11752929128020367 0.069712428014431796 -0.68339104248784466 0.53576098782712522 -0.26865124502768811 0.25913405512242443 -0.53706910070022695 0.41106797897890346 0.45072095258974854 0.017318813895797456 0.6594674284631542 -0.36769219649425883 0.22342803871555467 0.16889013559247198 0.32531096897670619 -0.25456884072548269;-0.022765205020346877 0.31690969459518381 0.23763800243318664 0.058766534809259939 -0.17240352462321848 -0.085934987958605796 0.44668902810139111 0.12944259558929944 -0.4674132360330327 -0.57809031022531698 -0.34963974931938657 -0.33601712822167984 0.008456097789267529 -0.17247966309091775 0.29354958176870699 -0.50051922529178094 0.082301997559915657 -0.36333843487993644 0.52708896473582834 -0.38119841169944207 -0.27513564583436034 -0.55972781489309742 -0.29239852047360376 0.2933640375360933 0.63094175931438135;-0.18351077198843371 -0.054251528028014473 0.69656562938037436 0.46192065489253498 -0.52483555034078 0.10411332765827457 -0.13292640049770829 0.14592200899014121 0.76344858596654186 -0.36087031586777912 -0.036777916302861029 -0.39282213460322479 0.083448342933133815 0.51589659744754268 0.45004254831830803 -0.32751958817535926 0.30465127181345514 0.072120528794316671 -0.56066459915001521 -0.34143231880224995 0.00097527299925641688 0.33001294933754582 0.063152605829421546 0.16655407808504183 -0.31286577378139901;-0.024015240325772177 -0.63292507244604501 -0.48108500354045891 -0.24165169099194689 -0.15860239421286515 0.54570564809112543 0.23612635976440033 0.30672668963241062 -0.37304137024875827 -0.045036087303935005 -0.2551645201766754 0.27856924262533528 -0.022022718895056952 -0.12843756431441028 -0.17060318607404026 0.45497943787412209 0.35745194131547958 -0.38069511789596033 0.63074714763634698 -0.37029219227131316 0.44484380648326743 0.14394508376067361 0.412725440794531 0.48099311197658429 0.17689829532228346;0.49642452314538649 -0.21458215822281043 -0.1016451850930836 -0.060324383723844313 0.27573555690945462 0.20972323108555441 0.65688551586570676 -0.011521791051966969 0.26385954678543699 0.45522443726842299 0.15190762077768877 -0.56011886320117243 0.33870192548955946 0.22928628837009196 0.14949744132109308 -0.46486543311954953 0.39765721595978243 0.52394678326827582 0.30844074730467258 0.30173479529774011 -0.10300822538595911 0.41631523738521203 -0.30214823779069155 -0.54891054301326636 -0.52150613744173757;-0.0099666354717362609 -0.64512771364427923 -0.05308530259666025 0.45780783116432583 -0.33889371403796442 -0.036551804239915865 -0.46145121575737191 -0.61692629530459586 0.10084466784036909 0.57772773930453003 -0.14284794163115194 0.51295145877864656 -0.13517825042067036 -0.094503011274640711 0.62541156401988474 0.32294754729410746 -0.086990417552451793 -0.49774053877654817 0.32340082821561389 0.44341857760418951 0.15854730677966439 0.1664238359827076 -0.50222621905138876 -0.036572762320582396 -0.43963928108580658;0.1196814916384441 -0.26871870499363987 0.45445247520562049 0.64562525190974607 0.64732598498759242 -0.030366344595508438 0.26832644864036043 0.040541576381461594 0.019252221581021873 -0.52655923156188911 0.094808425610765037 -0.58113143953310553 0.49105102118639238 0.43948364795703565 -0.01069474548351191 -0.10049666253169251 0.19321028740324539 -0.51410258989664237 0.44790434663582057 0.19021156238614284 0.56857685468951902 0.25025234793038109 0.35751739989727527 0.32445497268202939 -0.20474047739588397;0.16745286744240742 -0.49715410930570636 0.074741932317223259 0.57899925242442352 0.58067682761371475 -0.03252374680205343 0.076720576834556881 0.1196619773829964 0.077807519477908857 0.29552573805346877 -0.17850613968503423 0.26016045360554313 -0.081552820999203579 0.15573214779149561 0.35664205834261892 0.45230868387630213 0.30640709990825393 0.33891380191724269 0.32177659239280171 0.28567741619597348 -0.035781303546336324 0.025588561404793597 0.70708697345695304 -1.0510468568151332 0.61886568783873774;-0.53573711824308246 -0.33955216345675188 0.30052495611598634 0.58775990922471311 -0.06202568153346371 0.052171881328572985 0.40634605840055382 -0.39011789669051383 0.096242786576490866 -0.45466399629276349 0.22776631466685099 -0.51606431925004115 -0.20444298769093663 0.074680779435914529 0.19130218136822885 0.35612909461290548 -0.58538001282269292 -0.28063347427762364 -0.29871080079612522 -0.024169428535091058 -0.076850073364896881 -0.45805071465259145 -0.15022182879853632 -0.64295906799981895 -0.61729013558949919;0.042127970199419738 -0.19471086013939637 0.21296335395565114 0.33337684258887124 -0.17559829546620523 -0.53198276941672529 0.39918400763462181 -0.59223214666916357 -0.44573936631299993 0.59735715621181817 0.06281495562924988 0.035352839128234746 -0.51270281790260475 0.1963332656572164 